{"sizes": [32, 500, 4], "biases": [[[-0.8171074384761791], [-3.440682217249763], [-1.989798127680174], [-1.0454195849603138], [-4.597727228531708], [-4.104097470624253], [-2.7953148292099215], [-2.7642649166898297], [-3.1239397231034416], [-3.9220761630916723], [-2.082638280531539], [-2.5428931093901896], [-2.324032126408867], [-1.902463271625447], [-3.6981421011058764], [-3.6932067799610158], [-4.400365807527021], [-2.7890305385841767], [-3.088069203838907], [-3.2766854772806004], [-3.5045216679176034], [-2.462544576884917], [-2.1688735463145323], [-1.6372394143131468], [-3.5459343625635453], [-0.8235218887235584], [-2.8029100488740917], [-3.3862934269638836], [-1.69632839681507], [-3.7344865303429713], [-3.7754617175511926], [-3.5455281880785963], [-2.5899018378800167], [-3.4347064798981273], [-2.7783045519129064], [-3.5985679740355514], [-3.5453059939313087], [-2.9153554725220436], [-1.9553976725761402], [-3.060107000047165], [-2.3168931590426696], [-2.3021326653072904], [-0.1538884820984619], [-2.8707024078398877], [-2.7195309871486995], [-3.276931321641645], [-2.420111888964956], [-4.545964369762497], [-3.77022942267108], [-2.2624922501092892], [-3.251015922684579], [-2.7513630146745935], [-0.4594677456491594], [-2.5885734310875574], [-4.74247867697619], [-2.2030621461649154], [-3.090090963845738], [-2.119847039154241], [-2.807921326539286], [-2.509225536148214], [-1.1241408822829742], [-1.409157984856624], [-2.760556958632703], [-1.8202223228391965], [-5.470231455524029], [-2.6172647052345894], [-4.088636123827547], [-2.3500680126792908], [-2.632593026653123], [-3.7396633580791807], [-2.9906465051227293], [-2.355004877165098], [-3.3904608557915834], [-3.1307887937210923], [-1.3797062090734509], [-1.2449857773524697], [-4.42593141803939], [-3.164798525173906], [-0.42789131776788086], [-4.2129943054512395], [-4.628617946790656], [-3.451611081924297], [-3.144184350392479], [-4.31264562832534], [-3.349662769678708], [-3.454879279641984], [-2.1769170578345363], [-2.252968653518652], [-1.6071369794850585], [-1.5571800016054471], [-2.6836308077104207], [-3.689032203408975], [-2.3257232805702692], [-2.049075944870871], [-2.2079003724777024], [-2.8403970111295447], [-4.350260875014385], [-1.1090769799161821], [-3.4179932302056737], [-2.6477485392056743], [-3.455062710602076], [-4.000078971993241], [-2.5806515479706134], [-3.3520676899484196], [-3.2445554589736507], [-3.4553029460163693], [-3.3590447231920053], [-3.925323636823509], [-3.3666035237154555], [-3.720159523950701], [-3.000937587293393], [-3.550197099193784], [-1.1225068823618547], [-3.307250918699559], [-4.529740760029186], [-2.1538515213311125], [-3.3240386477002564], [-4.859011738828662], [-2.2486646166125808], [-3.065383440525258], [-3.161898404905402], [-1.847323053122734], [-4.639489911061868], [-2.77162289485884], [-4.0710516889165875], [-3.6935397341980587], [-2.5650609256833876], [-3.6031778577223967], [-5.0061047809797525], [-2.759774645680912], [-1.5130870817522295], [-3.588480292972578], [-3.6530758510181425], [-4.601970685755111], [-3.6723361408309576], [-2.4281859901275347], [-2.2362183822227015], [-2.2330595447712303], [-2.798408420684834], [-1.122137563458272], [-1.982735347929238], [-2.1666928820212057], [-3.759004448233744], [-3.639827288601768], [-4.459964032107367], [-3.634172148467422], [-2.5772805643281727], [-0.715372757182557], [-2.510429766539729], [-3.898629013158752], [-3.905819745612874], [-5.226045693849683], [-5.0605225665215885], [-3.996036573152979], [-4.476619470355655], [-2.882887925197402], [-3.857178651665512], [-3.7342685492243306], [-2.2183280259282516], [-2.5796162327861705], [-1.4548671117390422], [-2.802061296779405], [-1.7426717990675482], [-0.6738551232202985], [-2.365030768746312], [-3.7099546893812896], [-3.1765420532232227], [-2.564061797463298], [-2.1556782591512693], [-3.5842018503357735], [-3.405718628968494], [-3.4704955962034045], [-3.745380507848849], [-3.3806593006966867], [-3.6735666819321655], [-2.8705043570812565], [-2.9216914038337043], [-4.63230656341333], [-4.787749108503129], [-3.3703943733708037], [-2.9083231281638415], [-1.3709185280562899], [-3.0737941596352747], [-2.650874582592488], [-1.9170664317896025], [-2.501233456093949], [-4.6653159742483545], [-3.2114969797031194], [-3.7497898584887674], [-2.3398357284525044], [-6.021838017647954], [-4.055116844286789], [-3.3624584961921067], [-3.8671189930783467], [-4.074861083136912], [-3.553953007994871], [-2.931016681518432], [-5.116981617348229], [-3.8978584787530184], [-3.5313538638022113], [-2.5614984127966984], [-3.203420689861276], [-3.87987522061181], [-3.274253871044515], [-2.4404380006817115], [-4.721459209712335], [-5.426233690050131], [-2.6257796843268046], [-3.3892781839590884], [-3.076443709478068], [-2.1589422716850173], [-3.709254220457735], [-3.4195101430100587], [-1.2432788338854337], [-3.5801779846181483], [-2.1809872955024967], [-2.126858103201608], [-3.1679666016156176], [-3.11474613220817], [-4.443005757541326], [-2.6527683302075404], [-2.2506328011288725], [-3.262000687035997], [-3.8601149644599544], [-2.956667398142654], [-2.3864182379006147], [-4.525621384086142], [-2.790192460287824], [-2.03748515594201], [-3.9305882145046223], [-1.3588772743891286], [-2.4337319977110106], [-3.1892717094415213], [-2.6474440241950092], [-2.4985047475641977], [-1.5064104295565894], [-2.34959525159973], [-1.7490916309329658], [-3.282035343460258], [-4.310707121217324], [-2.1246594357459387], [-3.8169833988619275], [-4.7474295338147305], [-3.5198527237582447], [-2.621121817978559], [-3.8328770729844406], [-2.8755848597632676], [-4.396852850522332], [-1.7375989003735617], [-4.228053514141903], [-2.4804523017513938], [-2.3171507694918496], [-4.247840686417761], [-2.471482493271822], [-4.4793981012679405], [-2.89799765512479], [-3.1440715568147093], [-2.195710915973395], [-2.845559514080528], [-0.9986531893298961], [-3.3855453934172797], [-2.7402884579909106], [-4.2943361221490175], [-2.385103018914443], [-2.0196764213875893], [-3.904785254253997], [-3.306634341061257], [-5.081259466381501], [-1.178748216630366], [-1.5699729844694927], [-3.5322676420191956], [-1.968026055653207], [-2.2246633389429706], [-2.9667621104195314], [-3.732171753729922], [-0.8489805770102261], [-4.442748398375618], [-4.7755848240141106], [-2.653361496457929], [-1.7818619127737816], [-4.0044620174297085], [-4.41678257053904], [-4.5595382740142885], [-0.7917856527016862], [-4.927708240257728], [-2.0615233060926506], [-4.368869838884144], [-3.9877261122554715], [-2.4580239555409467], [-2.8210099029132794], [-4.248148511811449], [-2.08880803147957], [-5.0149228489820254], [-5.92104144895048], [-2.5010449681262115], [-4.31629916959318], [-2.275949652032161], [-2.7706833337597385], [-2.2478245710159266], [-3.597867657484733], [-4.059905322604044], [-3.0815208281569335], [-3.6655923610025067], [-3.6773832157010795], [-3.724555784489264], [-3.1465167402275145], [-2.7675312267314425], [-2.341160188949667], [-5.064472132143578], [-1.8033599226656267], [-2.660901552440957], [-2.2123046150265524], [-0.5552494099712968], [-3.0893743257210478], [-3.117313571182395], [-4.058543473473412], [-2.832401974720856], [-2.6339518627695346], [-5.161061122868576], [-2.2612292135858425], [-2.007058247035639], [-1.302698082701557], [-1.4094580002162893], [-1.350643951975196], [-3.1350722144232406], [-2.6868887141160136], [-2.170236415464283], [-3.1217494351954627], [-2.3432771167300563], [-3.53653116086723], [-4.599489892955129], [-0.8704039318354833], [-3.114072369667189], [-2.6633021952890057], [-1.9911280223546355], [-1.7111405738898118], [-3.999766341227198], [-3.73357482737637], [-2.6056653696957555], [-2.5536637841207357], [-4.523919215887116], [-3.889275232368652], [-3.0803578878336415], [-2.4490546766471417], [-3.4102816256448913], [-3.2276850996658446], [-3.2672948816846588], [-5.039326090799548], [-4.4690252412716625], [-2.3029414367429584], [-3.090482369741745], [-3.030599156339999], [-1.5969217354802407], [-4.3027172693800635], [-4.051570923389645], [-4.858371106995102], [-1.8468746465963313], [-2.9480709248830967], [-3.1038390010755124], [-4.615086949309782], [-2.572352096293925], [-3.0442356960990837], [-5.299579351360571], [-3.0796311179906413], [0.5166867428026909], [-1.3419008944647182], [-2.222262043471635], [-3.4503796312354376], [-4.734870821757346], [-4.490029770598706], [-1.1958093090028863], [-1.4191596791651901], [-2.9156564446375683], [-3.076205621595885], [-4.361690947964273], [-1.9913705546560043], [-2.9934213644272516], [-4.626903300148548], [-1.765547205081653], [-3.0192337203193946], [-1.1511482268417859], [-4.249030098214147], [-3.1105003728630733], [-3.6000790750444565], [-4.21413283311727], [-3.5635610346316033], [-2.996068590765838], [-2.7536263322333627], [-1.1336061409584985], [-3.0071293526292844], [-2.388429174444291], [-1.6473610446983618], [-2.8420146857706348], [-3.7624915587100185], [-3.2935090855313622], [-4.4677439188197265], [-3.9241042883864417], [-4.396112193009307], [-1.0965918100242726], [-1.3212316536051838], [-4.090927272496238], [-2.2426346616447947], [-3.8598598382262383], [-3.37863375070851], [-3.324401331549733], [-2.85090771997563], [-3.4642726423910357], [-3.257382702363624], [-4.69014743134076], [-2.08276184553462], [-2.837151358186986], [-2.9335891511168364], [-2.376426735960035], [-1.3868463528114112], [-4.987061036942196], [-3.140834382524311], [-3.368537962564642], [-3.4962108874394238], [-2.9264446675199784], [-3.5144140567705056], [-2.8463242182380886], [-3.4561993363704846], [-4.095067030909526], [-3.7429115745938697], [-0.6688432085196623], [-3.855380128547584], [-1.9780736352379091], [-1.7517209018381183], [-2.881669659247026], [-1.9633156414526047], [-3.710622833383083], [-1.4060352122186277], [-3.294708361470873], [-0.9711741457733378], [-4.3161579174806], [-4.661828766165538], [-2.1442330183402714], [-3.9163389099652006], [-2.8582695911757137], [-3.472708751612298], [-1.5047394917182597], [-1.785632551385633], [-2.149152760131986], [-3.573975866939153], [-2.10411599079342], [-3.3127323858434354], [-3.2527022167707953], [-4.441447326793213], [-4.249261124904319], [-3.3681643725686365], [-1.960995434747401], [-4.3956607541140755], [-1.7863792604254147], [-3.8675686832836322], [-3.9505232292492076], [-3.09978235323843], [-2.854354078772949], [-3.6724437940587413], [-1.3841466280044001], [-2.1323992377311036], [-2.2832360267792082], [-2.7722919856994954], [-3.728872639573153], [-3.0700023736926187], [-0.6555526314941789], [-2.022018407128769], [-1.919340096456862], [-2.752712176850015], [-5.452550374792922], [-1.3229831378726313], [-3.181350637771262], [-1.2603123563009726], [-3.0054965175813986], [-1.525165343102644], [-2.1970363096402523], [-2.917942075268395], [-1.5914816593966807], [-4.027764015015943], [-1.833648443032155], [-0.9105073941469685], [-2.102386966183297], [-3.353035986782057], [-2.3250849102336675], [-3.634497671953248], [-4.119592944042427], [-0.20521360787440243], [-3.5379011404508987], [-1.778027205898057], [-4.5467458177451805], [-3.098647513861021], [-2.5373140444218425], [-3.207611374306854], [-4.187541375509481], [-5.413962969852994], [-5.39205183434311], [-3.1790679893346505], [-2.3381157502276153], [-4.962182691115278], [-2.8522219039952597], [-4.925562638158727]], [[-0.6785585293861798], [-0.043125591951588986], [-1.8442709473056147], [-3.31518123527229]]], "weights": [[[3.0843479265736486, -2.42331633945689, -3.0325399392163632, 1.1851838853725165, 2.2010558430705727, -1.8051307578454487, -2.090910128920653, -0.033296055056265005, -4.169498671696934, 1.8907359016323202, -0.3026002436695721, 0.48505244111793405, 5.928428666802072, 0.14531807799862015, -2.2207953058618113, -2.595980321730217, -4.556775509443678, -0.7588471874942421, -0.22941640842346941, 2.296200984113807, -2.630712736169279, -6.58870006440651, -1.3768033916855489, 5.164257909335256, 0.4830869200987513, -0.6290449011617937, -4.211108101401482, 3.674209257898021, -2.1557051975748327, -0.09622321601855116, -2.3123261843489127, 1.1479520025717027], [-1.0966147291259174, -0.26195571591682043, 0.5283718806288646, 3.148713359894791, -5.692347577353681, -1.9644909301789764, 0.6310917275263176, 4.700398843036594, 0.2817392140369168, -0.34045254216064114, 0.04855558031108103, 3.0917077585797896, 4.098464105175928, -3.0463406378861495, -5.205621473179968, 0.8062783997941602, -2.6578199390347805, 2.9840915575492732, -2.8678959708050993, -4.092359265893784, -0.4931362283535633, -3.2180954631169385, -4.320462304449024, 3.935974829095186, -6.526073302616334, -0.8099441270672415, 3.861674333389405, -1.999050691730155, -1.7931826243464777, 3.6484590782753363, -3.0958862932610467, 0.8848252319782319], [-6.109863889827187, -1.5665794932593144, 0.9353753103634531, 3.6069958327683667, -5.3865723866335395, 2.290414894601636, -0.9290815949600109, 1.5264023816117356, -0.9242197761711985, 2.7407435635715482, -0.21169594650644283, -1.8678466652774262, -4.373982833425004, 1.07754364485193, -2.009379294555696, 0.5647304567942322, -3.584028823346123, 0.334500768871783, -0.5033729048189977, 4.689610361463411, -1.9144016914089086, -0.06249770438440391, -2.015163639398419, -0.8319319603087371, -1.5862105073122656, -1.5057340766455107, 0.6026964652418426, 2.8016801308558894, -3.235821935523999, 0.15081242045809767, -2.520691790406, 1.109544177884877], [-3.42567453888778, -0.9039217318812438, -1.9694655735301403, 1.3915758168891352, -3.379340388408175, -2.7837719161977557, 2.4439801262060383, 0.014748164063161788, -0.7168319336277227, -2.0484501579088645, -0.2632750051454138, -1.6197121449521314, -0.8779061764718447, -3.5964400023293948, 2.9473798029647558, -0.174587503493748, -0.22061942726026512, -0.19905648671993278, -0.37273524955996123, -4.154489868721875, -3.1100789583482946, 1.037744531776218, -1.3810107362716522, -3.689189083007786, 0.4844824866885735, -1.7220842241710836, 0.8422311792879033, -0.9628167653957443, -3.8565740340705847, -0.2201930927937934, 0.19968166999733888, 0.017315715345739755], [1.9097661659074667, 1.0526681267815132, -3.441684251056087, -1.0517461064205635, -0.9142017632920116, -2.3028277750501798, 2.222943277556149, -0.12399314639200554, -3.1798805788564395, 2.048165434323377, -1.2166265552516387, -0.48342296783639477, 1.4460672659521359, -1.4625247191061395, 0.28913576239542077, -3.1559866358797892, -4.293577294133369, 0.8621113487617349, -0.2777537057651933, 1.2211858936544417, 0.36859046765942693, -2.231945631694094, -0.8607890277366834, -0.8231492975794701, -2.3731839530415884, -0.6609319606022341, 0.44595171906258235, -1.9038832668813073, -2.879925931272446, -1.807790774197214, 1.7839719172638406, 1.2931629968279497], [0.8467586647253105, -1.3098064596993926, -3.5713922309777444, 0.6781982532109456, 0.6966022251356776, 2.208362549797956, -2.6142884390841017, -2.4684970807406983, 1.1006241504161207, -2.2633865096915486, -1.8361365709143647, -0.030844174970846006, -1.6596135845830815, 0.27226807302311795, -1.6136056629535254, -1.5350072613851242, 0.9617600130057785, -3.133117224810147, -2.6630062041337554, 1.1916748337945373, -1.3332552850769317, -2.010339521847582, -0.7760544371914351, 0.5675568205302589, -3.0158953474422736, -2.2867313464970267, 0.476903732948213, -1.3137978965645924, -3.0674727313250907, -1.1378992677005364, 1.900755699843663, -2.513692764415171], [2.892964932176576, -2.6647636264134453, -1.8632350427564184, -1.9769269326891696, 2.2463257845041484, -0.8820183959579959, -5.115439433310956, -2.124522048041485, -3.1365339959898226, 2.2527191116995198, -3.4443039381576437, 3.3739479083719988, -0.49411553476391773, 1.736055029666378, -2.0964043489457067, -0.40814060645546635, -0.7676821953144934, -0.6809562294816629, -1.4927361795123195, -0.508417052197491, -3.139477351686256, 1.677004083384895, -2.959257896598003, 1.335382085099977, -1.9683563756456253, -5.76475131558477, -2.5857376622791146, 6.90588236681279, -5.792721186915654, 1.2013352996735829, -1.7607546183456528, 0.6810069821612336], [-1.2176335701430077, 1.4058868527566741, -1.8183367579442244, -0.8683424448277532, 1.8779745374055095, -0.8604448400165788, -0.33432315105691707, -1.0220227080978852, -1.4571141729488515, -4.535793580221851, -0.019919746379896408, 0.0767491085839166, -0.42290677782203473, 1.1936873350846469, -3.3274997923533522, 0.2493873000499336, -2.139880801924967, -0.8658289751243591, -0.8433704876456666, -0.70193472933757, -2.962465670433483, -1.1850335877206621, 3.7939135746565005, -1.948349388407532, -3.39461844013339, -2.8256485335892827, 3.042166169546257, -0.5880114709912287, 0.4261889982155035, -1.1499560343922643, -5.729484643582397, 1.2179682249004706], [-3.214985599087934, -2.15495915580116, 0.7728149623823417, -1.3056482300669545, -1.1627523277652105, -4.512357865797711, 2.507429592451602, -0.3737312020225594, -2.792944471896092, 3.358688445854307, -4.984327403292317, 1.593108352313686, -1.3686381910469636, 4.0951785638662574, -0.9188552107181488, -3.9209725606208776, -0.8292367649199017, 2.7923090057241984, -1.232375682806419, -1.1740023459488946, -3.530521767056988, 1.8210885571940474, -3.0096090456421214, 3.890364725851645, -1.230584034356704, -1.072166135620815, -0.6983667015663725, -0.11724570918679486, -0.49119286825636627, -2.6973729029521443, 3.762173984311161, -2.6316796408865297], [-1.3351945826919565, 0.07817474219023209, -1.1820311100286385, -0.08833390626509711, -0.8109996858622858, 1.6025805702407223, -4.189260576329252, -0.6378833224644982, -1.0263378041795999, 2.1780687645253196, -0.16338716782443818, -5.81082873906907, -1.381509315072699, -1.6000288536600105, -1.8787321761956697, 4.1530706251327505, -3.0939345516773304, -1.1006388166725236, -1.2694832852420201, 0.9339372260432052, 2.2145608407615476, -4.4364610575473655, -3.031527439071915, 1.7004266105162336, -2.8774981787916967, 1.205985746487025, -1.6894728840174624, 0.6962800134346517, 0.17644809421228583, -3.751580343710828, 2.2220883869853343, -2.590017504030645], [-0.9641157227616988, -2.6706783374251475, -3.2346270522407483, 1.5895162338983153, -2.2075546978245826, 1.851350173269397, 1.6929054742056315, -4.125990078751584, -4.267537872715841, 4.083736148775717, -2.9737422945628555, -0.08095356219144702, -5.374428370426861, -2.400105286613754, -0.48824368811341656, 2.222615683572879, -1.4734761278143578, 0.5611985175638813, -0.6653978728014551, 1.4623803217484725, -1.7974822949539175, 2.0905487535422798, -1.207675774737684, -3.5319842584103047, -0.38526524386255184, -2.5558660337990635, -3.5597292907158105, 2.2110845628129514, 2.489066703113694, -1.8115426362970755, -3.5614371388746107, -0.683503873247684], [-4.922019979763106, -3.3113381453934876, 2.7083008619092057, 0.764267822519226, -3.200181954694667, 3.7682699703425486, -0.3741236414037856, -3.4726600397898935, -4.360070928480808, -0.4983018338518549, -2.0282480983309537, 1.3948130162140746, -2.2021560893141303, -1.0750726347107948, 0.8918567862205837, -0.3453611474974123, 0.2781701019357938, -4.79315879084174, 0.7012499958559468, 0.8277991354323575, 0.8221975291294656, 0.5891146020228044, -3.47481532195716, -2.581741684953469, 0.2575823591038877, -2.5447457851302175, 0.14427497841607995, -1.5788336700759407, -3.053182849448573, 2.182461380018962, -2.8617526751246802, 0.8629215646975753], [-0.8506117844406998, 0.10446041387873971, 0.29935345916354544, 0.3229391995575945, 0.1076639966166553, -0.7420951441650524, -1.246271012715277, 1.6020042758383728, -2.03857166681978, -1.7695408307399807, -1.978498725163531, 1.07520007307293, -0.45585499783637834, 0.19342597196450648, 1.2172905455222613, 0.7895594091445061, -0.2582731316433125, -0.9416239306521665, -1.5766343110670749, -1.4721198853023427, -0.7240490047650399, -2.161243087177555, -0.4321122106748743, 0.17606938111886952, -0.818875203484821, 0.6268700733060275, -1.4447593735226738, -2.125708511736479, -2.5324630998976563, 0.9187386626496072, -0.9036711834813794, -2.0154090592693477], [-0.8914372676402256, -3.379277866912475, 0.9187113935174616, 2.173080086999275, -4.690518323245148, -1.3309592548423321, -1.7600287176890037, 2.670372335639925, -5.592968421160409, 1.2491428620155405, -3.6299752483237615, 1.329830060964107, -0.026194440896045453, -3.805611623429213, 0.16027021555710963, 0.28624031075593237, -2.6736729299382915, 0.9823418658126432, 1.0521966216132443, -0.957136849772008, 2.8895675757457906, -0.9226083650793446, -2.2398417032497218, -3.4064247083867065, -3.5120658566731557, 0.6121730777637575, -3.0823316750169405, -0.07574723365907123, 2.498392605391578, -3.0140162188888775, -6.349156708056907, 2.9163482451802474], [0.06847795108621897, -1.9447189093914583, 2.5275578475527025, -2.127780376442183, -0.3390121893748284, -1.7354658902126077, 1.0319808961862866, -2.6289333937624657, -2.9972515415269134, 1.6759317711812476, -4.654142742814727, 0.32967160622561587, -4.01183575216746, 2.934412949646356, -3.015877753662607, -0.568248906323213, -0.11655036107498033, -0.40569253744065265, 0.5725681887682881, -3.8744356362255155, -1.6478672656302575, -0.8026880033530421, 2.1886417203010713, -1.9646930465972328, -2.0261362048424325, -0.6917890114326347, -2.218876096289967, 2.0097034342117186, -0.040884404338433135, -4.2460846043511475, -1.714620247812752, 3.3672389583600366], [-1.5676335943599062, -0.5416381930651918, -0.7725695449098562, 0.5943810942162296, 0.5597687795874974, 2.943908927074882, -2.799052344629372, -2.155651355847318, -2.1944098329336303, 2.2184844733797067, 1.480850419125289, -3.618637892014607, 2.553940504601651, -2.0529837596209, -4.303041302608962, -2.512037485623308, 3.5198983123541443, -3.1125004781038093, -0.17298354325664, -1.8446242412704654, -4.2837466423257, 0.5048598166538788, -2.3752545469810737, 1.2970082435905843, -1.024793214548831, 0.39063278316994154, -0.9203785837871924, -0.3909680568170725, -2.014524073431386, -2.4899762025816896, 4.394118573798205, -2.021462721362869], [0.27465901194334247, 3.479583649096712, -1.0609465614098323, -3.702915525680321, -1.452316415863212, 1.4868394702736014, -0.5363736599374526, -1.3928246773278503, -3.274101178515163, 0.25946909018782627, 0.6257838267077954, -0.5979054248203108, -2.9241436633672167, 0.4951789149346698, 0.6263796753326364, -3.4647224631161855, -2.0309623038117874, -0.12193245316218218, 2.6497030147882006, -2.21255005102885, 0.9751000282640014, -3.048584503635078, -1.2211003451890423, 0.6214661302681349, -1.5114279226016212, -0.012088773149470412, -2.7901974497220188, 0.23049815246368235, -1.0691742241219502, -0.18126297700533542, -2.1703294761751595, 3.053662548307266], [-1.0861286515739144, 0.06881621953634152, -3.894670660792029, -3.589046517232626, -3.6493210827464626, -0.35727314125997606, 3.4800315460720115, -2.106167466048072, -2.914117331844725, -1.1280821184617587, -0.4095939114888761, 4.498665841314458, -1.2043092892938179, 2.5366629027388434, -0.8950698825287562, -3.1288122283226008, -0.40617537014275445, -3.742405884674276, 1.060414644367618, -0.8714210210686144, 0.16046890580176362, 2.638805469859688, -3.7653325505766886, -1.3211707750405417, -0.9673541150833596, -0.3045084565646387, 0.9670673985086025, -3.48397208900416, -0.8453614107547912, 1.960944504351473, -4.490868211190827, 0.05697591848738396], [-0.6937569388751788, 0.40869416549816556, 0.12192675567478592, 0.07874955226145067, -3.884105232952254, -0.25757951247135324, 1.149397530745574, 0.5305283763966822, 3.0928645652221123, -1.452454728185076, -1.4497256572861952, -0.5307620269726482, -2.415818607676813, 2.4865390205205844, -1.8905683919763048, 1.3309997351203562, -3.621930697963536, -1.0192395602700168, -0.3634544082213208, 0.7733366857991336, -4.346968205491105, -0.8084810634100642, 0.39148670996862817, -0.7225745956779727, -1.7963430904866116, 2.9148500135109736, -4.500152763295317, 0.9642760082445698, -2.5940432325628033, -1.9193501204936674, 0.7552865866722202, 2.0564086597406828], [0.8879899887343596, -1.0554901686362792, 0.8594385157833153, -2.5677231489789234, -2.219671452088343, -0.731943423288066, -0.45140527544859743, 0.3606968716473481, 0.10859530153332264, -4.241303895083578, 3.0466005904665536, -3.9537425362212497, 3.339637029649277, 1.0291306054313965, -3.1182577613883535, -3.99074838114151, -0.1879083730492565, -1.558986944028905, -2.7755131761621774, 2.606672583336361, -3.114226707167381, 0.18921522620589062, -4.436612750525275, 1.4504031706515916, 0.6004416162393386, -2.14722027927285, -1.538937119713059, 0.8982969466597904, -2.142231804803773, -0.1753082570212019, -2.414701109309728, 2.377563446013222], [0.8311383344428552, -3.1650518637505125, 2.9942348380788295, -2.1292593057121287, -0.6282360745103509, 1.3520366122420369, -1.402252341523664, -2.710560394905852, -0.372208634465411, -2.569802290239311, -2.2616132970970453, -0.27969049093533366, -2.017273159716744, -0.7785838025277847, 0.48299782055251483, -0.7372046782623457, 0.96702305778698, -1.7204765359658432, -2.057956332050682, -3.5025409263072347, -0.07311707753617717, 2.5737658918700106, -4.288740825869587, -0.4776439626508602, -4.047377723884239, 2.6527423741097844, -1.0844391055337512, 1.3596330029455124, -2.969447346509367, -3.5988543432697018, 1.727919376209516, -1.273372906070917], [-1.7514191567314257, 1.8126366494315032, -2.6200555015285425, 0.3930494317482853, -2.843495125420692, -1.24964074547367, -0.6235418969687372, 0.18022912293155427, -2.8959840098824507, 2.7063992020261343, -0.08335919679250733, -2.6127518617480585, -3.015775532490225, 1.2386627876819616, -0.7665844910009275, -0.4288941527116766, -1.418581253941246, -0.08882134544039064, 1.1043070902992296, -1.2122966319807262, 1.4347318411958794, -3.012043423774709, -3.5960265452930638, -1.9798302478705276, -0.25747878504417493, -1.0327448218669921, -0.08474856957344576, -1.8210342035352292, -3.4644118258681917, 0.6710876318560728, 1.856510648515404, -1.8354932873715804], [0.7807741659635975, 1.9688662935455818, -2.968317859575471, -2.7522044110751445, -2.6862154344082985, -2.5497301088299893, -1.0031243950158057, 1.806387526359786, -6.069267380062002, 4.241891719952839, -2.567781723579545, -0.4042012300011412, 1.963943161395202, -1.639452478745295, -2.3760310304358465, -3.9244263283299974, -0.6120742590874788, -3.4585979156050604, 1.9144330547471595, -3.762805637332845, 1.617949941911007, -2.3818824415029076, -0.8726128459517327, -2.2534105103578588, -0.7203978070106946, -0.7397510382017628, -3.119597146729981, 2.065747013208252, -1.3592035581844033, -3.38498463174083, -2.592256190456569, 0.2620216927181521], [2.4265045412934287, -3.181830772151482, 0.26799980582110494, -4.276247673451104, 1.5635481130447104, 1.0443586830821292, -0.8166855744768122, -3.2742683411618985, -4.355040259531857, -1.525104633304664, 3.9129387678602967, -0.23076697076053032, -3.269293900784477, 2.0360939596958607, -4.649402085399574, 1.6555143943608241, -0.3808048464839709, 1.9118984877991565, -3.5491689474107573, -1.4277612473912225, -3.937345844238253, -0.16262080363488693, 0.6658519515447032, -2.3107654815830014, -0.4040684936705773, -2.6426871143970447, 2.4451910892615607, -1.686172149294286, -3.3820783473841933, 1.5593546691381728, -2.6993686490684308, 2.8668748574472307], [3.054131239525972, -2.3846891295573007, -1.7345791438396616, -2.2263372867248843, 0.22660089927092802, -2.033831026135785, -2.058489348564425, -1.163624326320116, -1.9781928353205531, -2.732502376470313, 4.357337419396892, -1.1540008230668124, 0.22971973669783116, 2.424592414405906, -1.9129210189234906, -1.423769087643542, 0.34679851287739866, -1.0878707845937967, 1.6684283231989676, -3.272907321063445, -3.462640756444852, -0.4427854566037189, 0.8276717816741551, 0.09469510980312193, -5.567557622066992, -0.6335018877124855, 4.015664482659886, 3.3002973023766295, -0.24761936571047685, 0.14613492958625912, -0.22300333083155216, -4.570745923764195], [3.856623550335893, -0.5718797546182739, 1.2941923495798675, -2.878425564186027, -0.019462783387725835, 1.8548402916422881, -2.405849703108106, -0.39325739028833595, -3.238245531595614, 1.0122546843620284, 0.737261977806044, -2.2875429483286385, -3.5742053969771552, -2.6130931230005165, 4.843738816696878, -3.2987278404376643, -1.2513960321922664, -2.5304990091297594, 5.757932248069924, -4.5214423902066025, -0.6001563146070008, -4.0050735084201134, 0.16350126935817139, 2.2099656441496336, -3.9304059766257353, 0.07029465827142045, 1.5655463959894982, 1.647607453625948, -0.9579721652712777, 0.7622679166625428, 0.3592989557885336, -1.9741916144051543], [-1.3004065797019835, -2.1208864731678565, 0.5475850210253662, -2.2362889257411847, -0.22426771090344325, 0.41471810144425136, -3.2455942924533576, 2.637716225161436, -2.8834532655137153, 1.3673650587760977, 0.8795462671738086, -3.0831207987396034, -3.776539187293741, 3.367156270815495, -1.8536128936119265, 1.3133547024388124, -0.10658185655869087, -2.365882720001103, 1.2425328301920822, -2.2457082343692987, -2.688487470327746, -1.8732699278362033, 2.0188097214169627, 0.3708290092462276, -2.6757830346906646, -0.3217369020075876, 0.003838069817390759, -1.4604197744136092, -1.5391636983726449, -2.6296761787111382, -0.4887655091170735, 2.288704736943663], [-2.126937319744558, -0.527048002236951, -3.5047703716752534, 2.3866298984217407, -2.046679762136578, -1.551779163975955, -3.2648945335323543, 2.672618479887586, -3.9800783243085434, 0.4637285248235494, -0.4078772690134682, -0.5714213163047384, 2.130497059285406, -1.8345837772677798, -1.7553242544461878, -4.641104829165334, -2.937484890848689, -1.8857130087224836, 2.869484605674981, -1.5881328506960741, 2.779151424289865, -5.2772434420752665, 1.3373530738613635, -1.1745655170439215, -1.6910824719712603, -0.07334162442943146, -2.3693333389776057, -0.15081028890855816, -0.350337381304156, -3.2182944892866514, -1.8337439051039628, 2.8248917860798013], [-1.4777555970001315, 1.022800720659327, -3.6496696153330754, -2.1218154411642858, 0.34332249167850054, 0.36375454275529756, 0.25759758924890785, -3.6510267338172175, 0.6948224507357088, -3.7613584181398005, 1.3528999063122396, -3.5957488088466656, 2.0465031275838523, -2.170665909383375, -2.83840701634951, -1.8563262558769247, -4.812225371644934, 1.1472490196885508, -3.8576723767326655, 2.1407702252946454, -1.4058606660685373, 1.9071371767623624, -2.8636731072388333, 0.14494222075239, -3.4539311856748753, -1.3907627457957228, -2.4057481574619684, 2.8004862521458276, -6.968528040499087, 3.4912279282008964, 1.2168005194464588, -1.3392358864937763], [0.7031360011220902, -0.8853218995930757, 1.0202819089966308, -0.36792013162426834, -3.5523956492078415, -1.6885288283970008, 4.9205109085281595, 2.7356975005535586, -2.9475127050718495, -0.954891801720452, -2.013338310341603, 0.6210318405136336, -1.7058132450288033, -1.219419623771117, 0.12053248380237996, -0.31103533616597473, -2.6916906796609377, 0.5340933693162399, 1.6761905869011156, -3.644875000146582, 1.3335132709149302, -1.892429137957662, 1.9113792720623368, -2.848286025459632, -0.509603944588905, -3.5937786177142277, 1.7428644855880175, -1.658359300952503, -2.7547692338610275, 3.272544986511212, -3.834310367409976, 0.1830500273087062], [-4.037114130624895, -0.24962825112174816, -2.8281161960301975, 0.5208810195116959, 1.6228305019034492, -2.3023930123807195, 0.27652930383375457, 0.9021120513557165, -1.5072595415096295, -2.3123453306149924, 1.5345656176887017, -0.08220929629536046, -2.307976823900925, 0.8532403424746614, 0.7268553670887099, -3.5000940830121228, -2.1259915118492394, -0.9371048079298198, -3.8280260738771035, 1.1987960077453834, 0.9410441230095247, -4.167649341043696, -1.4162590578465712, -2.016318739575769, 0.7038832737339239, -1.6277915133294711, 2.0454360893488888, -3.375822783882755, 1.1814044204303906, -0.5169136390818427, 0.260729724370909, -3.090708527779496], [1.8015362527297207, -3.492995353788023, -1.5079527342674135, -1.5249758715372392, -2.665892506910788, 2.756791304245312, -4.871489018723956, 2.042029317322472, 1.4195516343106411, -0.5113391055665121, 2.3554185506420953, -3.1537990195413528, -5.0943269858723195, -2.359641790321158, -3.695360424997586, 5.768817563793933, 2.3914347983908044, -3.3343815136774695, 2.342294335101646, -3.4294210215569647, -4.022424992323646, 0.3686973974917161, 0.776343627318, 0.37204167000193894, -4.797902531446362, 0.8813867156129224, -2.1158539800005345, 0.2429085866674834, 1.5253611173099861, -3.2103424440461015, -0.28430355654110595, 0.050167460218531086], [0.36300828994779266, -0.7126377706682403, -3.5961811494392406, -1.3612810573309333, -3.0713316893592935, 4.696152388770461, -1.2565624484967597, 1.8981556137114302, 0.683681568970103, -3.0671523366908393, 0.5054953000424786, -2.275898035007544, -1.2518987451295152, 3.5358935027444462, -1.2603497711356892, -0.7659594689749446, -3.0963895505222814, 3.8075869045784096, -0.48731714802898235, -1.7109921324283384, -4.275867939669023, -0.023500282502886514, -4.19189374479497, 4.742211267997365, 0.15674469341049663, -3.7394443496679846, -2.0171987099931084, 1.9752390126587225, -1.9267884924175793, 1.0450785822418496, 1.5249511997655782, -1.1335306535912486], [-1.5059561413457223, 3.6191368164077806, -4.417352199786695, 0.43129949580800436, 0.2156164107139462, -1.7280200403535266, -0.5098359476852838, 0.009935741916626552, 0.5541713492128022, 2.804256520950506, -4.629250713140338, -1.5841920930996105, -5.2875576520462335, 4.417392500265067, -1.7209694729300065, 0.1932264527483484, -3.4354698457067587, -3.069320251752319, 2.2681306821221674, 1.0222659028134249, -2.390408618611915, -1.5510535748394325, 2.5281106793482966, -3.897115077223156, 4.964469451333855, -2.3331845662467825, -2.145936002751228, -5.327979401576203, -1.3667412036566637, 0.5615063535203502, -3.5671821446015683, 0.9915167154194098], [0.28097640764076054, -0.323722917895943, -2.7372863039164512, 0.8353408977680552, 1.3235250614861782, -1.4663898359683227, -0.6653954378716719, -1.4561969770047594, 1.5294990259499819, 0.22845969218597006, -3.0455830890397424, -3.6082451883697644, -0.4986762206031339, 2.687010191455546, -0.8239045426920166, -2.7895982801604853, -2.9390546778383486, 0.5921918811426355, -4.137223602849538, -0.06568165495363575, -0.8136836121051023, -2.7727409637787153, 3.0893745549959917, -2.4407713583147976, -0.6236240219838185, -1.5971257120957494, 2.2912263038431555, -0.7824387697658066, -3.999865680554543, 0.7163854708921177, -1.6582047468462338, 0.08710645090643261], [1.8961791988464047, -0.6406769299651186, 0.38656762481011175, -0.4891965968281924, -3.8251970893788307, 1.932451681085743, -1.3056392081108, -2.1073628047841093, -0.4175411526000844, -1.2224672087209847, 0.647719058324533, -2.393128743660095, 2.263471689715305, -1.3307187503674174, -3.036404573339433, -2.9635832410043164, -1.543247853460848, 1.1701618600639356, -2.387229141231271, 0.47679210609928857, -0.6355505222035495, -0.2875554050667214, -0.41310542651993803, -3.1429774584038497, -0.9229388448207199, -2.250817901985562, 0.21778394156128986, 1.6013811085440162, -0.7688826658898975, 0.19105266033482698, -1.1155170122959341, -0.3669484054542769], [0.5506591670443183, -1.8950554663681012, 2.450124850921475, -2.600128754857609, -2.436796206680596, 0.4408570897321939, -2.9141398198724513, 1.0829472937162248, -0.9686431450983766, -1.9709737630620643, -1.7979942404167475, -3.2056277449794006, -2.8959858900385873, -0.7504613777362088, 2.2113004000785885, 0.3725020629152024, 1.792706847555323, -0.21807772104776305, 0.02924443679704897, -3.457822186266438, -3.8820402154454516, -0.07760776259747415, -0.789976866803607, -1.9489433493371753, -3.217253714600985, -2.264116887350638, -4.6453891374736545, 3.2761123947056303, 1.614943354403516, -1.2679286991236283, 3.562804090209273, -2.6141631243164674], [-1.6103824307343126, -1.8314102362579556, -2.004103730197125, 2.661611665664514, -2.9546396417801186, -4.009028592008479, -1.9030879030032615, 2.512402095789545, -0.8388429437219278, -2.47804753458829, -1.0031215256867312, -0.31806408092246446, -2.009475547439008, -3.17884542025809, 1.959802475687407, -1.015342623368408, 2.8678747449644435, -1.4448191818929246, -4.915036502702894, 0.6530817845245281, -2.6072228025644213, -1.1776369800949362, 2.392093117397556, -0.7685698091066014, -2.540874385314985, 1.0540322376682576, -1.4863281529835028, 0.8100196471096127, 0.5331379802302179, -1.3200712919093232, 0.6976552909345561, -2.0967224046308677], [-5.077982628267504, 4.100151810821171, -2.782372525408004, 2.5881395076056637, -5.069176057511567, -1.7576266961815505, 1.501220628832824, -0.8604054035142887, 0.4798607152244975, 2.887020619272776, -3.9869334479547183, -0.8778114479086405, 1.9370169896334413, -1.2329851861675798, -0.40642098681890476, -2.1598703764354354, -2.0177796749852868, -2.859574212777646, -1.7418031144547546, 4.817752727754243, -1.4352022389288768, -0.5615764662435064, -4.407100627015471, -0.6019484970685833, 3.4339886923781644, -0.5130110193892379, -1.425963415021654, -1.8748850276629143, -6.627774166672223, 1.1990948895359734, -2.4161585958142964, 4.588875207337928], [1.003714060585789, -1.2317263160759395, -0.5096359917243241, -3.7948258694835517, -2.1814703598516805, 0.8137383896378083, -1.9239204933794132, -0.3659015777503093, 0.22655678030869686, -1.1596649605707785, -2.0553370365867365, -2.577506498654489, -1.964026412326837, 3.256456118572302, 0.252808242074004, 1.6415834078415177, -1.907705674838703, 3.212221406113208, -0.6744008710638622, -2.508471498839261, 0.42428063923650183, 2.2627087939372874, -2.130231479452432, -3.295364686950012, 0.5418693323253616, -2.052984753351824, -1.0017018296452536, -2.7962196836985833, -2.638280335626753, -1.4741613317702515, 1.2482808755587624, -1.3652366292158158], [1.2858789397321115, -1.0618731533947028, 0.6633425794279236, -1.5421430032946628, -1.2610239980640865, -0.8941001156836208, -1.248055600630296, -1.374107627983835, -0.7038198096511299, 0.10894516133021628, -1.2682388833377414, -0.1275296661247167, -0.31797365335568895, -0.31674524881404764, -0.4659865872222513, 0.4932808336290734, -0.056710638713964104, -0.8652627100708827, -0.5963333448405304, -0.10003002303827108, -1.5004319762603082, -1.4524375793941298, -1.9771939436491561, -1.034528748388072, 0.6741980496722539, 1.7256987416037608, 0.5490609411094001, 0.008253056918255303, -0.40585578644618076, -1.329485234188281, -0.9699690123052691, -0.66810297229129], [-0.046287386315235685, -1.0404138613481146, 2.7698729416800223, -0.9709527279849559, 1.0556763393390252, 0.31240280502911283, 0.17780196995467878, -1.699960618079115, 0.3531728510537257, 2.264141350585227, -0.9228105120531714, -3.469134493006789, -1.6073768908243848, 2.0891756909842507, -4.9941082280084315, 3.050247347119297, -2.250360118978756, -3.79014816323028, 3.926500771693826, -2.643746707809632, -2.7543160066579895, 6.559567363784245, -3.188721922666007, -5.863168499955671, 0.0541370685428102, 1.360205783402122, -0.8198354612304956, -5.553877501419203, -7.390267328746302, -0.8583199471872174, 3.2046345039012194, -0.7551564905043007], [-3.2634074444066394, 8.811701931011255, -4.7780914429319274, -1.1368462481824868, -0.021020746838089414, 5.645748711464139, -6.57914205894751, -1.0658283930209775, 3.515901245317496, -1.7781314264578758, -0.060907488890612614, -1.1214009455204696, -0.777687963775852, -2.8836280065287396, -1.9837813538051356, 3.2873960588905407, -5.504835433683456, 2.4216701396713334, -0.9237520225936876, 1.6255843925880085, -3.618509094558083, 0.2757136620673381, -0.9485875780368448, 4.353773504372773, -3.325777490838316, 3.1586219285848145, -1.0623488485627937, 2.0866822880002873, -1.579319746964395, 3.7488471833175616, -2.8524132285516526, 1.0123552656087236], [0.09745025823397369, -1.9187859238605143, 0.843739969665066, -2.7739403828919866, -2.206550430025478, -0.15374649109045946, 0.7151684344587399, -3.933147342679646, -1.657921618078651, 1.5513004591597266, -2.557346025376967, 0.2988038627941334, 0.7054372491104309, -0.23278555638249304, -0.05181257005936656, -1.838968959711345, -4.366578767154477, -0.5935072700301318, 0.20729015239261311, 1.2917125996697365, -1.5836487872218141, 0.6048712039838454, -3.193992429963258, 3.3289810094329555, 0.275325861578325, -0.49964860066978095, -2.0484427977990154, 1.6151289421376782, -4.3015818574073, -0.7533253643437049, 2.301863380247287, 0.1620028190442719], [2.181018054055004, -1.170038369307089, -1.0877897412449424, -0.33886476861528214, -1.8624184030101827, -0.9707303149799976, -0.1523583722278778, -1.5163009072367404, -1.6733137791666348, 1.355784620327553, -2.4977741771017916, -0.5166395044207698, -3.8712216971528877, -0.47794241137049703, 1.170642302664539, 0.4025490054285448, 0.3774504153390156, 0.5489923234911419, 0.7092280907546421, -0.23736426726174642, -2.674646005514402, -0.6920439560893614, 0.48037511300463254, 1.5897584662460766, -2.1384811053151753, -2.533274350934207, -1.9684288864887842, 2.3364995704961435, 0.8340460664520752, -1.850498659473885, 0.3608476079685774, -1.5675852456843866], [-5.414431711678978, -2.654057182875535, 2.21446437403946, -0.8605310353419865, 2.4713294880809413, -5.100636570228722, 0.8281788319594741, -4.857491330816871, -1.9918423777001877, 0.9837212686783036, -3.5489755225049944, -1.7069361136918593, 1.780968478958608, -0.7632870123113225, -1.981698047056894, -3.034193409346813, -0.110301361397774, -2.183513565597631, -0.08152073681406027, -0.7020065073208817, 1.9952025445668278, -1.448206548815344, -2.3614164092967425, -2.214180816645048, -3.071654375479471, 2.794255312945262, -3.3518959764393688, 1.2313321582994508, -5.274245298238726, -2.549941927088673, 3.8056708340531697, -1.3057515911380049], [-0.9844802103051569, -1.5204223406822341, 0.37177047559582355, -2.773686233121374, 0.7954664018935359, -0.24067153507289313, 0.26025301813135243, -1.9793500846804353, -0.5364150608198519, -0.6487815159495518, -2.611796569662665, 1.698971598264915, -0.08378755060228735, -1.7486869624661936, 1.6119724561655202, -1.9742011042224503, 0.953310095501417, -2.501960580327734, -2.717819291460697, -1.1605884570735379, -1.7403459990108245, -1.6354677207808608, -0.3079323160733952, 1.1856989107372546, -0.80967564057751, -2.0298673749205913, -0.5822201160256498, -0.5015212064493635, 1.6189622607278344, 0.4596797848635391, -0.872540467878789, -2.0956865636078352], [-0.6725195394139416, -0.8693503558531955, -0.6833062998080165, -2.9741819840932866, 2.201874539074069, -0.7722107361042166, -2.7139449909607176, 1.9913271020064867, 0.9181732845444348, -2.4319886146499186, -0.9408956719065235, -0.39884461472888105, 2.504624805245347, -0.3715667799130733, 0.12738920183457614, -1.4908473833780054, -0.8952555592744282, -0.6294678536777792, -1.5831097027164205, -2.117274140193671, 1.0273104355720573, -1.603402645424037, -2.418715673243014, 0.07365384521047262, -1.3486964012590716, -0.908358039423014, 0.9717687180943029, -2.4508303559286997, -3.6756686482410013, 0.19500837403354912, 0.5834099731210679, -1.1416174934488532], [-3.3188256011611967, 1.2486458073727542, -1.0490845955815256, -2.4080229884132165, -4.879546704978179, 3.510133085296262, -1.0740541571163964, 0.6879878089441926, -3.5816324677797056, -4.055478494847335, -1.3162976514423765, 2.186934218841476, 0.1733599481398879, -1.7226673430939612, 0.7928617927095246, -1.717897203236922, -3.845111749802473, -1.1843381245657445, 0.5754125664239467, 2.3257143998189274, 1.3448428891097721, -1.646663869442345, -3.259005931445498, -0.2880457050064667, 0.9111612851278582, -1.662153858549895, 0.6282080501374164, -2.3892960793070985, 2.3518267045034333, -0.504863140142921, 2.4126322677125986, -3.2757591984630987], [-3.9332829394417477, -1.9486239835897046, 1.8067480402350249, -1.721766526208753, -1.8313624069105707, -0.957165816671589, 0.18593911402308866, -1.9800823168884667, -1.3926480248023083, -3.5743326723283784, -1.075814083267643, 0.649399232763698, -1.129506658359083, -2.3371081218713403, -3.8138288376757337, 3.2475268271439344, -0.198000465014313, -1.9161565929498128, 0.7879106029025615, 1.8050523874779396, -1.2454963988759797, -1.0094746048386802, -4.211199321970229, 2.317035133839127, 1.4381415651021086, 3.083120843340361, 0.05709218829941142, -3.785668212224661, -1.323612184094526, 4.6896157664214435, -5.034821929088063, -2.229492332954353], [-0.5520686820407479, -0.2396681540185984, -1.4348080234741103, 0.5472846184080616, -1.875603203347682, -2.991416841288387, 4.939049360560622, -0.5790886980369275, 4.132951357053417, -4.894440819693184, -1.218399745258746, -3.5291503530330837, -4.203671105335667, -0.18761961874076075, -3.4285883604037855, 1.6159276626468406, 1.9676889234154364, -0.18351555804584205, -1.5683413941577706, -2.6054132428418737, -3.1487299670774496, -1.4589520057813046, 2.1024469022625745, -1.3920456753368589, 2.9834736904371155, -2.9508181250666934, 0.53773085087144, 0.20876562823267864, 1.506876607657458, 0.4007310099842252, -5.321630317238604, -0.54228226187485], [2.0903289054217833, -3.2982098943385174, -3.6820679582070484, -2.269675493076232, 0.16119670194873703, -0.29727962164766447, -0.8099162333268971, -3.421495604628309, -1.296454491162582, -0.01672505527881191, -0.6286917969266597, -1.1279584823384157, 0.9849468764470981, 1.7344193796026328, -1.176765810189892, -4.028920169500552, -1.6612621238221206, -4.598165901394608, -1.1223389453398933, 1.0358350002733727, -4.242131990515935, 4.693309098937956, -6.580984690653598, 2.1671634821812438, -2.4105741632595574, 0.45532868229671525, 3.6949679795186325, -4.782773535735043, 1.9808905436749, -3.0981709206592254, -3.7048623046945535, -2.615833061168617], [-2.700117409909562, 1.104469128602696, -6.1081588348000615, 4.36096233581188, -4.894269171443049, 1.6324317914781667, 0.07099120318140505, -0.6875158164740026, 2.707825751171445, -2.5955632159206874, -1.897310236744879, -2.440048093786353, 1.2966149605942308, -0.14093735007742794, -1.3127775847343504, -2.146212555820774, -5.61027317067022, 2.86609850225072, -0.4669889663801198, -3.5823464225611836, -3.034760074994146, 2.147779457760516, -0.018168285269628666, -1.6728184247144768, -2.3729654181363777, -0.9910103512311228, -2.579166126586478, 0.4541104829343863, -0.08381762968926507, 2.7657797692950847, -0.5487754395038928, -6.381195784734189], [3.383955162839865, 2.9424055550552812, -3.6013617459484815, -3.252790798669564, -1.037365386237558, -0.17963150165751343, -2.46674482017177, -0.8428887458329962, -0.9564969869380768, 0.3981032010034889, -2.8233343479102397, -1.7942498295652953, -2.833234200984244, -1.7534501508498028, 0.17608154324367248, 2.17046698852909, -1.4725597008636946, 0.11003682860289078, -3.3806398589243654, -1.5325564755155139, -2.8690478452028083, -0.7167567998408719, -3.8662605020999887, 3.2774137246100254, -2.745521035096752, -2.1702531260518296, 2.4499537681199914, -2.0750817665381414, -4.842585005456588, -2.1265845470909426, -0.2818038634540181, 3.029757040229861], [1.7936433423122455, -2.5368548285932753, -1.562607849992971, -2.286562643538531, -2.682795323316206, 2.804086584269446, -0.49441195964996226, -3.103042312546078, -0.4525728541216596, 0.4476306119814792, -0.025519414976165763, -0.03542897824845005, -0.03909512071281404, -2.703449596170476, -2.6643442907360915, 0.9149463976122231, 2.5036834916331525, -1.587113916855591, -3.342058425159874, -0.577677034458933, -0.12472699940195187, -2.044841559834524, 0.6861567741136222, -2.5772274729092484, -2.947490966568252, -1.0038213733909325, 2.3776134128513626, -4.781139071561396, -0.5147169996239548, -2.5679216512852068, 1.438683605752623, 0.4436737904477876], [-1.4905411610565251, -3.7290143369347004, 2.031475207823912, -0.5547212306356862, -2.0605029020840693, 0.20429382567503437, -2.711346140206225, 1.0189786240109822, -2.954552360909544, 1.2174777105035521, -1.5744316743557538, -0.8300431016957565, -4.658204537815996, 2.362759464815675, -3.1669031827399428, 0.8090079010988086, 0.01773103505605913, 1.1980661058460262, -1.3272489107806045, 0.22487826102932013, -1.5940403764216464, 2.902008696414387, -5.85777374474466, 3.021599333429926, 1.9072253058959487, -2.996219490459428, -1.6657363219628092, -1.9647966454601606, -1.0399907495921539, 3.335824939825248, 1.175693388054016, -5.768348373968723], [0.5616999656852004, -2.2309280342346733, -1.6442725798786544, 0.6391802216510613, -1.2495349536585607, 2.0223209083963223, -0.27926058074839044, -2.5060563558314546, -2.6651270910555143, -0.48411941588637536, -1.1739744661004354, 1.1689066429316406, 0.2618813620826122, -1.0934975431336347, 0.5858361801942863, -3.1975094652106324, 0.644589832956454, -1.3071056234797402, -0.10105640296448785, -0.009706524609565793, -0.25303246148984826, -2.8906213347936207, 0.9065189649427923, -0.9897817512596735, -3.3113393394227355, 0.9926818395515813, -0.4296229007340387, -2.359975039382526, -0.9651983968092237, 0.7281139199145937, 1.3361421533491837, -2.442087380847107], [-1.3753254363025391, 1.004404619289196, -1.9997613229344149, -1.5724953639578154, -3.9608671510951203, -0.1755865880498019, 0.11744517177294796, 4.240718887312556, -3.2737403625012846, 0.47351223921776003, 1.8125927188793103, -4.575796534369092, -0.8511884912688542, 1.766083070051526, -2.91918978945663, -1.8577884909226328, -0.2749158165588777, -0.7442028200104391, -1.2656657669040543, 0.39162581684104164, -1.1556738927090133, -1.6185629365700445, 0.5026851648950048, 0.5850610375364124, -2.3927807965470698, 0.3988060602113617, -4.428287497010377, 4.649375322578414, -4.025357677995772, 2.2987901407196074, -2.204098189501529, 2.640429461832469], [-2.4817535783847973, -2.664015127894202, 0.5572448647165203, 4.200386907266243, -2.071299275259437, 1.5632559269771802, -0.533797458300095, -2.157741742026823, -0.3465898098973435, 3.8329609182556497, -1.9940011278138643, -3.4957217174271555, -1.1536271309596564, -2.2079850816675353, 1.7508344117429788, -1.9624442696775508, -2.6368103025628122, 2.8066637238753502, 0.10270428327542434, -2.18706330684371, -2.6267022552889965, 3.5423960459185913, -1.4032017770255953, -0.6965873643043177, -0.4724901912192349, -1.4419929134980165, -0.6850899040749137, 0.5851870602801416, -1.1043169279127132, 1.8518682635252137, 0.3480855568030653, -2.010254143517729], [5.194325307258817, -1.628096877950187, -0.4732250468966098, -4.7616377786591935, 1.6724532736552618, 0.9353237408125379, -2.4191323118048524, -1.5804550589626822, -2.438385294389834, -2.730282626214217, -2.3164399742179858, 3.764673260403315, -3.7710657065647797, 3.0234275816437095, -4.8139918061054265, 2.671735904453, -1.5535361709567532, 0.25465646731236014, 3.5159154361676177, -2.2631413781218805, -0.7449935604493136, 2.9307343633942353, -1.229111262189861, -1.4298823832780183, 4.204288848174, -4.761847350894539, -3.1387815946289694, -2.1013339409785226, -2.6580339499279475, -0.6495682692735403, 2.535455155529637, -0.8813299681580238], [-2.068277210705373, -0.4439791542286098, -0.5887799305514224, -0.506282292160236, -1.84243350674243, -1.6523937589457776, -0.5990774351707036, 0.22634051030825184, -1.6436410975651456, -0.6950755987153998, 0.3479749061717903, -0.06935028986997546, -2.5359430523660547, 0.5712911096243226, 1.9905987653224837, 0.14163071739881597, -2.7410807971570534, 1.5182993866213175, -0.4534148974468726, -1.1265254109968197, -2.9224865394486357, -1.9538330160889104, -2.3573465647195, 2.0879138338268626, 1.0098937023752559, 3.058089563995188, -3.0580303879669484, -2.792827827377987, -2.6887393120160614, 0.24445366662183776, -0.9508738613926377, 1.1337607535954144], [-2.07650831286237, -3.3165408933876144, 1.6899503217343061, -0.35922221191037934, -0.4241537947694569, -1.7816052181453061, -1.1406899101287304, -0.05777570957802988, -3.9539661758188154, -2.0707556271258283, 2.1302608508581726, 0.02238810669618206, -1.083746743461657, -1.0740967952169482, 1.4407930224709793, -2.098989888324254, -3.8088691713308163, 0.4140985317153726, -1.9618170345575932, 2.509524591416445, 1.3434140710904898, -0.257318555463658, 0.9648476133403749, -0.7527937352665359, -2.9087338320708764, 1.4381796625307706, -0.6082210006869645, 0.24701722725787098, -2.9980044041421943, 0.6261085737630082, -2.6833009691936556, -0.40708285214623224], [0.9463077484488783, -0.8789080655232826, 0.5459202933334878, -0.9704530583127589, -0.008306970171463307, -2.3040386862972455, -1.8104815758969586, -2.488113506728225, 0.8961697582156258, -2.8552103427111453, -1.3755069994229328, -2.1777053513125, 0.8317842915062692, -2.139127517477685, -0.9263143354405314, -1.1382232880989904, -2.9616195003152685, -1.1195398253440583, -1.819176283494357, 0.7422165707821355, -1.0460081764898483, 0.7789204919682832, -0.3364816550560612, -0.24645100701849393, -1.509224299584822, -0.33439337628061194, -2.5704910920995534, -0.22245181753098217, -1.9438766716765843, -1.8209846778769232, -0.5787211537661177, 1.2148757529229461], [-2.4851504408473146, -1.3624849884810724, 2.8625574340275923, -1.6359192917785252, -0.9985149555817642, -0.8549840325571113, -1.8580846439333487, 0.3449530779953742, -1.3043459821035512, 1.480826789699915, -3.199185676461389, -0.26378087456915944, -2.5136174394521187, -1.4406336028531492, -1.0320252449355798, 1.141544129404847, -0.02995621842429715, -0.22352335436255164, -0.4906551545087452, -1.1473245621218184, -0.14001051239731294, -1.9122505129619263, -1.1777845173620296, -2.1768065893089075, -1.2587776233630195, 0.7378899360719591, -0.6084009787183906, -2.7976071727569805, 0.5623632255455525, -0.2647941275369192, 1.0441572201809661, -0.5852043910490314], [-1.7728454379560525, -1.2461265425128583, -0.555305372386673, 2.169019840552778, -1.8049751159396963, -1.3215454078680808, -1.6972809605562822, 1.506871536898387, 0.2335942248027933, 3.0552538720595463, 0.6552086757415121, -4.661331968083121, 1.3125055056061357, -2.989552512484688, -0.004399106233044089, 1.5422028734134687, -1.6024205400435128, 4.604935042309772, -3.9762500932538707, -1.4217582658219545, -0.39206285707751715, -0.9690470795991407, -2.4739930561921977, -0.17871833895137015, -1.4372324016099958, -2.6973957174576566, 1.9875969739850012, -1.071368560774167, -4.246337191492918, -2.5745048442682963, -0.6157228947257748, 1.0747077365005326], [-0.44130001413627595, 0.8358052752813637, -4.811890341468124, -1.7486918357000198, 0.8759007806240776, -2.1210565987471695, 0.2864233768921329, -2.745205820833257, -2.7380132264938695, -2.5229110710164173, 4.786908634899478, -3.858215383117436, -0.5448187454451552, -1.4770978104368844, 0.24670821299062237, -0.3118177995000356, -1.0005318400101264, 0.7386169272692308, -1.7304943112456606, 0.37352551685752433, -1.5358634607022037, 1.0712292227690952, -4.132309617111109, 1.9431446024831482, -5.82626123699409, -2.257608094034261, 1.1769939623363583, 5.426997844498812, -0.9793839173491273, 2.7422043686035003, 0.2613895346326273, -4.484973711389783], [1.2090262031742123, -4.648002247831394, 1.5142686852612826, -0.5828133405298175, -1.1405857484851256, 0.7916067725098215, 0.46111009348549714, -1.677903002320195, -3.2343134773011957, -0.18592058782454818, 1.7129499958249725, -1.0660984070912678, 0.2517107303318042, 0.06842311324245366, -0.9889492964952565, -3.2109750627000047, -0.40364018845299904, -0.03507801979169602, 1.1867205105386438, -0.8223410927887966, -1.3653244496113506, -1.060120884072545, 2.6657779147446155, -4.6196462509569285, 0.11607282195633051, 3.2881719703616117, -3.6341605788965246, -0.12651505258349574, 0.7011011322548326, -2.6927905885401513, 1.1176894107908184, -3.502278231484287], [-1.2846714120259726, 0.9586152630346259, 2.620934350538294, -2.1634386464830313, -2.112044617824608, 2.6436220278217966, -1.7843053814024237, -0.4943896834107496, -5.780711588100189, 0.44188973635507883, -2.015963105011715, 1.9387589811672938, -3.9338010617108172, -0.08291992839595366, -3.0301504742623577, 3.0653101704798242, -2.173133722651289, -2.6961355789344186, 2.039742797205248, 0.704304964494613, -1.4001673697693533, 0.32572557595743595, 0.39565034827828327, -2.2761737449911177, -5.387856742707468, 0.7446074286338384, -1.001558279238033, 3.5965653705217897, 0.3035147367823925, -1.008847069041363, -3.0105785420685343, 0.742975072414544], [0.8227073717208773, -0.19769333322772628, -2.838200839713301, -0.2331754783622514, -2.6911870335019095, 3.896175685081373, -0.7973786771011424, -3.8220258679203925, -2.312051457730499, -2.91868880548249, 2.3935491471251815, -3.2152200343732042, -3.7513854897332446, -0.5950377185982484, -2.8720608591439563, 1.417883582412015, 1.6059333932806117, -1.525904210993619, 1.4116577453124328, -5.602961383843578, -3.3585479856464997, 3.2989302212880958, 1.803065651398396, -2.2976152071029503, -1.9378012264605378, -4.665806122186278, 4.200234109657502, -0.17506212274701058, -1.7048222960771042, 0.818025062058769, 2.112056814535243, -4.611325422071509], [-4.001078503850849, 1.853825088201301, -3.305285155742049, 1.566917655703257, -0.784436758453931, -0.08623248215531164, 2.6577888207113487, -4.255763183163632, 0.7551830556607351, -0.5526734895635643, -3.1786551723677534, 1.2408882934266574, 1.0496681087020732, -2.486196408292931, -0.7286423807523573, 0.29203790740103147, -2.484149312651702, 0.01562357118191582, -1.6442290716617354, -1.6811011992232165, 2.4245773357780402, -1.7473144654313673, -2.9061062290893593, -0.4048765131789527, -0.4511497810735993, -2.1380451821057083, -0.6560896364410533, -1.4596026056394706, -4.8688245883752055, 0.9993353519459858, -1.1851777560478396, 2.6025382578732668], [-1.9825816338143651, 0.49323652762617864, 2.8676314368985176, -3.3503036150922494, 1.2012590428428582, 0.022118467384160005, -3.4519837082183504, 1.3171036367547684, 0.6659270724561762, -3.09542666631504, 2.0023135820496756, -4.786588177897978, -0.9140469290281032, -4.503836813436041, 1.6449143744597785, -1.2002097349834235, -2.3268750210383886, 3.245278160338777, -1.2365315678745417, -1.1721904714417457, -6.223788211553959, 2.0946600748341666, 0.8020401407060744, -1.9559141833525824, -4.182933890461251, -1.3089436223768864, -1.4659977473350059, 6.151802956389107, 2.0663583701120696, 1.3572189775281884, -0.8925434215908052, -2.3272827589115157], [0.0885431644773494, -3.3156479615164116, -1.5862388524053217, -0.08588099450373579, -2.4227682012207765, 1.992417642048558, -3.2281343081311853, 0.2678533981005513, -0.7425407016249295, -2.2858131514088424, -1.0719328896800786, 0.9207220947946937, -0.4882078433846269, -2.1578961582424134, 3.740915924839446, -1.3620867903209453, -1.9571526796828185, 2.772551421796829, -0.6506417219391033, -3.030433887327806, -0.6544519643964382, -0.6878517931231262, 0.38492397791447497, -2.0772173893061487, -2.6479727301281004, -0.9542028438856337, -1.3422951590694079, -1.4488798216555894, 0.6235521383624358, -2.6972303148765873, -1.4481681526969576, 1.217857898478751], [-0.36663561333090317, -1.832310764815226, 0.8139183681159483, -2.39191448623053, -3.886016084406022, -2.472830492912542, 3.739069132134294, 1.1923807146307073, -4.9854418902620425, -2.087688067577478, -3.0987366371927445, 1.5636522888580395, -0.01096614696435973, -0.34005238310107977, -0.5739301159628256, 1.3960688224226636, -0.16431984247419545, -0.21841175555288733, -2.8730490261602806, 2.57352556413773, -2.695427027810398, -1.2557475920506929, 4.004514201448837, -3.5416956185752193, -2.848437145083753, -2.000145490869895, -4.54086528153347, 2.423017418845901, 1.9907959228141352, 0.9963800328199428, -1.5158300577456478, -1.1326185128602773], [-0.603541261186701, -3.7746371685360405, 1.095171852762638, -0.16388825879516913, -2.44693949124623, 0.18646663626862608, -0.10091838484141372, -0.04746980361463973, -0.05885424155355229, 1.4032800631584903, -4.5031942849015065, 2.4199428171943307, -0.4688934770156928, -1.9433705540513133, -1.7811608145403308, 0.16946282257121098, -2.2086165564139977, 1.1940687967577444, 1.1553719323804559, 0.03984103026633743, 1.3434491429180404, -1.4839143893399633, -0.9546844836990901, -1.4278330436088462, -1.5725997755118875, 3.039626817449086, -4.126229559382499, -1.3157953099297928, -4.387095778143608, 2.122157074328012, -1.1167754437439417, 0.839268589420146], [1.2567956056197724, -2.4600667760858475, -4.803081373010637, 3.2358478491484632, -4.672432300566354, 4.012203946741017, -1.5379968169799014, 0.9379521840587224, -3.1941795446746886, -2.47054017060907, 3.3773878688124377, -0.49928138300902253, -3.383920075788264, 1.3917122352887947, -3.9342038139500937, 2.015374655816687, -1.393071833436452, -2.9338983335428828, 0.9686748642525512, -0.7306643118660764, -2.1452468209181, -0.9765002181955639, 0.5206580391727625, -2.311267430848165, -0.6257886984721767, 1.4623118496098164, -4.326770940190954, 3.8007406430371184, -1.9826094941575774, -1.6491785292620948, 1.7680692227709316, -0.17232831972608734], [-2.8434155138670603, -1.6806068254356257, -0.9751922193852285, 2.152006470009192, 3.2147426284688647, -0.9157094087241652, -1.7056085018718985, -3.7204541897116274, -0.3837530062095908, -3.5471267651618086, -0.758479562817596, 1.2522767951017628, -1.6121835406674807, 1.5932335550024406, -2.555239612064581, -0.6291213256523699, -1.3551177205266411, -2.7246924682253675, -0.973990958754966, 0.6219157377261121, -4.8621388795367055, 2.447199186614733, -0.7982226329389325, -1.7877860334227411, 1.9956674097560783, -1.8175416379955416, -2.482890877270889, -1.1927080134801595, -1.304748138027457, -0.6877337800530849, 0.05105209797133628, -2.8673487164449596], [-1.0744658337960689, 2.2569798925925917, 1.3655195489261054, -2.8213336487770966, -2.992116250000335, -0.11245526543782741, 0.051511948615796964, 0.713888325815978, -3.110291382850112, 0.25267463676253343, 3.6300891778316986, -2.030488312672012, -3.697541743693797, 2.4067483466939468, 1.441912371713209, -2.4883737327626956, -0.27783004442019565, 1.7411565203434731, 0.231868967390039, -2.9894379883050477, -1.4648838324467504, 2.31187110291508, -1.0525871048591613, -1.6172969887893112, 1.0362397669293197, 0.4953737955194913, -3.075189185134878, 0.18219296968721493, 1.901786677606031, -1.7428886348442376, -2.3025873799473424, -0.1672304956528198], [-3.7447441775702517, -3.6836883032734864, -0.11385707140601656, 0.6439946770023983, -5.016334565633492, 2.776160165808981, 0.4176941873192152, -1.2647160275124876, -0.000842007441958124, 0.5110546039924758, -1.7905252023556066, -3.4525213452072414, -1.4339884414125041, -0.1506620068723884, -1.4218409505692853, 2.73105328109317, -0.060466095019921215, -2.031073642135668, -2.525438080304226, 0.8118035920038554, -3.2244863481748727, 1.4181379624335937, -1.4159578665264017, -0.7967074863117299, 0.8926819475069883, 0.23308409559318302, 1.1506851725533065, -1.9042952716872215, -2.4855386723865096, -3.099318182263867, 2.063220160752923, -2.1496715972505007], [-0.35717598251080296, -4.011151951141174, 2.5171965126740057, -6.108121133789224, 0.8362716015607494, -0.5719716727865259, -1.613384439799488, -1.0394636047637345, -2.944575072965699, 1.2760394024428727, 1.8227620602651349, -5.07036671734076, -2.8339954904255626, 3.3568680345099287, -1.1321577650386805, -2.837499597015058, 0.22621689050939178, -2.220420111565595, -0.29489329727636193, -3.2667619473848175, -0.47503568950522146, -0.3944776330936995, -0.3000788727894391, 3.4395279269457153, 0.6525315470431408, -0.8878970968033806, -0.46360905530495444, -1.604859514118293, -1.1587091313805928, -0.7123099214846155, -0.718195575676934, -1.634743407829559], [-4.371812286646033, -0.8269273957101165, -0.5313438880659159, 0.8693462470800754, 2.781313727933789, -3.7079783881479944, -1.5547685282371138, 0.858740229293608, 1.3834308994865614, 0.6112070956654908, -4.216673967470167, -1.2019878270067863, 0.36389715797415, -4.108451625183111, -1.3870707803259996, 0.0017999882747064947, -1.5609000518664473, -2.2810995706923847, 1.7737891367590415, -1.9409304236024563, 4.188408601652272, -0.43830198393896885, -3.477235786302062, -3.435588894521881, 3.068110267409557, -2.725812827657427, -6.23027175285636, -1.3188015594247422, -1.8819425126937441, -2.0321988316370847, -6.6451694673731225, 1.6116079297752697], [-4.965543753767068, 0.032033873168560066, 0.1730034391516276, 1.2191040211551822, 2.1654526055055627, -1.7951413988137774, -2.0105791014199808, -0.7975428732046228, -4.046640729175466, -0.9592124558161441, -0.11877698111935157, 3.3137850442769055, -1.5393943851229708, -0.8203344373652042, -1.5597258548646125, -1.5270694713244743, -3.668186206081331, 1.1780343486755653, -2.5314359282453363, 3.343462691627015, -4.733365573667778, 3.7792111818713905, 0.575440426382143, -4.067275175555803, -1.0457797901877803, 1.4826606152231623, -1.554787367327439, -0.44994517574165693, -2.5447335039194345, -0.5313345029856104, 0.5305975340999185, -0.1617310852221932], [-3.8556188805500575, 1.593125611313947, -3.23785286936587, 0.7182449885901973, 3.474027767464727, -5.935718493885891, -2.995560381697617, -2.437961968277571, 1.1190810039884957, -0.8678292106483837, -3.3880031835989475, -2.3844375880375757, 0.4450146371471628, -3.253422688422979, 1.2690010468682307, -2.993689095513499, 2.6808521965915237, -3.3457297370138197, -0.09606906631873774, -3.3995653380642894, 0.5070507576991488, -2.648770385730131, 2.256885187019693, -3.4886435753496317, -1.562164530366934, -2.6864625271384095, -2.834939307732599, 3.880899525827043, -2.706814271881087, 0.6729638159866792, -4.5705521705930945, 2.0402093948520146], [-2.511929421556855, -1.5353278459496493, -0.7022301898827054, 3.859264988173521, -0.7426457383711198, 1.4407662533632661, -1.187358432581256, -1.3539854027780136, 1.290854425759482, 0.38664962857137386, 0.9586560243920547, -3.1707398218050105, -1.4039506683220693, -3.104918881655843, 3.7059374635272437, -2.071570429820123, 2.6127528865304077, -1.0888471074270378, -3.437834779256805, 0.8812236002166197, -4.7701115624702375, -0.3680958694654908, 3.7839217161969696, -0.5900166121580948, -0.7441217989316725, -2.052298292496282, 2.177519037654619, -2.3133744811079477, -4.699546985765661, -2.747089336480721, 1.9977616103190172, -1.2412662533176377], [2.893269370103098, -1.910747977745502, -4.8781030590829095, -1.0010751602823809, 2.7925982774344544, -3.746798273652562, -0.3609978400293456, -0.8915470920880953, -0.7992491441480188, 2.219442845106612, -3.1132253167735504, -2.6665097644029108, -5.1208963296741565, 0.3283750794824179, -1.0280353009306396, 4.384194010037141, 2.252588199927475, -3.676782660028438, -2.0864173702454853, 0.24057218165525773, -0.07008853673070436, -1.4905943382578764, -4.6078236481781945, 1.0361177888886932, -2.8218267888435227, -2.4546999897730393, 1.0320951069930193, -0.34844284698742073, -0.1522067612105281, -2.339103832630401, 0.01603474931445823, 0.5297305530220369], [-2.8543854328909597, -3.850894716836087, 2.1182470125607207, 5.067567776262598, -2.047985680193841, 3.41993528536385, -1.2204315074218244, -2.271476796354959, -4.936857404278376, 3.8386288617567352, -3.664212747079515, 1.5367549290921365, 5.505162604983058, -0.19606822074795588, -2.9719826274416588, -3.7713033106061773, 2.2469044789319312, 0.9056377057674735, -7.080413241454224, -0.24108884869083178, -1.0054262903462765, 2.3995992474607615, -1.8159691317413527, -2.902669432048361, -2.341113356404377, -1.461106499349034, 0.9590253860870935, -0.18236501762073892, -3.5542314188005806, -3.260091561056633, -0.16927718972697817, 2.370261759761062], [0.1423264448060027, -1.7546069851707682, 0.9732933562781524, -1.2191725999926495, -4.3207715887778475, 0.9361897001743981, -1.1767867785401895, 3.5384064929761263, -3.274261447480951, 0.9827471559405422, -4.196830237968075, 1.3289258450220376, -0.5731060027415609, 1.1205080252149715, 0.08692919567075867, -3.9213174317636486, -0.5953261291417612, 2.499717220801426, -3.873224693231932, -1.0595446665813857, 0.98936613248753, 0.22130309989561664, -2.1813345844807337, 0.3933116836075651, 1.55843341462469, -6.042748666454999, 4.818017131137851, -4.319630105151679, -6.629216590333844, 4.702508976110557, 2.8979761403815667, -0.7109713106738799], [-1.1424775015887627, 0.9145778875678936, -0.12420728631285552, -1.5225603615944678, -0.951138093582823, -1.199141197933422, 0.5670432399323911, -0.6544665148370992, 1.0590848913991082, -2.142224991468138, -0.8009118965046469, 0.1290812360304947, 0.38879885343586407, -1.5641118566487777, -1.4379205389069725, -0.9693816862142083, -0.7027844603466464, 0.9442906300132742, -0.883493455177883, -2.8147169535041865, -0.20424302224512658, -2.032804659026624, -2.133716680142994, 1.4322477747925892, -0.3503830455328284, -0.8716771438480344, -2.266713883476536, -1.0755475303114368, -0.06991375668407786, 1.2177067357928975, -0.8869973301517842, -2.085819705142446], [-1.1996047557706166, 0.5334618889208673, 0.9995455041399245, -1.6098916166484192, -3.134211687087102, -0.01139388288281004, 1.5049869499435418, 0.5274625350611953, -3.147127467523894, -2.532893998818474, 1.0147885664875274, -0.05116900122809568, 0.8969032194871234, -1.965134006131858, 0.28157776198524315, -1.2111859857076395, -1.9537483819367694, -1.0719370362283098, 0.7304671998170513, 0.20922467057277552, -1.976950175406518, 3.5477148392880604, -1.220378703350685, -2.883108708954363, -2.98380106959333, -0.9347002798516111, -1.520406722682572, 2.1336624966003734, 2.1354698621740194, -2.276362401979752, -1.3388430309844908, -1.7770231642674814], [-2.9886680131953276, -1.2827556103263007, 0.6001594797628835, -1.1154928142199594, -1.120010530809636, -1.2895897556265434, -1.6965063559128495, 1.4584518798575123, -1.0556492856885584, -1.2683491157152198, -2.9799775220257563, -0.9415980337235185, 0.5647383227200451, -0.12393508745675665, -0.439084810395745, -0.15394818406943872, 0.8357060277282676, -2.431427235911425, -0.9533024430802339, 0.6366572306382954, -0.2770116187248589, 2.401517186698281, -0.9532680364059553, -0.5297231016303539, -1.1949353718023752, -0.46530643379948894, -1.2625093037778101, 2.988084089031342, -2.14329205980104, 1.3695468740303096, -1.3865825692087381, -1.8715765206668846], [-2.911780959578978, 1.8269450598729289, -1.2797380163606578, -1.0306622377042678, -1.4692118047721665, -2.5049207258213086, -0.28247929748021855, 0.09188506518253826, -1.8404544101563791, 1.3718380356801456, -1.2935945191558247, -0.438014858665329, 0.5838982195179786, -0.8420532495756339, -1.5884297784159882, -1.3984420706454859, -3.201598081761849, -0.47168969365918767, -0.6984765092582339, -0.5301893158869699, 1.3978762450933735, 0.654402832785388, -0.06271282127018335, -0.6936985925144772, -2.7004171187986397, -0.2451579863541832, -1.0971992901282317, 0.41361419642412245, -2.3995958477629475, -0.08323070340495023, 0.784395849284738, -0.2158683681109102], [-1.016206550892404, -2.320086586365628, -1.16545477406911, -0.5980945473355881, -0.6190875168947173, 2.0432012098271404, 3.3204858277666465, -3.7863899350469, -1.6964687802969538, 1.4492750476957124, -3.0470537684366543, -0.02635861687258176, -1.2589200238392828, -3.945941926510332, 0.11673430445335485, -0.6957087156226304, -1.4009487747085374, -3.766697383960608, 1.3738261466805262, -2.6999169098700433, -0.29344269904407927, -2.1152256478096576, 2.810407262031885, 0.7783640020833024, -1.8128439275419277, 1.328502741303515, -2.408923448476498, -1.7171692186448873, -3.6207074282286626, -1.8723717086071787, 2.7651084296656956, 0.05406360316443535], [2.8684584985047676, -3.7508689244409297, -1.3117869972170848, -2.4369464043693743, -0.965200140812683, -2.733829378876864, 0.5179677537806386, -0.3551019834471888, -3.0872697282960253, 1.8751259464814223, -3.871313038495113, 1.2781727934749565, 1.87081295906067, 1.3063971238123468, -2.476736067195324, -5.724455797859665, -0.9209998973200658, -0.8096550154931428, -1.983152313512195, -0.1785516566865354, -1.4903173041485855, -2.560261841222948, 3.166226560007586, -0.6373457582022131, -2.096563240295116, -1.407458511622527, -0.025129530192007664, -1.8671324902187185, -1.8263398151165116, -0.2570224528108749, 0.5688795157533861, -2.2895995674544976], [1.0100087336842918, -4.527738988873808, 0.7138735973213456, -0.5527371686318973, -2.2873224665746203, -0.741036056869757, -2.2349281080043433, 1.7944765127048254, 1.134361108861573, -3.9224096037413356, 0.96301769698747, -4.276155842947442, -2.1418796243001053, -1.887195218031891, 4.668780152378889, -0.7010722929358075, -3.6401292133798995, 0.6867101408344595, -0.024153328858118286, -0.5381474924687953, -1.1016531593636743, -2.312933659698935, 0.8496640426732998, -0.5477061476168994, -2.2585629734194326, 2.236764621337673, -2.723685700048528, 0.6789530763364383, -1.6528555045427609, 2.3089795162942863, -1.3165254605825076, -3.6149723542943453], [-1.2691178198855364, -1.2954263969144795, -1.6484709727707876, -0.9737273373010821, -0.46631055046395564, -0.7939601089983743, -2.5968535400023303, -1.7630760178500062, -1.9814875840705843, -2.5103390689333946, 3.8986661832134146, -2.7486223418420495, -0.4326704927015148, -2.5208455868356068, -0.029530522200483897, -1.9541209874927035, -1.346542775095331, -3.3780841748717183, 2.117209011572554, -1.6256549683764963, -1.8606427445509413, -1.056106384405317, 0.47361299883400443, -0.953374815244284, 2.155342637320179, -1.7765474106254426, -0.3318343404006653, -1.159703305919617, 0.2516428039640852, -0.8547023048125563, -3.6293080628378216, -1.548964394750196], [-3.116899042616855, -2.272743887118222, -0.4754672288642408, 4.3826270647544465, -1.5662943840577195, -2.4799903382929784, 2.8760120828820477, -1.9592816826620227, -2.1592680727200677, -1.0250641938460507, 4.1755865523286335, -1.1642154903123587, -1.3383605577020536, 0.005648901105887751, -1.3070161673995566, -3.198583475620022, -1.2297297884546492, -3.3639679186877527, 2.0135259203872313, -4.313769946738618, -2.29200067857666, 5.454669839278319, 1.8957131551471154, -3.944742550622736, -2.6684313630114955, 0.8228845876044264, -2.015022282848777, 3.6907693181621752, -4.5673919219539965, 2.2650290715015777, -0.6246918765836338, 0.7314231363520892], [-0.4271536462673115, 3.8112851115120083, -0.8228619096268734, -1.9888468392868386, 0.654311468013558, -0.07143951642528708, 0.3525627840159161, -3.3224158735805362, 1.5160271727775168, -1.600723552994064, 0.570145978143321, -2.1607585274712924, -2.7398939583326505, -0.005599824228695086, 2.4403315951876623, -0.7084826012381252, -0.5416521262710586, -0.3255366495547066, -1.4005449295079209, 1.1363599080373314, -3.1757048682037885, -2.3575803527791876, -1.3114686400171882, 0.09057017365679199, -0.7258736388536253, -1.849059654261627, -2.238693413164263, 3.127857910230627, -3.500415896230327, -4.92445961208774, 0.5729948236093535, -0.16178666943697123], [0.17093790674357684, -4.00394203863237, 1.3007296899461627, -0.49842647914006916, -3.1018343625953326, 4.4259025352935195, -0.16968048115252443, -0.3118297222249122, -3.810671428171488, 4.721361957289879, -2.2679393051220367, -3.529254935440996, 2.5008943813363094, -1.3260119158523713, -1.3458794539665326, 0.1159572607483763, 1.304684545767761, 0.1983906342372923, 1.7777834827542836, -4.996571769057023, -2.1924726340217044, -0.3367954505644451, -2.1639898774308217, 0.16629688413089597, -4.146266940281375, 0.7497758581262554, -1.880606049942897, 0.5414156521726321, -1.3337210110542541, 4.269570716352397, -3.7109205696340033, 0.07917607964677695], [-1.1857019645310125, -3.2002021332003747, -1.5346220310903869, 4.5055484768817236, -1.9933164436342432, 0.08092136043392259, -0.6160753011119307, 0.4019898707786578, 2.1323560289832306, -1.6551910796637137, 2.2888685822244783, -3.762699212800163, -1.1160101670918858, -0.9674416557981406, -1.4432189681259504, -0.3806009278800523, 0.38720486647973773, 1.62333839074432, -3.5136882883050444, -0.7974466823959415, -4.132394289863529, 7.6527913887475805, 2.173713550905635, -3.5863536860993652, 0.9641084818691762, -5.06224682715464, -1.079131986941043, 3.085739892995027, 1.1657879788553893, -1.6597169177004631, -3.896795393825464, -0.12612498694140323], [1.136447929608022, -3.830065466137879, -1.2117845991748992, -0.9918419669343291, -0.8968255161409031, 2.1596342686222014, -4.236368204847427, -3.4157773445864135, 0.3791086412354517, -2.2713509570268484, 1.2010835224424923, -2.9345969982402624, 2.1212089557891116, -2.012323129819745, 2.156863448540436, -2.1343995402037046, 0.5956480102217235, -2.177845738923376, -1.1167098345401063, 2.4143891983024717, -1.3572148095210088, -1.4910987393674136, 0.6128904325957072, -0.5273617405120785, -1.4764831015687874, -3.0268027042740835, -3.5090574365775917, 1.2446439843947639, -1.9159877812861072, -0.4223195548407786, -2.3652998887104304, 0.5911485761909541], [-4.243945463447022, 1.2649115542455613, 0.8067565867904806, -2.7113120750203183, 2.3016043257521104, -3.8141814582786613, 0.7804460314659439, 1.0841891829247596, 0.8011240362704816, 0.48115772488643477, -1.9595780998995656, -0.4602016635175107, -6.332518513642251, -4.652520323341657, -0.08444002427356984, 6.952311046662053, 0.0720069961365036, 3.4060859672775665, -1.579343200176021, -1.6525756280266013, 3.933177529255902, -3.597307370718597, 1.2962412693356402, -3.8801778917919627, -2.0879997200061524, -4.425853670346203, -2.6925350588380774, 5.2793128211721285, -3.6862542825484335, -3.094141935597246, 1.7908284535686534, -2.3010323288820804], [-2.388582314255712, 2.589650651271972, -1.9633676064559866, -0.45661229054196495, -3.029012942818084, 1.054979974980816, -1.969316456893001, 0.4653223695729472, -2.3174248000721183, -1.9706833394833798, 0.5273338698077542, 1.6101186706728547, -1.9482851658822746, 1.7246016093439187, -0.9078413817789313, -3.4669886734599964, 1.5278117412788295, -1.0384233959164988, 0.9471305664140918, -2.9378216769911503, -1.5648462516900599, -1.9200565806213952, 0.4130794350552488, -0.5989062689843158, -4.583127376811094, 0.5912085273846942, -2.0904131814870195, 1.9747156975037627, -2.821593333198565, 1.3270509753305804, -1.8183936203890183, -0.7582566298534866], [-2.3252550966717034, -1.9888046018484866, 1.0430053374187314, 1.5770340819265927, -4.3551238647972905, -1.842409000041294, 2.357591543850993, 2.4095316314792763, -3.1912332424569336, -0.3700819000574065, -2.3307419717121634, 1.887466868434854, -1.7234928359182764, -1.5206620288929993, 1.5258547862965104, -2.1756276509133885, -5.180947361198597, -3.65264602385567, -0.336249181015401, 3.3893288876431327, -2.0029185768860023, -0.8955672681135749, -1.0972335803143536, 2.9830441735824222, -0.07101760122866323, -0.7332022371238022, -2.6657398831173578, -0.952639554949114, 0.29913082765102994, -1.502632245422227, -3.4464344054589513, -3.9759358996787633], [-0.11137830273377543, -0.845324535973167, -1.7399466008203912, 1.6295589170449718, 2.9108035756976065, -2.4067979546758567, 1.724452141394379, -3.4737287357582165, -0.1749596265605793, -4.516919426364475, -1.662354766865122, 2.1569498497363098, -5.257798169648187, -0.04479917409681595, 1.18609048933688, -2.1764149450932377, -3.1537053710062763, -0.37136466044360616, 1.0845886399742186, -1.5767761918522951, -3.150332041854712, 0.5808436603371515, -1.1947525073178609, 0.1499693953446715, 0.2553194261525, 1.2498771074993706, 1.519120310456902, -2.9352681814572286, 0.8906404160195106, 0.9752968390583715, -1.5504526113101245, -4.007215149060468], [0.6858177376113019, 1.827955414452338, -2.7450275991185755, -3.809160095364838, -4.610318594596196, 0.16497586287676405, -1.8386439159353467, 1.385358672791481, -2.223913160695478, -0.9667983655504819, -0.8982313472132005, 0.6695730125178112, -1.8810875185918343, -3.3481021246604676, 0.34219416645470563, 0.4380511112174214, -3.677520302803805, -2.254131980156358, 4.374853580901545, -2.5444723248580674, -3.0030751998511858, -3.231670208103025, 4.252561642015952, 0.013584067955583503, -1.9183909926982403, -2.55684374919968, 1.035870324492619, -0.5382206309118707, -0.1624399753721765, -3.9115240165912906, 1.9244695336866318, -1.6757425030677657], [1.9047787281195894, -1.5891624267421895, 0.35120457176759085, -4.082118089821503, -4.179941642578173, 0.11906444130672195, 7.108171414430244, -2.659006594542922, -1.173535225311795, -2.8933385215264167, -1.8293723313457382, 3.0836147643066028, -2.775345715316492, 2.102385758188291, -2.1238173043096977, -1.8256457997156654, -5.485377794134757, 5.190031674826544, 0.7293944975022209, -4.58581609741145, -2.4566103266209836, -2.275567342926917, 1.2201820451832883, -1.0576902545970928, -2.7977752021288094, -2.55093724723238, -0.20347844958560649, 2.597234568339437, 0.7105596373777485, -4.068349830226546, -1.668913269798755, 1.7785925671444949], [-2.4436363707332305, 0.5464556945740627, -2.6555793673672587, -3.1683943485587194, -3.8864220452730316, -3.7650602073480246, 3.1686143604746726, -2.1140040332334284, -0.7673414490945017, -2.3435398075977, -3.233840743574477, -2.28916869542982, -4.5744745629014485, 3.356350558419474, -3.073694566156633, -1.6514338526140548, 2.8781259892386775, -2.0165092674711094, 3.987960117904469, -2.194439483975429, 0.7342510510513662, 0.7347111474563415, -2.5161213223535506, -2.1114243714145893, 0.8612541267822206, -2.6848552596282924, -0.6175169619347646, 3.331363712903234, -1.329729594729333, -2.1056484886163642, -1.5813666001871325, -0.16942248605752214], [-3.864497930942082, -2.900103411942496, -2.655644569645113, 5.04073475727035, -1.7227687288557485, 2.2427293307089577, -3.708498057562057, 0.964178229265338, 1.4154367103793768, -3.9240007691198215, 0.9805071772076586, -1.846689099375054, 0.8333332815459102, -0.8291881240635707, -4.265471502574219, -0.6257447682872881, 2.07987142948118, -1.6968371916070573, -2.2115681841049826, -3.949749444249685, -4.900828995795381, 1.4272386821372613, 2.543914628399449, -2.8334717966092264, -0.09989587022090987, -1.21494615769388, -1.5549122453419182, -0.8904658011802359, -4.2298118433131355, 1.2001123553322315, -2.8949593871135324, -0.6974247976303595], [2.8679867620664057, -0.6358671226729573, -3.157190274531867, -2.5712150289784024, -2.402150150203239, 1.5244737903588523, -0.7201326238591443, -0.7524064536708331, -5.563355868169533, 2.323080437404327, -0.5363191110612484, 2.9186732240343076, 0.4518059804592151, -2.1500885435163855, -1.9108794511258813, -0.9902492839778979, -3.068573879439413, -0.5982195247824651, 1.5784532247427834, 1.6244716250076976, -2.932478724409007, 1.480534312544307, -3.347157155155545, 1.9302608202642537, -3.6924098174175297, 1.9945532754557465, 1.0998804002067966, -0.23584936605250317, -2.5682461969833725, -0.2741759004804266, 1.2114130406713126, -2.6334413103367345], [-1.841729672560113, 1.4502562190347055, -0.9713177044249417, 1.861486228747818, 1.4564071027295982, -0.8114214026485702, -0.3213199304465444, -1.784141915637526, 0.3419625174800112, -0.5851522916729806, -3.637740950669552, -1.8012877224516481, -2.0034814320815455, -1.819646158334212, 2.0913252169042744, 0.9536984425419848, -1.361420856571035, -1.9032828482630733, 1.444970561756253, -2.57469042841504, -1.13058366532126, -1.1714983949440494, -1.1616001651085952, -1.1617319092229992, -1.0025649644561594, 0.5850183589606681, -3.5761954503668862, -0.5852088390107973, -0.24824609985181825, -0.6233628414742141, -0.8975034305261884, -2.2199584185858283], [-0.302585426094269, -2.661604546776929, -2.8125543148831196, -1.1025724131820143, -2.3641084605957103, -1.5466036084264774, -1.0194018036790118, 2.2426720394906945, 0.7053000264266703, -1.1840925048993867, -4.270940652270005, 1.2408250605905926, -2.2889737660528047, 2.4389757185190284, -2.1093371754700985, 1.1949572612901231, -5.780607988671268, 0.9394406679832737, -0.22898899882509205, 2.3510188836192922, -1.3482951923818047, -2.9225919863437677, 1.6325538874871466, -1.4835134924974163, 2.816111675976045, -3.079787408790359, 1.073806753769144, -2.2806868979874086, -0.3172100207692126, -3.5977400641060386, -1.7519745407633014, 0.17093427666854308], [-0.639486107016615, -0.10388036815565012, 1.6645352221977265, -2.2546105779265115, 0.5813175702617179, -0.47748033297028597, -1.5242121634026924, 1.2705583517353016, -2.392993969422432, -0.3616424441159631, 0.4843102657889822, 0.18504221675697466, -5.144928385229142, -0.524212069083656, -1.3769242373045523, 0.31255969235673436, -5.661725480204427, 1.5142356111172572, -2.2532236471720606, 1.306783743154383, -0.4149225494136797, 0.5492456160703996, -0.21319715548020762, -2.9871800121973044, -4.148061848557079, 3.379382705708192, -1.3488478361955043, -1.028088128600941, -2.3461229904521095, 2.8142390284661607, -0.10305967802274771, -5.049636678686868], [0.8008971479105778, 0.6368816746580156, -1.326171070673451, 0.9039420262340466, -1.0494967164496012, -2.2378336334226265, 0.8416171868935814, -0.09006919676579773, -1.765247022155976, 2.5994194880069776, 1.6400899000867297, -2.9521165180874265, -1.9935220240211287, 0.3159484272997051, 1.6073319038547742, 1.7730790819053377, -1.6251853444075066, 0.013729366149755751, -1.842530902730908, 0.20158497881840656, -3.3889996183163382, -0.6074384610306544, -0.030130995988791733, 2.97645511951753, -1.324895424194769, 4.811886629704912, -1.9438588707485762, -4.255847294682559, 1.2007431302701383, -2.56189960454935, 0.9009800954234466, -1.0488114141154556], [-1.0949677487391642, -1.0578695807500644, 3.112928606210936, -1.718507717727721, -6.951229361638968, -0.910246123112206, 1.369134829756868, 0.8747407186083505, -1.6751598406809496, 0.970212989913985, -2.203837883898205, -1.4482867610206878, -3.6835887531776583, 0.8456724944115501, -2.841105181945469, -1.3857115777211855, -1.2898771213448743, -2.221024927011255, 0.23428153977668348, 2.829729047097028, -0.5278283083467843, -1.927581030093593, 1.6803173270830387, -3.895398830075832, -2.1314514466454035, 1.7288051425850877, -2.8091695308355367, -1.3221450080134962, -2.629580117433053, 4.014677638728054, 0.11998182468362589, -2.839332349968315], [-2.9691335853543923, -1.7008213318333083, -2.2829255815495557, 2.8221979788770835, 0.7214106459970847, -1.3740097326196186, -1.8991054938682148, -0.5419863088439938, 0.46515824362676045, -2.4492290380832076, -4.93585318966698, 3.3636779376614965, -2.716310658265031, -1.5778704669356234, -0.43758459551885925, 1.4405761927801004, -4.867684921060448, -2.7777934970154683, -1.9827760129539163, 5.071641527626251, -3.947375523234912, -3.187930792049393, 4.829995252463635, -1.0355097180102668, -3.6839798275545634, -1.7848135616093912, -0.10476864066042704, 2.3491356978574633, -0.5338867442090675, 0.5323950743756433, -0.7399147309297407, -0.2908648154140116], [-2.0512951486186815, -0.9923902096036281, 1.4379698066922055, -0.7993570649105111, -2.3782329893667145, -2.3727041668563325, 1.576362881359606, 1.4820464526140873, -0.09197301178175318, -1.5316397054794317, -2.2876134740475726, -0.06765583535976387, -2.997460150245871, -0.7558252794649786, 0.6299296773025282, 0.13903604432367553, 0.7098332496765355, -2.072526663406952, -1.6031814300225222, 0.3555119462199568, -3.3091544580046213, 0.5965625236438747, -3.0748693150287734, 1.6134979422218891, -1.5427754358874348, -0.9997490305656935, -1.9783572232779345, -0.758739379169714, -1.7955000090848088, -2.2344479327783144, -0.29075208009061126, 2.851226607790222], [-1.8945872487155944, 1.6369166038806218, -1.4739719152493092, -0.48122503130648, -2.868642275416027, 1.359137200811195, 1.81473718558881, -1.7140291612628296, -2.165130596909911, 0.8399437160639597, -2.624012795180992, -0.26234770428561616, -0.9647403528098181, 0.35827980070482923, -0.50563222577087, -3.678786791866804, -1.160119073026627, -1.6285255172979944, -1.8807859225696943, 0.2800085614770062, -1.909783177311483, -1.3009690844810335, 2.7227436402037037, -0.6449865078661499, 0.9917845735649738, -1.3069035323549052, -1.0664976533389814, -1.5687794788430334, -2.324100378330775, -1.6753602765364846, -1.616093909529822, 1.5778503896860752], [1.2594141771526512, -2.4660962951167686, 0.12794405373644002, -0.5072977167636061, -0.5760656203575009, -1.3355118870202904, -3.3642630245958616, -1.5063800986464406, 0.4899661048306531, -0.5023997534881226, 0.5710454004938958, -2.658705347625925, -2.0242784048531957, -0.219790719507753, -0.7257478982326434, 2.4285886782666806, 0.8572813802518613, 1.1671352476239796, -2.680285233914933, -2.8967190310313122, 0.7981089497618705, -2.463972160696986, -1.2182055768123858, 0.6776506964297341, -0.05706007841889217, -2.168417865252035, 0.6991406378259962, 1.0993489179705673, -0.9368854840143079, 0.33591646738232867, -3.204282265818339, 0.05761543626478576], [-0.2778450030251651, -1.3856975773018294, 1.338068596843705, -0.7956438841238167, -2.9004519689212107, -0.6039259760072566, 2.206781963191989, -0.01596152104674053, -1.965124919663283, -0.1744826962947683, 1.8338179049462295, -3.695784269925551, -0.33400639581413527, 0.8781211167221044, -1.5697866012709625, -0.6085809026135348, -0.7383325365677585, -0.3115023449933074, 1.1552434666073612, -1.9970533401268356, 1.606688147739794, -2.203954988469044, -0.9456496261232389, -2.9573063758631637, -4.29257413430448, -0.018698693520444138, -1.3285954344744355, 2.164886960105414, 1.615701224710358, -2.215631705148079, -3.6569935403667317, 0.35794379044240576], [-4.597360743719072, -1.1378014373229794, -0.7517970647416494, 1.9968697887421394, -3.4693636878406995, -0.9537094109799361, 2.635175563605376, 0.6826562179603213, 3.193811107505785, -3.0366220337356586, -2.1561440054354097, -0.6092769950227674, -0.8314353259201083, 0.05353515799995109, -2.653616685245698, 1.8555699079129961, -5.138076064313868, -1.7396516229351973, 0.7651159402681664, 4.688684296079542, -1.0175966164858274, -3.2099063646776793, -0.8472070503630775, 2.27283680551252, -2.920454321411874, 4.445009920183678, -4.008733215472537, 3.774060610913529, -0.48164614481223245, 2.323824744532303, -1.8742590097704106, -3.50265235887687], [-1.7153885678904541, 0.28800711364052417, -1.543295662999433, -2.664143987665975, 2.4559095120316896, -0.8165642881380129, -2.57066795654401, -2.1003131472207897, -1.0011398785748127, -0.5448698624239496, 0.9240189201792949, -0.6647395702257933, -2.3121456609633504, -0.3275171023864347, 1.5957921852951498, -1.2638028786521096, 0.916360917389782, 3.1892621905014655, -2.3186480583412865, -0.5885854381416928, 0.21505751805369808, -1.6281996976616533, 0.543093418546854, -2.066441410440925, -1.4777633084852133, 0.27818026678421875, -1.6595037748582329, 0.13557581049680967, -2.44405416375078, -2.2271136805032956, -1.1958098214772843, 2.1045789663812755], [-1.0011923075552585, -1.3443663719427987, 4.030046674886564, -3.5196459175946297, 1.2465744819387765, -0.39120571914641933, -1.2090640680677862, -3.8748290082573025, 2.353253649174612, -2.9291112524430587, -1.9740023565534073, -2.3425558760966223, -1.6010944520125925, -2.794084572751136, 0.2750840327852224, 0.31452052085577104, -1.4258488543918129, -0.18308204113547563, -2.746036657115647, -0.3471581952799821, -3.7774517710738356, -1.3820387814073019, 2.544488416679944, -0.7193374793980245, -2.4706105380462677, -0.1550313626324242, 0.8894568247287897, 0.9932507589271278, -0.4278329533608817, -1.9318249547254303, -0.2398268061696017, -1.9988085144601067], [-2.458049843647917, -3.3126647777723113, -1.2426538625253423, -0.8347759347817307, -1.6459423991416182, 2.07677033539631, 0.023758413092791062, -2.4194874326022973, -3.851056284767128, 2.501382178358709, -0.22561615559892328, 0.8431110586127873, -2.7395234075102652, -2.9326445289225513, -0.40803677007461053, 2.8968855641562645, -1.3125428001800012, -0.23888583819679174, -1.3093011677939808, -0.574699771559714, 1.5738612207084612, -0.5477219772054241, -2.609984575012222, -4.824737653101935, -1.112420505118175, 0.7644155298195215, -5.03407392528534, 4.591425637388345, -2.467836946583518, 3.1823559461181197, -2.373660071716706, -3.0184601077926843], [1.7583974439924874, -4.3839438386075456, -3.8576855650397253, -0.2779492359926666, 0.42012988317370303, -2.7066597518733757, 1.6131916950972964, -3.7213477582402574, -3.1456259896464056, 1.2584228681035543, -0.4689416655509464, -1.7285048381964665, -2.1673799811331818, 2.267570578918113, -3.470908571810378, 1.5654237570061964, -0.9683076341733305, 0.031824945037026875, -1.8647532372059894, -0.44890165949057576, -0.36529523129217906, -4.844486510624571, -3.6825601577286644, 3.4827247199530773, 3.809451166176944, -2.3188791670827973, -1.3958609241869442, -3.562057341593769, 0.9600265052072616, -1.0806664356181288, -0.8841121528785276, -3.567365140292533], [-4.813659863957541, 1.6251391838209122, -0.8020307303093492, 0.7834188383776729, -1.0018141011274286, -1.6919412178036735, -0.5534347633270479, 2.643511886001474, 1.426404209523551, -1.5570644518238401, -1.1263456257910225, -1.380215242415417, -0.3151319453969453, 3.5728218385882182, -2.540532592088407, -2.6744931713925637, -3.1226025000553155, 1.7237594080470116, -2.776806917629266, -1.7834144241436576, -0.6590827901749516, -3.75662510160185, 0.0672830506117807, 0.03878098891992682, -2.7501072807789164, -0.4776089393424789, -0.9458360988676863, 0.44628783993408894, 1.151494504736953, 2.176353234012222, -3.031847747783165, -1.1529211991542454], [-1.181630731926544, 0.43869036470985434, -2.502833805876098, -0.2843351797057059, -0.3872310334961394, 2.4489581536365583, -1.7662292688581138, -2.313084011926613, -2.8930531428073425, 0.07789169921636185, -2.277014179426164, 0.5762631283072269, -4.041912760468684, 0.6869642527260343, -0.3081756072168897, 0.5186032475811635, 0.061382661707548115, -2.0733603108090763, -1.5546986308543276, 0.30521855693274363, 1.4719170432315538, -2.8958172203472343, 1.524752864123566, 0.4934367546893353, -4.772190465509556, 1.7919272421469137, 0.11458771545695365, -2.9113019755791325, 1.5090564683356242, -1.2245023334002645, -0.5949294251522769, -2.1888042469078197], [1.3909808562878967, -0.6071736605304633, -1.8528638222433862, -1.1808935986117781, 2.6065401113341338, -2.611929354086333, -0.6709909062110845, -2.3910751548067473, 0.38396032814134773, -1.4061697510004083, 1.638351965260176, -3.1426193224508774, 0.02788775204576452, 2.242540858643488, -1.9958037554185686, -4.104263388875106, 1.468737706704302, -1.6152592622081718, -1.249074557188303, -6.725371897537252, 0.6072974836078342, -2.1357449093970513, -1.1034693255732473, -0.5546921384876238, -2.179318202883963, 1.936329823391077, -1.9089916453495523, 1.2401762808339336, -3.7534841405636756, 3.7951751810963796, 1.2456905133945557, -2.9225662953051157], [-3.7575407166003645, -1.8385954969254918, -2.154445265101759, 1.5094583913810313, -3.5257620594353334, 4.77360371183187, -0.7952460372014237, -3.4704130036353233, -2.7270941782370843, -2.235416831879352, 1.595056767126802, 0.6589087074773216, -0.02727077769071429, -0.12548557908528146, -3.2692560244584334, -1.6831935873289239, -2.713339977076346, 2.6473432465093465, -4.178219542775383, -0.9866731925187177, -0.08193327576876225, -6.06742065262312, 1.9160265263548024, 1.2091239000551182, -1.3116738824611363, -2.1207807410256163, -2.55584900930546, 1.7240535100103842, 1.833151481415974, -3.800332889294086, 1.237996463217041, -1.985325546335162], [-1.1993625835702717, -2.762767202487329, -0.5089097646245174, 1.99225386644536, -0.6913957236917623, -0.43073940725738696, -1.8225862756593885, -0.4116746685999052, -0.9621438068856972, -2.160003782696247, -0.5442857341904931, -0.4110425519919735, -2.925200523582292, -0.6228178685862583, 0.260947681121635, -2.0903546964297006, -0.7442261600331477, -0.8748045761851319, -1.9129519019275405, 0.5106710418266599, -3.1085944439175432, -1.0495467546409514, 1.498064559402564, 1.5900687675738614, -1.9647043698939677, -0.6814049649984975, 2.3691201679303577, -0.4802991768048868, -1.4976750951791027, -2.2648236289629695, 3.498204519136089, 1.9120771584726215], [2.5747331266670135, -0.3505706267797092, -0.7207704934435551, -1.1319011831532122, 0.8884990159064925, -1.4936972344894526, -1.379206279821462, 2.543833323946303, -2.650066931004905, 1.7405653727238142, -1.9278908940654658, -1.5892327936268373, -1.7133203731679096, -0.6496290063805336, 1.2946777932898514, 0.4845359618699746, -3.289570455766447, 0.48950849307375527, 1.6407124128414605, -2.9699702873174734, 0.5592602209050224, -1.6229733120298724, -2.011475475778086, 1.2009394891588554, 1.0594710509220309, -2.4026727737053712, 0.3927480770434558, -3.568700557583507, -2.20782222320559, -0.26151184175502645, -0.8427532004246896, -2.6097309651684153], [0.5258838462617246, -2.1988721341293225, -1.6727826453653822, 2.284775197111032, 0.11111039589493345, -5.128306990997768, 1.9355926038605182, -0.760188360280081, -2.8047476623478564, 0.49875264736311853, -3.1329303480015622, 0.22385438237248548, 1.0036927219517373, 0.8207975819155698, -4.5270066304630765, -0.5464601312636213, -6.611447428754462, -1.3378646779180705, 2.3239253734146965, 1.8783266022012222, 0.6972211309764945, -3.250741724871607, 2.156451822708158, -2.022773389344411, -2.692560198768847, 0.8702235986871311, -2.055662936520912, -2.1688641884132007, 1.198157061689796, -1.3858438893621652, -0.595311081691773, -3.008651134043385], [-2.7614629864328992, 1.2290983185479973, 1.0201062759350343, -3.9738261717499053, -3.3137985882671757, 0.4220135675813558, 2.531806674601413, 0.12089791231075193, -3.1715091333670777, -2.1064557911371358, -4.813867585941426, 1.583591592090651, 0.006907825309434409, -0.062306954825501804, -1.8341876489929885, 0.7374360643728786, 1.5167198229539938, -0.5440512610639658, -2.5942856925568702, -2.3814467317730066, 0.7959172932674856, 0.39403046639841915, -2.759377543160324, -1.692040811181072, -1.0731118409373788, -0.6190237727104928, -2.734405906234774, -1.5604420422450878, -0.9630544960246399, 0.2083739878178936, -2.3591810035649985, 1.8807113695378204], [0.5627891825544796, -0.7359975873012725, -0.7128372667047526, -1.7529917629797962, -2.6016587986325623, 0.33781560259530835, 2.125921377592719, -3.5348221988022517, -1.900147949429994, -1.7439662133984548, 0.17215706483195675, 0.8371076253148727, 2.5645871073331707, -1.2726677954466552, -2.8601890582649157, -1.9692269822358193, -2.085394660400926, 3.2076830089817165, -1.4149321159404789, -1.12390034122049, 0.6589318040072821, -0.30380190340253216, -2.735442278904792, -2.0112624238161723, 0.5456476014966142, -0.00938837090204374, -0.5540272983183923, -2.714180371827241, -1.5434357857748011, 0.4217746574013542, 0.020488446105276146, -1.5762534024587413], [-4.028457029674108, 2.9756840393706234, -2.4878288824629897, 0.2699833312273844, -2.3972314327729363, 2.2274427629961613, -3.019954260706956, 1.9085296500444264, -0.9489842009766334, -1.628156907079445, -0.09787247564109854, -3.8232567988126562, 3.189435513790666, -1.927277265026228, -0.5215478949241903, -2.6954353757079628, 2.3683107773780394, -1.270220038602049, -0.13818631838347564, -2.973319182076581, -1.0558980901069828, 0.14723394830756747, -1.405766751295115, 0.030609257240774436, -5.194049249407478, 2.3333066868246815, -3.0943498720272413, 0.6775655252803062, 3.4763400068047066, -3.699486960124437, 0.2986633809859406, -2.445456946488883], [-3.859915681324016, -2.053500134241892, 2.6276988261708576, 2.229893255531, -3.0534492302079985, 2.2046274376016486, 0.24113209905081737, -0.5067363494999115, 1.8177219170891865, -2.408505786645351, -3.3678951782375397, -0.6245022202161692, -1.1552923178375456, -3.6298880620272573, -3.4525695761853172, 3.094453269420737, 2.852567254310554, -0.8309845037071681, -4.450761544597428, -1.9459528144699318, -3.142508399449315, 1.29057160276766, -2.7486663645980522, -0.1818688771297551, -1.653308794033962, -1.2163469561382825, -1.6098421189765295, 0.456784166447262, -0.2858343886240747, 2.6579988338345455, -2.278133828567359, -3.192341714743487], [-1.1996881548199008, 0.06162531290628959, -0.7515462606552811, -3.6356841470150534, -0.29334437031788796, -3.3412555876713737, 1.485781984917543, -4.635668660040281, -4.468154686390777, -3.2013852583101166, 0.7729529113028878, 1.7738652833932966, -0.5514376776631089, -0.7835814573194002, -4.739457692205419, 0.730126467788736, 2.707591078110967, -1.7135993713273934, -0.5817354686284975, -2.988067713483722, -5.382627815600625, -0.052676180128117325, -0.8959391913186296, 0.49193634769017186, -0.020184927532412272, -0.9407490110906055, 0.6587751299780161, -1.9191596349694708, -0.7874885084529281, -0.3812585695672552, 2.0490549719846367, -3.1839673963401642], 