{"biases": [[[-2.428636485914484], [-2.754585424245089], [-2.904530098807318], [-3.2135185721134465], [-1.7572867518217028], [-2.182677257384134], [-2.903990602244889], [-1.7154663793004998], [-1.6510937923874354], [-1.4688857778010111], [-1.5556634026958758], [-2.396327317746959], [-2.0177074411063227], [-2.7526158766569933], [-2.207141677797839], [-1.3462861283075247], [-0.40720701290113237], [-0.37433704989555155], [-2.8232229617417084], [-2.330616049171157], [-2.4464727496651677], [-2.3055658397287315], [-1.3083770405979538], [-2.104702256902332], [-2.759917407296151], [-1.610953112813305], [-0.43115560895478205], [-3.8860261209820353], [-3.273469089411409], [-3.36461846335578], [-3.0883810349966505], [-3.557192608884928], [-2.466052048380861], [-0.853152294249471], [-0.7472771339227796], [-2.8863076355382287], [-1.4074674421034314], [-4.145542016340629], [-2.3992885639334194], [-1.4098460774655137], [0.015118045583320628], [-2.890587189726003], [-1.2269404588648078], [-2.6179962995762964], [-2.2760681228884687], [-2.7092294682496676], [-2.5085162837675923], [-1.465724264070971], [-2.430521483323241], [-1.4696091021987272], [-1.4176768035167246], [-1.252467981195871], [-1.3588231980417715], [-2.2389312409564464], [-2.238173284695764], [0.2589373809683367], [-3.9486687007029255], [-2.4017183434787395], [-1.7381185363296272], [-2.7486120294085823], [-1.7950618152933147], [-2.0061245147107893], [-1.8508951400921234], [-0.9241902643249378], [-1.3771038376729445], [-1.0618758648043414], [-1.2060992524497456], [-1.5081664388102365], [-1.7340326207957952], [-0.7819074398106051], [-2.024259669380069], [-0.9928774733231003], [-1.0827706073776933], [-2.1148665776351145], [-1.6889740216797444], [-0.8965616812266431], [-0.2210856319961307], [-1.4206170978866848], [-1.6401821252224473], [-1.4458016813732588], [-3.134117529663913], [-2.2923598600396695], [-0.6613665025683779], [-1.8323727306341278], [-1.7465190970122644], [-2.3294297629516247], [-2.134051936624118], [-1.5362106500482484], [-2.2470140954209326], [-1.8758117623575827], [-1.0340044785266915], [-2.3231458907534894], [-3.1642997833940476], [-2.162788186651533], [-2.2420148296912057], [-3.206880040175362], [-1.1251960898299902], [-1.0459275702179394], [-1.4281382856523313], [-1.5707888407194683], [-1.541820760147695], [-2.4217822159852953], [-1.6737700103857271], [-1.997032667991201], [-2.1174099895041607], [-1.9471812607537862], [-1.3482196292826585], [-3.8828428237477164], [-2.7722499359120905], [-1.975281728674284], [-1.958074950706606], [-2.1263147334469252], [-1.5434701477901323], [-2.564008632728041], [-2.515815554186166], [-2.6232873373245496], [-1.8839497836137684], [-0.766294663002578], [-1.6242124976925107], [-1.1435328241379363], [-2.1414810340684345], [-1.436226763500623], [-2.6410063283508585], [-3.173083985566572], [-1.959257184342933], [-2.066450527650739], [-2.063148267126165], [-3.5273079105836564], [-2.188459712311976], [-3.1936957074564014], [-1.6696203688312456], [-2.1036188482633214], [-2.367919236552112], [0.03696479088504676], [-2.699386175169396], [-2.507820789514991], [-2.0830614624851167], [-1.448115609311176], [-2.2719168700273444], [-4.474037056251367], [-1.0943053824993878], [-1.4382959929391441], [-1.9328092793751537], [-1.0321615662205352], [-2.4894397971911326], [-2.8606408527837224], [-2.3051726571329576], [0.12436965613579021], [-0.6575808528564687], [-2.1205702544132894], [-2.0098820181639048], [-1.0564856913700713], [-2.4016697361371553], [-2.628080954268099], [-0.14640834946472048], [-1.34951582667294], [-2.5224800026084546], [0.20390378096916195], [-1.0624723190098946], [-1.9531410133276768], [-1.886974127478577], [-2.43242040255153], [-2.854486382382993], [-2.1653388932608126], [-0.9838832930463312], [-3.7956932021296743], [-1.7603682831229748], [-1.6328615579852854], [-2.6012706425740952], [-1.955245740006488], [-2.3310156911003967], [-1.5262498197362728], [-0.680261305637496], [-2.0275781259640557], [-0.8303190919066497], [-1.7466828050642313], [-1.1355310531219076], [-1.981621642522221], [-0.7131310070316546], [-3.3714582868315586], [-3.4902806425401245], [-1.3415168534057407], [-2.0230064498024367], [-2.266073328877568], [-3.6732432178059344], [-1.750162374978812], [-2.5551217882426056], [-1.5206080028520808], [-2.1280132700131835], [-3.18888221173624], [-0.24514959249444673], [-3.03671988375345], [-1.6542263473649168], [-2.549755013221975], [-1.9325267091172462], [-2.555411532011266], [-1.8298433313106313], [-2.7311978189176376], [-1.7514611427660645], [-1.7397915064353864], [-1.511336208177285], [-0.8315854604970683], [-1.202470371420103], [-1.8930201374353914], [-0.8226506324483893], [0.10656747698838323], [-1.27588760336623], [-1.5843451717752806], [-1.8964638976178072], [-3.8572943115656613], [-1.8859076381358888], [-2.2652472041007474], [-1.7716019607620013], [-3.0177424141600127], [-1.32384199450048], [-4.724738584249298], [-2.809897588680487], [-1.5065512091686506], [-3.9400227827503693], [-1.7302221815656347], [-1.0972771087340265], [-2.5028885905953793], [-2.0318208093248695], [-3.8454422805753166], [-3.8743379173665895], [-1.7375513596773544], [-3.0123173468876385], [-1.2728111906222497], [-1.7235780389533963], [-4.201277730478593], [-2.731840110937819], [-3.120260743650513], [-2.803506935855369], [-0.3232793391104498], [-0.21167768221631106], [-2.1555620913579467], [-2.176166245170987], [-1.4188051155633952], [-2.392044005615806], [-2.543896673617959], [-0.707273897070007], [-2.2461337563928767], [0.38802031574576284], [-2.6915666507496363], [-2.9349414764831], [-0.6397697106025049], [-2.6316336089869714], [0.6484036089599868], [-2.372866978341197], [-2.186237359674606], [-1.356509520543315], [0.4668018303327174], [-3.3471518663671556], [-1.500311307691377], [0.01296865189212519], [-3.040456445310859], [-1.9947097344335438], [-0.29695350509992846], [-2.1490329571446205], [-3.166560847442994], [-3.8762999247619114], [-0.9796473473745444], [-1.4919180665898069], [-2.3798554699278998], [-0.33557578713535124], [-2.165256794816679], [-1.186209551292332], [-2.4290441176949558], [-1.249468935308693], [-2.4357914048763067], [-2.9789821289379024], [-1.5168696060714197], [-1.015174502494862], [-2.4597011145978667], [-2.553175612733299], [-2.890182982857607], [-2.406825938502541], [-2.352141310580065], [-2.5905698462798563], [-3.0801331039929027], [-0.8827775370920927], [-3.0734071937323093], [-1.9674853848813683], [-1.9721894086685317], [-0.33441187762517205], [-2.2219462233964613], [-1.865750973325718], [-0.8015951602614712], [-0.18227490115699366], [-1.7314124079937085], [-1.7965611159477337], [-3.0799452943033896], [-2.5873936005312137], [-1.8308728522124138], [-2.057710329344093], [-2.0633640721714586], [-2.45523546271138], [-2.895678459348435], [-3.1903039877837194], [-2.2567888840436425], [-2.0706180736206856], [-1.0115610455357622], [-1.9370187041949742], [-2.5460509718185462], [-1.0506012707551358], [-2.4130788813376127], [-1.3292385765411927], [-0.2612424293932072], [-1.8258710633756179], [-2.1719220329804525], [-1.8065421512194146], [-1.3813678416844815], [-2.8868701935781313], [-2.1603526277408616], [-2.125015157895244], [-2.1032496946481687], [-1.7577292787627274], [-2.353262704936263], [0.04574257337365656], [-2.8095267341274277], [-1.6146470013671013], [-1.8441175045320746], [-2.1052153851186035], [-2.48252818126343], [-1.2178994559498222], [-2.4766152120955782], [-3.47098582958222], [-1.7738112562575175], [-3.6436336441750283], [-0.6697147774847813], [-0.5811196396531355], [-3.5137702628571437], [-2.273442234229077], [-1.4913948029413808], [-1.1614117074810348], [-2.5281585715335284], [-3.3788398568560165], [-1.4291636339852176], [-3.458862401549571], [-2.0340598117604447], [-2.503369559131036], [-1.696597006657052], [-2.1574441664788053], [-2.2882396641100473], [-1.6601116014847674], [-3.067188352715822], [-3.307799633867414], [-0.09431232914342], [-2.81690610947033], [-2.0426993157349953], [-1.7671928872708507], [-1.3193202684243632], [-2.90754197370148], [-1.038226613331988], [-1.9323142607924773], [-1.2438099018773752], [-2.354668290953485], [-1.2006629362690844], [-1.5628413644127268], [-2.736182994926543], [-2.952605877650848], [-3.1434859127121526], [-1.7147136647237446], [-1.4690530941243631], [-3.732276493121477], [-0.7938368113897648], [-1.6487027963403968], [-1.6879483730588025], [-0.4370908357587554], [-1.5399913022652305], [-2.442378827430057], [-2.7468081266247846], [-0.2529848549472748], [-3.010725626771133], [-1.326713155893767], [-2.075181704927899], [-1.2089000455917385], [-1.489583301528043], [-1.903814922584911], [-2.5722808742152274], [-2.060058844780461], [-1.2394875463721278], [-3.0258811378972603], [-2.4399894320143867], [-2.6317971434527867], [-2.422149460107105], [-2.966593198284444], [-1.8015331301619035], [-1.151124987058856], [-1.6929548714331477], [-2.258740896236264], [-2.202224781964804], [-2.0555067092019073], [-4.074667787004853], [-2.251277996434566], [-2.2852176271234175], [-0.8643257140210443], [-1.676383961810667], [-2.0319284872604157], [-3.497940759740093], [-2.617182770597966], [-2.172527563787961], [-2.2399122323554037], [-1.9552329523451153], [-1.1418595391343083], [-2.6674493670650716], [-1.6963777142487673], [-3.9748140527445037], [-0.24570328184408918], [-3.871994672602034], [-0.7553785814028783], [-0.675118343952732], [-2.0346697895643793], [-3.602725690815037], [-1.5683886912825953], [-1.889778014084726], [-2.7812898735686007], [-2.832579173235184], [-1.0516157295485191], [-1.620878194215823], [-1.205538212882069], [-2.826303369637948], [-3.3374408085957175], [-2.2742275122238693], [-3.750886172888703], [-2.1850237427877044], [-1.56327432779073], [-1.9943424158432634], [-2.6220241914743174], [-1.4220082584616311], [-2.0768993924437775], [-2.7620632777215226], [-1.811795409196192], [-1.6118469108649696], [-2.5224943612611517], [-1.676661574110736], [-0.32266075562970775], [-1.1979017636208182], [-0.07639293747483679], [-0.09183858339813444], [-1.1386968634469015], [-2.40492003111773], [-0.9642471129419247], [-2.2683103535919726], [-3.4818219991881363], [-2.234916728758986], [-2.1525940188123633], [-2.992003872759659], [-1.8068307162755661], [-1.7704066248382413], [-0.7836184919870773], [-2.297464259490671], [-2.5527435841179087], [-3.2896651392691663], [-2.009695653906589], [-1.433669383612975], [-3.0695205888311166], [-3.391690251544935], [-2.461786037956572], [-1.5542870568118639], [-1.8415714870846056], [-1.5169279255267298], [-4.270959829487322], [-2.603197603416157], [-2.3689245905193603], [-3.277449695104218], [-4.37834240959305], [-2.6756629030598225], [-1.7151870167152394], [-2.50984320097887], [-0.2996969088825445], [-2.1757331769713173], [-3.3036059795581774], [-0.3078652650391479], [-0.9663271690790689], [-1.8684865042186913], [-2.147948837378203], [-1.8102998403376358], [-2.6763034407975], [-1.5527222916146037], [-2.877321687721623], [-2.0545570658351346], [-3.9308448694045697], [-1.8074674449396764], [-1.2963639271449574], [-2.7558400459308454], [-1.6082084074805634], [-1.7778935430604998], [-2.979147651042508], [-0.5065546236158214], [-1.3234257095083926], [-0.11688780531028743], [-3.014777803797876], [-1.689555551223354], [-3.287570814299356], [-0.9385179249370448], [-1.0238812962621606], [-1.8883506558089642], [-1.5918748065557624], [-0.25711690467884973]], [[-2.808558229758548], [2.823085715223511], [-2.984853646660767], [-0.8981423580215183]]], "weights": [[[0.4304702230847922, -1.2532126475151033, 0.11519448471137449, -3.3072468271759274, -0.5186429715577, -2.783466782121504, 0.18014023783424254, 2.414381910437557, -2.9713511121142906, -0.19714118313207707, 0.8354588197364753, 0.3161239875638524, -1.0927045563708846, -1.7652880346838715, 2.7173366151803777, -1.3994021979818736, -1.338210169123838, 0.5645718345360577, 2.500436484282062, -2.964308874602473, -3.3449302267251304, 0.6058865936824448, -2.9118343704470973, -0.22300123326772772, -3.515704782366046, 3.597226211551359, -1.2336299963008035, -1.7454649072893333, -1.4126553065043874, -0.5584388026150906, 0.32602082196921556, -1.227139004722589], [-0.8262274038216779, 1.222308235626087, -0.439261977166119, -3.3535590530449477, 0.950964427497815, -0.5632752756347876, -1.6914185772006873, 0.23217849898271542, -0.47337609639717865, -1.4738072212645703, -1.7297450067076272, -1.3656968983253224, 1.771458535607437, -0.603865005096498, -0.2846682729819112, -0.20640040473722782, 0.13417777793175908, 1.8797006127625517, -0.835538750934872, -2.6982494775119577, -0.6687538773069934, 1.0866090577955276, -1.3967668232697783, -0.8503403688110207, -0.17818367528071202, -0.2827231726719019, -0.8700822346724195, 0.7748802554053731, -1.345483699793384, -1.291772839255318, 0.12113964050139484, 0.12970265395370847], [-1.2032624157867144, -0.9746139633844435, 0.5909958579840978, 2.7079589142060034, -1.8388845269842007, 1.2959452791663955, -0.8716065243483048, -0.9136323470582511, -0.2816930282837723, -1.3510752397895471, -0.2972479557345235, -2.0739193578373456, 0.16595481851249, -0.6113481293405321, -0.6083124603729181, 0.07351214356328006, -0.42463340893354157, -0.011794444182343685, -0.34834386880832874, -2.515326247264531, -0.852575991276639, 1.197410000170386, -0.2726358362855268, -0.3516010525039304, 0.04868235327277697, -2.0597148977319213, -0.8409409641489323, 1.133922695633067, 0.1554481146002072, -1.633381562234351, -0.7425380206266187, 1.3265910560261827], [-4.233601142936441, 1.346036611674722, -1.1386525205131528, 1.4773494531541338, 0.9558964744400779, -0.23639358410751535, -1.4765849884015094, 0.7093451562397394, -0.43610206745277624, -1.081838167346118, -0.9508511988111152, 2.5045798106617694, -4.78774285840283, -0.32065410060287397, 4.4369423363172125, -0.8732663762643746, 1.8270695019450993, -1.3282119381042323, -3.357994474526026, -1.193919666479785, -3.6882724113958907, 0.8664057550270845, 0.3392511395114414, 1.1499686358863532, 1.9130054627135593, -2.3787341784125715, -2.4261855601393165, 0.6865453765438606, -2.3649254259935204, 0.3735000106857201, -1.6219667497238557, -3.2602919981793943], [-2.6582745925279583, 0.43278897520858584, -1.3211020331995507, 0.3176114936970021, -1.4855904799181772, 1.852713591207252, -0.3734645944669571, 0.7099057883404011, -0.2540174233123015, -0.9239947485117649, -2.18327281494309, 0.32257911773044107, 0.1164545318974304, -1.008080257466711, 0.4535537550750483, -0.12220247857232797, 0.17315615497581455, -1.2197180569043278, -0.232936599145975, -2.315301995975366, -1.2198536400915005, -0.24111793989283795, -1.4080500644898064, 0.592003013163615, -0.36806085174327835, -0.19479239413252067, -1.377601189040106, -0.4621601063116287, -0.9073073583428067, 1.8994643378124616, -1.3656245804851288, -0.12895969442754038], [-1.0828779622652, 0.07134702001748106, -1.683162932137264, -0.4806030294571448, -0.02950944783771545, 0.1526359308698236, -1.3601560396597487, -4.188000318951232, 1.0113010464677086, -0.9349549151230391, 1.61841020551559, 0.5180553552408601, -0.8919086235409539, -0.4841830299381722, 1.9747793042684412, -1.4252804012532754, 1.2327257314773628, 1.6600787389947305, -1.8803614664310482, -0.9389609960057231, 0.3425234685418692, -1.3974766791530535, 1.0382418457839009, -0.7573529953855067, -1.8091382776359923, -0.12223407751304856, -2.0707005220319865, -2.9518399062596696, -0.9005167130652142, -0.5927587719773428, -1.192072110011389, 0.6300985664378131], [-3.2403584991514713, 0.234815844112618, 1.116152554925253, -1.110567534929111, -1.3657790484603398, -2.234970902895774, 0.4430751530880146, 1.2525842974852877, -1.6914223490716183, 2.90041268610684, -1.4964432736682882, 0.6507477904736665, -0.6618277319135306, 1.1780024909051696, -1.5481102234110344, -1.226739890904676, -1.3821543353066257, -0.612323584569926, -1.087319755494697, 0.4124960136659932, -0.9563876482936323, 0.9656121776406843, -3.5409658506089436, 0.9308811914353599, -1.3280787963157341, 1.2060329012013948, -0.5081315708339099, 0.5510500966492842, -0.9529642834417982, -1.1709036109723632, 1.683402854650969, -1.4342399715669367], [-2.4874660718166415, 0.917835856557609, -2.7183447286269797, 0.26556821685817505, 0.5139750098607384, -0.7821911458562543, 0.16782323879291747, -3.6311292589083584, 0.8582292409272063, 0.8371978137811408, -1.3138494404424863, -1.2406391719110923, -0.5499708029846961, 1.9575675788354603, 0.12335439778281214, -1.2211690638027828, -0.33225228527147865, 2.4943076582945074, -1.280642203597088, -1.3739078719130844, 0.4402480701365869, 0.18931123684363194, -1.140516825079884, -0.48609555567793455, -1.2490106507236338, -1.3734369265886222, 2.074389230720329, 0.20967498392184603, -2.601752312471032, 1.7819933448524925, -3.2427553094607453, 0.1576052166572566], [-1.3864682274204778, 1.9000214701184366, -2.023683208651764, -0.9687589837359142, -3.4411053444582658, 0.6233493447008912, 0.8989908591333925, -0.8079725218116067, -1.969967830592943, 0.21696519709817277, -2.3280670369956447, 1.766168559101294, -2.027217120568889, -2.337914510115174, 1.8551464215331341, -2.5981056270921985, -0.006575804413559734, -0.818961052636532, -1.2665896481485497, -1.8492448172362348, -0.7253327509076226, -1.5475522003740378, -0.22513696780645912, -2.051219924300375, 0.0363882438981532, 2.423253586524065, 0.1285412858071007, 0.174012330078499, -1.911815142909019, 0.5060024731368681, -1.540704086943878, 1.4045940616196921], [-0.47605442963305616, -1.4345419920561073, -0.6697491387275702, 0.638425040391078, -1.6744856146686593, -1.1287422812787835, 1.3111097208276667, -1.085656821788684, -0.18347869930484567, -0.023038794520398146, -0.41288463613822485, 0.10333805099951901, 0.1616530092314068, 0.8167516900854338, -0.10198698325503314, 0.6322464447960545, -2.898537415027911, 0.41816074945214393, -1.3041904647589522, -2.1043294131439714, -1.3290071724471535, 1.0088130669415398, 1.03216695965548, -0.17846286027441968, -1.6561282786430491, 0.6297017796247736, -0.08376943045372165, -0.9226636077475437, 0.32399941376631836, -0.28084567163600993, -0.5467064429090931, -0.23432412142734255], [0.31840355476321036, -0.019518588937586522, -1.2236819909892858, 1.522340482664504, 0.16294642620759286, -0.8811360270834505, -0.30634160172610614, -0.08331753028558864, 0.03779115085789424, -2.759825045685508, 2.885590338320232, -3.0762908833276312, -1.5597762321372028, 2.218591099258724, -2.1244118682822006, -0.5835422973079327, 1.7788515637921019, -1.1562305143491236, -2.458981222578734, 1.0782462289063204, -3.166363643516339, -1.992047235987364, -0.06476590501061573, 1.089314152581671, -3.2476097744600794, 2.8784319726030914, -1.7609891218567661, -0.8186338714650302, 0.9760966444162795, -1.9591938654016836, -0.7470618226946967, -0.5651048482992727], [1.7932496059195833, -3.516878642935748, -0.13354419437470957, -0.9601135957316762, 0.5560897187100364, -2.2446036315244036, 1.611679977888357, -3.9783773243844025, -0.35333582544270375, -0.26186598760160174, -0.6782302629262137, -2.3597484749432183, -3.5611060235620964, 0.9709154461196096, 0.994882384381109, 2.61913921310286, -0.8534412966983507, -1.5118888106343165, 0.4840591046109083, 0.18429888279444345, 0.37330627433875796, -2.0384475958599224, 1.8603373047427816, -0.9409245679714853, -1.4024624944817832, 0.9323543771440481, -0.635463408930248, 0.4112483770910023, -1.8820062310279446, 1.5466735781674812, -1.4283906202608567, -2.3554381073720814], [-3.171675072124903, 1.0419336804044468, -3.8664402796700297, -2.4860110347385036, -0.7069282876917605, 1.9996943749614666, -1.207812592311941, 1.7216524005255818, -1.0836848845094067, -2.5202273053099002, -0.8781060691737214, 0.7374296085526189, -1.3582455507749562, -1.7462684299655256, -0.4889915359184356, 2.3072188321159754, -2.041452128212461, 0.8670557553302835, -1.8882366310193675, -0.12017573683411692, -2.513736153709293, 0.5521489924994616, -0.3213490755716755, -0.04435267800527529, 1.5841994083213047, 0.3766780875666514, -2.845388251622692, -0.060079526501325434, 3.1584077960915176, 0.3156386562864392, -2.8986379445412527, 1.011926815788196], [-0.9808760290202911, -0.5637536633224838, -1.2550585824409826, 0.9431051118599223, 1.217258262717335, -2.9721637093252564, 0.8594458091978908, -0.28389539669771585, -1.9268203759543003, -1.807186559220423, 0.33856846226769005, -0.029364967935596453, 0.16268183457307067, 2.1196906511339737, -2.0944869911694797, -2.62801670649364, -3.2481173522747344, -1.063347842694643, 0.740136203267695, 1.5027909154139913, -2.3055962248824615, -0.7492009896025787, 3.177868156942218, -1.2693092713960321, 1.2678523741971433, -1.092571443698476, -1.460972447177576, 2.2919564628063593, -2.8114482072604505, -0.22172137858755944, -0.8853283069546054, -0.6145957537528796], [-2.1022782330479366, -0.37077611300225516, -1.390613011745149, 2.4562735510951024, -0.9109480431980868, 0.6096959691785895, -1.142291235184457, -2.2590023973852005, -3.9222659146905285, -1.4356438838440495, -1.5581314438548253, 1.0092352275883547, -0.6939605496037433, -2.128326454463476, 1.689277845517184, -0.8109590217763271, -0.9218664146595315, 0.45989097741704893, -0.7468223081931091, -1.3437300084974457, 1.760067423273967, 0.868602799720442, -1.8956142254588237, -3.5066004884419586, -3.4888584122707837, 3.594421153912332, 0.42436219660863367, -3.090913792643069, 0.7729425872461159, -0.4358801299292683, 1.1484085703891187, 0.23361816946820252], [0.7191814693991099, -1.9373816931984702, -1.244305436146007, -0.1538870703468195, -1.133334263177626, -0.11502485716107488, -0.029242909144570062, -1.9818539031189373, -1.2221728617733854, -1.5548427936585432, -2.881626660728405, 0.1699900618512408, -2.7811013530742077, -1.7969750376215594, 2.8134296763297346, -0.03643062862799984, 0.5123471529513238, 0.38571372656101055, -0.2029769930545194, -1.227981226103722, -2.53410085589309, -1.0326713665822, 0.6843575306629935, -0.6035080622902063, 0.5677692949424076, 1.6132936638921571, -2.6995950032831866, -0.8625063589424493, -2.159534600324383, -1.058626769269726, 1.557650656048792, -0.8351547409994764], [-0.1964990727179282, -0.41754511437818725, -1.2693144207383735, 1.9888436159510026, 1.1194050012645882, -2.4206882580399443, -0.9617118736683238, 0.35001799323082666, 0.3099651176824671, -0.5559949681463638, -3.3356050456157784, 0.6059801155827474, -1.1687821256057924, 0.9017631124976115, 2.4860362700475336, -1.01644586812955, -2.8256882157203425, -2.2338737724592828, -0.08036873316542024, 0.8467138681222379, 0.7227751789504748, -2.517984172895854, -1.8261471194820025, -0.7831511450486506, -1.6667083112676568, -0.5273017520891242, -1.647182768467989, 1.6217044378719319, 0.1407594342437605, -1.879637201865242, -0.8053319981195911, -0.7620094029471046], [-1.4034024082686647, 0.5291767679301763, -1.4161184106660616, -1.0796484739263708, -2.196300934825022, -0.5048236085992555, -1.004068106165039, -1.9733596886091365, -2.0440298785991664, -1.3056510558775885, 0.804989643277002, 0.8091727685087192, -1.8137619399304876, 0.6386464967798612, -0.9668825029370691, -1.4929668175664224, 1.4066275871576082, -0.1135778935940068, 1.1051368642186796, -1.9685989277030822, -0.3779939587781183, -0.48970659923067344, -0.9253141349999179, -0.7619348559553395, -0.48283380065107095, -0.5510777385226994, 1.05125316703751, -1.9150365453943419, -0.48546417801055824, -0.5282734709270633, -0.2772765921310899, -0.10152016419539722], [0.32134900206375777, 1.60478332166334, -0.07040994607528386, -1.3988735666521623, -2.050395068338984, -3.7052804162383186, -0.6849239474964489, 2.625668606379042, -0.8671958911640308, -3.158208781539119, 0.14676874310053148, 2.7238133058434895, -3.1751209134212033, 0.0834465783456914, -2.942711850643386, 2.3309314682914737, -3.626570684233641, 1.557071504274616, 0.7927786988115646, -1.6787629060455498, -0.2214936456928723, -1.0171347677226164, 0.6467402667799875, -1.3310875354381235, -1.1629898471061875, 1.2443807137827376, -1.4390237260890322, 0.6187661427710267, 0.8931420081937766, 2.8333757566325666, -4.243669799113247, -0.7969850164481349], [-0.9842880745339948, 0.13232074969894103, -1.8364005261888376, 1.4214231485006683, -2.6092129069981302, 0.20133263698967394, 2.1245027147689264, -1.1465743465632081, -1.7680396451001839, 0.5960101194840078, 0.5097230030446294, 0.3381542949489757, 0.17353199480614837, -3.2797394528645167, 1.6101450255454348, -3.431805558300386, -0.7861257527610707, -0.26598660378589, -2.93263777341599, 2.7671895713219254, -2.0219675816043137, -1.261471780572598, -1.4283845644071773, -0.39581650870220564, 2.5848583569305603, -3.0399080086016737, -0.07681032537794959, -1.1536090694508423, -0.374860861364052, -1.7865898726679739, -0.05885045912649004, 1.4748858857191254], [-1.243452700850934, 1.5643022999851428, -1.2135865808281725, -1.6033503081016314, -4.0477280732470815, 1.535822260505835, 2.4822027443601953, 2.0348248778427056, -3.8602744057256735, -1.3444820565432911, 2.568694174852982, 0.7375806191499534, 0.20082937623347932, -2.1967543419186515, -0.44320218007586976, 0.8774213145111325, 0.6241686314740515, -0.058121300523292986, -1.7866189554378753, -4.918957625251065, -0.3311872794902867, -1.708886920698182, 2.511257834538704, -0.30950586886722575, -0.7886979949986389, -3.0536748894855688, 1.3543838837094873, 3.2075715974337036, -4.013787922116999, 1.1810625034518396, -1.1677516039938043, 0.42549646975003824], [-0.3194108352463537, -0.7003497002574134, -0.508547423914888, 1.004496855477911, -1.4540582877825792, -0.20608968747596207, -1.4106877468503065, 0.7722575486816564, -1.3666769933075698, 1.390839349768677, -1.6430158077178871, 0.6495793051776868, -1.0031197005740347, -0.5604452759309909, -2.8779008607020238, -0.07915538605268031, -1.24610778924854, -0.6935238463796763, -0.1882296137029824, -1.3970809879105694, -2.1525042072199554, 0.6305556823568625, -1.0509877129381577, -1.134167152459569, 0.37852356114294206, -1.276654340185644, 2.305033887668113, -0.15605659007720324, 1.1740606655659873, -1.36142548513223, -1.543606911807218, -1.477206869137324], [-1.7453676109184848, 1.9288836972611532, -1.0417381539359707, -0.9792265339204647, 1.2078200244528827, -1.7878367449581305, -1.029444367368948, -0.6938083259552926, 0.9241669033312918, -0.08124666286572232, -1.6300259022620864, -0.7761611201872547, -1.5480660351276403, -0.5338148723683153, -1.7656717915535427, -0.5352249365467587, -0.6035794278478988, 1.2350219455195734, -0.2403885385042136, -1.4213589374027729, -0.674675649693304, -1.0255725424006945, -0.26257987150776724, -0.8865793362505269, -1.4182903455359193, 1.2094177195604165, 0.8430545346081987, -0.6226678217676352, -2.0259239856985096, -0.9581615993444818, 1.116346211922471, -2.7326395962598498], [0.7968494604313743, 0.5161449767091562, -0.43231124634195245, -2.151601541398028, 1.3680849148254104, 0.27981387164755683, 0.9491616603715776, -1.613821166599378, -0.2797750976222048, -1.2362685655764465, -1.624148850012139, 0.7442912466649371, -0.16903851407831574, -0.7874306615804246, -0.6755211706423367, -1.8440798105781753, -0.8576703734086395, -2.9323717358302237, 0.5454208323584108, 0.48412249373279775, -2.041582896461932, 0.900932483785155, -0.597842348516588, 0.042643913880282255, -2.2656592555703376, -0.3527181988522849, 0.539035554971907, -0.24758561336318544, -0.23443137542929618, -1.0866331091852341, -2.461496116266773, -0.05847938148494596], [-1.2453518183428243, -1.2690513568349626, 1.333439826631317, -0.759882518174588, 0.7063860869165127, -1.0736181076440698, -1.2733737424881948, 0.39433376902970274, -1.438994091049309, -0.47272150266001656, -1.7574762997764033, 1.074330920274191, 0.38497114415344985, -0.36215596276708695, 1.7047105812837875, -1.1812386314060797, 0.00602460606591225, 0.607723556517338, -0.8683255609319176, -1.9554852791030461, -1.5685667898195985, -0.2934711002683716, 0.11380699328774481, 0.31941151560204006, -0.3985719546204603, -0.20787359026491867, 0.6079800187588499, -2.0165396124711403, -0.23618142353070948, 0.19917953389857998, 0.19879629079603048, 0.8287046516579594], [-1.3186722275468759, 2.4675860360521065, 2.0153621758691, -2.9547019181653837, -2.016561554489139, 1.1965180433160132, 0.11109951565025152, 2.1003196769225574, -1.5237503183697227, 0.6050490572077485, 3.0474742584974637, -1.2436919490419556, -3.066072655319816, 1.9171837826763847, -0.2752686341616463, -1.335697402103694, -1.9602566675453417, 0.8082263467332671, -3.1980086454197068, 3.150368016281321, -5.7480875545119465, -2.184998330927077, 4.111584369377932, 1.4742045187887325, -1.7948645178961737, 1.2472547618801468, -0.9964540728139158, 1.1393804065561282, -3.45969270582167, 1.182992829927096, -0.7006511882723082, 2.0943132463376988], [-2.418977531746732, -1.835369780748264, 1.0601002036336167, 1.0606448519975138, 0.6708215928802872, 1.4319289277936558, -0.3586354353027462, -1.7437892451933248, 1.589831809385227, 0.740330091638072, 1.7413856904113114, -3.4631610061515845, -3.9613213046455598, -0.12750174838509115, 0.2828389306395295, -0.2331448407567076, -1.9270966682435797, -0.41510838731588773, 1.6526453705588389, -0.5836970686071529, -4.225508472095526, 1.920927882647393, -0.7322861971404551, 3.1984191846092513, -5.393528569949933, 0.14787826785806368, 0.7417395123204775, 1.488349182437508, -0.7597942081482335, -1.808796071659173, 2.729535458249451, -0.8906680222490039], [-3.1953668722970887, -2.670254208655198, -0.42802846596190636, 2.0536626295498155, -1.3123612368317235, 2.9635375806591613, -3.096765425489774, 0.4467754288534595, 2.237153050663472, -0.023550826481563644, -1.0398762074346362, -3.186759872230696, 1.0637358337536378, -0.12274313386773689, 1.0725087660324755, -1.0580671980360181, 0.5937522320646713, -3.4430786397251905, -0.13829359823473714, -1.3888605907239955, 0.5725873499095858, -0.533683606339808, 0.3005803712163975, -1.4311244045660607, -1.9484231642935104, -1.5090369770853949, 1.0218227266296056, 0.1600150176673308, -2.5911128195550517, -0.9039082898504072, -1.404308578626125, -1.148958058598287], [-1.4695727886973582, 3.1190898222861745, -0.8769170421143146, -2.421104732383832, -2.0305584670405743, -1.308654883177323, 0.018007673408848256, 0.6410325873810204, -2.738361398279418, -3.5031006273338665, -0.2920296733390017, -0.21395971136825517, -0.5802020562700674, -3.4359206673218585, -1.0741909094094373, 0.3614663118039031, -0.08073007759896517, -1.2310497292963165, 0.29062386937097806, -1.6948081310372745, -0.5346000433291582, -1.6157420629041581, 0.9807347083256114, -1.3470803914628613, 2.6914091730850918, -3.327768404033465, -0.662998551256565, -0.7806568028698129, 0.829308187776906, -0.6906489071309823, -0.47628953263754864, -1.7683312605473702], [-2.8650929160299135, 2.34672120173184, -1.0629618757492252, -0.7936588756511641, -0.6282077172841343, -2.5737071314323563, -1.4907718198510789, 2.084751332342281, -0.039753711722942855, -0.9663842913014475, -1.9476503448311615, 0.9950101988468802, -0.26015857187180386, -0.7287252573397845, 1.3228602925425288, -2.002019003067527, 1.9081300467684366, -0.8924668523980962, 0.22630475702848227, -0.7528630136246288, -1.0026657320705445, -1.6075361568601565, 0.7818340051138931, 0.08083172283554836, -1.7678567467067052, 1.920162522091455, -0.4912789723747541, -0.12900040713002497, -0.01858574323257807, -1.2639528259133337, 2.206491540086974, -2.2685481217469463], [0.3985190357382318, -0.36876375639388514, -0.7652838880882301, -1.2237138282072284, -0.8663792392455113, 0.6205074749329205, -0.00414630775813069, 0.48922345564143627, -0.059094458383988156, -0.9110803967722997, 0.9703415788089134, -2.061160768013766, -0.7841347059928395, -0.6334767273762065, 0.9336385894375495, -1.167123061321664, -1.2085779604612872, -0.9693409945251473, -1.3939446330750909, 0.1292672517966578, 0.930496218213013, -1.6699457975074101, -0.5823541057511501, 0.15298551877766955, 0.2033500443530252, -0.35264479633149437, -0.031114245840180008, 0.18410527674683447, -1.6166767273782734, -0.645339917656743, 0.3850045230183557, 0.3536270270458954], [-0.7662422635023833, -2.554985863246462, 1.2412606575353113, -1.8353756542023485, -1.7790032078545017, 0.1855552416778354, -1.0367548949393355, -0.03937217608345831, -0.7112759440965515, 0.6373157486742883, 0.1465367850434351, -1.9639485301372253, 1.3913142180722275, 4.00212792405235, 0.2793879847789671, -3.022944459928862, -2.18180611384363, 0.23402307307007603, -2.5555265998136587, 4.160130919788358, 0.6085440296574732, -1.2130238773236652, -2.829872432001403, -1.5726192481055414, 1.9732168621936108, -1.059502623176059, -0.22096698826888028, -3.0779423679080113, -2.91814255144795, -1.6309529967500607, 4.519558213292018, -3.5279022826327715], [-0.7732394758444321, -0.7433027700395064, -0.8129728260913032, -0.5799362658420046, -2.6664813025865937, -0.8651173960347621, 2.355308308274576, 0.2552008426440804, -4.192397325698632, 1.7940269622046108, -0.3152376775397465, -0.1413375544745621, -3.2634019186299894, -0.5219273403259167, -3.3587655998365995, 0.27243804366700924, 2.381607084818296, -1.547310536722661, -1.3489882339311714, -2.7207782908844838, -0.34633883163994533, -0.10530428875146725, 0.020040312347831848, 1.6154440957726721, -2.1579238570604877, 2.0538621308238585, 0.5989139712585928, -0.3163917037810631, -2.619175354341038, 0.5312476641842582, -0.4565671390787013, 1.3654928495097054], [-2.212070235944701, 0.20193083904072834, 1.1588681161891496, -0.1284069177963236, -3.3055016932088157, -1.1647556490537592, -0.6236724793950117, 0.9389206771654797, -1.1163600081997402, 3.05400593936506, -1.0010099304957318, -1.2891761541299003, -2.5309310643393306, 0.3758001773280428, -1.4453828863988123, 0.8653008009267398, 0.03495520615580072, 1.6214249850748677, 2.486763847258885, -0.9799934137533022, -1.9888668695096436, -1.880194536134917, 0.22886963198054142, -2.6345687049125632, 0.1866449729688507, -1.1062296635013007, -0.06665110575618628, -1.2072641016224261, -0.20041817228317266, -0.8672580058806694, -1.1433358734320915, 0.2890635777115212], [-1.7340231551020304, -2.678742042226937, -0.7159335051245199, 0.9746856100410763, -0.38957173052898164, 0.7540394059386334, -1.270613838970169, -1.1379749604569773, -3.32073841255878, -0.7306220312115904, 1.1637261477601997, 1.1101130183235506, 0.678942503084189, -0.7180528647005879, -0.7186022143724383, -0.022354150970139108, -3.0256568065852556, 1.7974072794471685, -0.7076719434786549, -2.8631587487966224, -0.12508889874589704, -0.5189681780664812, -0.4966938864478271, -2.2589932278181815, -0.9365280854594271, 0.6524610529559617, 1.003082312681318, -1.3276683977424424, -0.44469261089271495, -1.46759161633712, -1.2996002657180217, -1.7088328150834813], [1.1106374912848536, 1.343449554875695, -3.231329800061664, -2.326272345703514, -1.6817479480336954, 0.5925694464874136, 0.4762512798185599, -1.2438193544828449, -3.456169147286933, -0.6476907788048909, -0.7514631073438316, 1.2595807720389185, -0.8619451686853197, -1.6591139663166825, -0.7506069929957352, -0.40679401651651, -2.807100983641819, 3.0293653769645563, 0.33538116554895253, -1.8014768994657422, 1.998912074289124, -2.842454435062735, 1.415090184943675, -2.6902003790438656, -2.9546085403764724, -1.1373087322284021, 0.22575002548463885, 3.2863588990732664, -2.621465997464893, -1.9607252424712849, 1.065044966225806, 3.34666251661712], [-2.932492772292161, 0.05461671755927138, -0.7486744746938151, 1.0688648499346025, -1.4648442245956113, -1.176967602832, -0.1360910735917123, -3.0017808452628154, 0.5298064066752909, -1.8212108112678067, 0.6720616695482453, -3.2266835412407526, -0.40607331943080555, -0.06963542472617802, -1.652457376014987, 0.4807073218957522, -1.4301092653779146, -0.9032733872376697, 0.3900182337169802, -0.9316587567154291, 1.73325124640201, 0.6852568622363217, -0.7833364895877227, -2.4559844659512584, -2.0945262379230085, -0.3759954651032501, 0.4848561535425715, 1.5360864043625355, -1.1552978313894786, 0.8134865336520776, -1.8217447481829163, 1.5359311329893015], [0.027345586951809844, -1.2153077389329898, -2.3019389675809956, 1.3371939080368853, 1.3105840677423717, 0.7948604013598087, -2.217625631655138, -0.42197689007703015, -1.256417063748854, -1.6206023539044359, -0.19047101862914403, 0.21047099392701152, -0.3684088137188695, 0.7771761463524121, -0.581899949542355, -0.6484797423892622, -1.2869127589782974, 0.4397375000453106, -0.6332678001043395, 3.7556916253547916, 1.1201050222376066, -2.5180043433813593, -1.5825358462452286, 0.7467462836601569, 0.4134203130976033, -0.2784685430244823, -0.356964188036885, -2.749882524958788, 0.7574157311666461, -2.2615965966363465, -0.3930665268911117, -0.8284863264653932], [-1.7684656872302649, 1.2616356576675045, 1.4321440086933017, 1.4106365468435595, -1.0753462587442153, 0.851666539027958, 0.5904625465284311, -1.5144249751016823, -0.7591097893282891, -2.497143841795749, -1.3514194700993298, 0.41369377005073643, -1.6604143641360525, 0.04275790253651548, 1.9027335504535265, -0.2486105548518198, -1.7679628486357961, -0.37095259362521044, -1.6237020187331554, -0.21939864493755917, -0.49540966347672677, 2.1427151522212284, -0.8643687617371879, 1.3102045517045267, 1.3340782012622787, -1.5985744249266785, -0.6823166805772929, 1.354174252780828, -3.0710857384608987, -0.6697157967036199, -0.14670776427900376, -1.5558603373588187], [0.21381237595998073, -1.5560431566771156, -2.1693359280428726, -2.2985052234595873, -1.019626937827334, 3.7617654648681733, -1.2326566033050483, 0.5451634047693188, 0.012254900052741038, -1.324770250141507, -0.21024325394605234, -1.2076686382732331, -0.05988675686237203, 0.6553837540131012, -1.6087886433083745, -1.0922140530545865, -0.38006466896223867, 0.7086283646886368, 0.7104433345453638, -2.328975877698147, -0.6220474031594421, -2.003278012905801, -2.988652908906273, 2.8253375072604934, 1.490314703992086, -0.5695913836724912, -2.0515102048923346, -2.1476821109541557, -1.9078977354140911, -1.0664385791706663, 0.7417458433264997, -1.886567360644538], [-0.8077366571279765, -0.8951170813853211, 0.17955278579194117, -1.6751864634283276, -0.30423575861836183, -0.7990124634436, -0.15203522171143924, 1.7367079675510504, -1.102050541248857, -0.22164160593407195, -0.6286416718560082, 1.0959405347210676, -1.558534468742298, -1.0651500991418057, 0.6002492034843434, -2.2882395088006984, 0.23104619009119776, -0.8107305429136619, -0.0001892991996781104, 0.5010320276743833, -2.5970014796757552, 0.16979012617295555, 0.6170633435742107, -0.3433661267708662, -0.41584236136466635, -0.7028076229337369, -1.761065077503476, -1.0403330522505614, -0.9036724310603585, 1.111433267811668, -0.7901016961860644, -1.6224033163080398], [-2.1296634289270213, 1.1979895990159726, -0.9582183737425674, 2.0747794803741972, -0.9114968483571309, 0.8040008962766466, -0.8969571784120767, -0.4286348336328793, -2.0060014809934845, 0.19021633209923658, 0.5452932344153986, -0.45840976029310476, -0.3912195897922626, -3.1257233884124807, -1.0429793826904372, 0.4569686400329933, -1.4161672397869414, 0.035955344300706654, -1.7772012277452318, 1.3749823537534451, -0.360405870931894, 1.134843076835666, 1.3089763753463417, -0.49634584186481095, -1.9942942752324708, 2.0173240475568295, -2.6610104431823745, 0.5651169779644775, -3.9570238688771613, 0.8885031944750574, -1.717055398182964, 2.2918091957186353], [-3.50985153032976, -0.6472154912803075, 1.3326469632821107, 0.09201573499453841, -0.9335413705872199, 1.0283095617107818, -2.1250885798256673, 1.6802447737396597, 0.10129441728698754, -2.4428143221914658, -0.3479194467973961, -1.913774786568783, -3.930389481051311, 1.0226407096439498, -0.931984752085231, 0.2972288416028194, 1.3162149600079542, -1.7991826247248015, -3.700281994600131, -0.9307661666564507, -0.49331453828659555, 0.45369834673098725, 0.013559606277702724, -0.6457538622648139, -3.0859569888208616, 2.9900901111591303, 0.02774920911233667, 0.1421768864443141, -0.8699318694424367, -1.3645367208049268, -1.0533124815973796, -1.8343450574476103], [-0.008688571128238677, 0.7070211649589977, -0.8917565227416139, -0.545005420463985, 1.6329035833641918, -1.9351533241147336, -2.012360209555892, -0.6833728479217834, -1.3528152886369116, -0.08183412277565559, -0.82967843747654, 0.9886041285659867, -0.9804662021213828, 0.5081715420702303, 2.0734875464858495, -0.14384400329550814, -2.124613461492626, -1.075665263427751, 0.10624999998551313, 2.02827149241178, -0.761037679849254, 0.30808056168103376, -1.946599575058643, -0.3426899535516672, -1.041456860456234, 0.4161290679436454, 0.5174131701924577, -0.197797143452582, -0.7316662376695201, 0.3794154845068899, -2.1864869575392123, 0.37226224325611795], [-0.21080821348989826, -1.5397296711606256, -0.932931479963449, 0.6711472651322563, -2.7015059207647822, -0.6705340219962478, 0.06589816044665618, 1.0729141414182164, -0.8260425147701126, 0.5807981051264957, -1.0989746367337627, 0.8567651590500999, -0.3290103057116851, -0.290825306299579, 0.6849685634160301, 0.4727858157947185, -2.4561206164390668, -0.5062181759852584, 0.9756312435865839, -1.868811751881981, -0.10820196357937413, -0.22232075917401187, -1.3458168529308372, -0.35149494400531334, -0.3985424971708476, -0.5055863995160386, 2.5246371327838872, -1.081553203554588, -0.23677586491579342, -0.0001732919272177675, -0.6761550720050257, 1.3773241349257817], [0.7290597909176021, -0.911810691976969, 0.014496298055937978, -1.5500953536446056, 0.1707482153138692, -0.4040985357456335, -0.8008370784909591, -0.4390469331914658, -1.244067646285538, -0.49725515582894436, 2.584325746086744, -0.28235911734260305, 0.5579338185766155, -1.3712004237483524, -1.1879549847676425, 0.21663585282533793, -1.2012307890699734, -2.4716454909028647, -0.10565221719058991, -0.711958990630498, -1.9652434739888685, 0.2099978137385659, 0.4845503764481147, -0.39875363388758944, 0.19007966683212854, -1.938485130001676, 0.7107942539002362, 0.23735236319201025, -0.5700069750907053, -0.9186532165514718, -0.5103807602881606, 0.492109406296042], [-0.8615262298373784, 2.132715898521742, -2.2281672057232664, -3.069421608283855, 1.0817843277789034, -0.9069618447189473, -2.3922391541462233, -1.804396489989187, -0.7598254282440139, -0.31357236203054956, 2.3228759092929567, -0.375693350991328, 0.536788591858973, -2.553087571149301, -1.8783014599055714, 0.22966209234263482, 0.3652044963993714, -0.4225825689371782, -3.5465591204921023, -0.2333352120366903, 2.3936636178697728, -2.8831259199257016, -2.571354391899286, 0.1739644636904768, 0.13783295877975404, -0.361529102386196, -4.853925483926238, 0.38523139984773325, 3.297204183571341, -0.38754621800033756, -2.320897592856436, 0.6154922509221216], [-1.8971785171406377, 2.4526848819235867, -0.43016071822616675, -0.133792271918592, -1.3550544907388034, -1.2653704769212255, -1.9368771825288504, 1.1254317570851726, -1.6072819543928296, -0.6764099549191126, -0.5757898095070153, 0.42034643996519616, -1.095269926154434, 0.2043777369685682, 1.3085595948566893, 0.8409462265673255, 0.227156829324449, -0.2633531413599335, -0.8814969537966647, -2.1411440873767855, -3.3980087539641506, 0.5212012001925757, 0.04556248891997594, 0.007573943547840492, -0.7295313004235614, -0.22145805397279267, -1.0658005488129512, 1.8706352647576359, -1.4979724268986754, -0.209920465648897, 0.5507068763221022, -0.13401183419156792], [-1.6698920626599225, 1.5518128319015703, -1.9894573746687811, 0.9534214455566409, -1.7165340672976452, 0.24870922445028787, 0.2847974254804892, -0.3897528172057069, -2.2367778105899383, -0.5460772232854707, 0.31471377930930905, -0.9860260041120124, -0.6964197402148317, -0.1965528614432545, -2.123638925095156, 0.7688637610901444, -0.3754992212529119, -0.20951939025131802, -0.5299573251864403, 0.8616630322671442, -0.30293552577221616, -0.41593108684877567, -0.38923913911446784, 1.6850017983003325, -1.3865054479689987, -1.3369159345045587, -1.9672306556384744, 2.2977515987738295, -0.2169500827339091, -1.2448800455587516, -0.32917267813426987, -0.32209656229458244], [-1.75640264611726, 0.9170706036511266, 2.416011499656567, -2.923270259471963, 0.6212149452651539, -2.58085719672245, -1.2956260490508944, 0.9538264030244367, 1.1041822890646171, -1.4085966832914305, 0.6148717784841653, -3.466982650881807, -1.8395538681341084, 1.356226731204753, -0.1813463461868907, -1.7113454988069376, -3.38052433722203, 1.8979693767449963, 1.484560056482278, 1.259593439608795, -3.848113990533496, -1.190864795544307, 3.1123832335175843, 0.8073966898557076, -2.325679750741687, -0.7522351823469444, -2.6109070426386634, -0.10464012673388026, -1.3950735713452334, -0.7197872277692742, -3.8223639573169996, 2.041181060475594], [-2.0624293718847992, -0.9591016177452999, 0.6564584636870127, 0.3122590656909633, -1.1765762340596853, 0.35321937517979973, 0.34808443145656376, -1.1399726440622318, -0.4402976853399487, 1.0487011773874269, -0.3546175449041544, -0.012577022994532863, -0.17456493832857425, -0.019131900962341037, 0.4641508432130103, -0.5733792118292627, -0.735111388031361, -0.9407423163141584, -1.3306316890130117, -0.682061990735091, -1.1964265392295987, -0.767955406874349, -1.0726804447590952, -2.322971283516181, -1.3561500391587653, 1.5487357144123939, 1.7785630243872874, -1.4043027365007845, 0.3798472165776008, -0.9352371014298274, -0.5571270500491392, -1.0807619106006752], [0.16849475708804637, -1.9103735130453863, -1.1697040407596815, -0.02403577806453532, -1.2445831608326081, 2.5975910976020113, -1.9908393348837055, -1.3733222572017574, -0.2542197382242353, 1.3915019715375136, -0.1162491607250449, -0.9024364446148481, -2.387000003593726, 1.5415243997156438, -1.348443462208157, -0.5418163810354663, -0.35321772726039846, -2.231788752159673, 1.0018862448424366, -1.8699537200233929, 0.478957200403486, 1.016924954485898, 0.5872620924953794, 1.6523409149781947, -3.850310371203174, -0.21617992456519153, -0.055420043644638796, 1.9227899946585025, -2.7681317552789775, 0.754151635010069, 0.5718775706207722, -2.4275024552545315], [-0.30834537420723473, -1.2642025814293427, -0.7179718374460884, 0.48198258169565705, -0.8027692887755535, -0.4000654129546286, -0.2899751823383787, -0.49586615019744007, -0.17552322023676073, 0.10194670836170515, 0.12946604316181087, -0.8263302729320553, -0.08492893511424686, 0.9034600646435357, -0.22938809192444945, -0.39771580291781544, -0.923374083375283, -0.6394750150432077, -1.326293121817605, -1.4805437877154584, -0.6886530756880189, -3.0928285807047566, -0.49204931462309315, -0.48611090319832945, -0.47063577362630926, -0.4055825536688424, -0.05271206484520965, -1.1923055889203007, -0.7563960830697193, 0.6727333309460299, -0.6694436947261884, -1.809641665246202], [0.8744214213944694, -0.9900496515337563, 0.1415807073505225, -2.719101701595994, -0.8926577776897966, 0.28325297415271405, -1.207051328957182, -2.564651496330115, -4.7550655387167495, -0.2487259148795015, 4.718077611504434, -0.29723973838497153, -3.1455271358215655, -0.08339000008653571, -2.048246703412697, 1.6255653655219184, 1.7157269248938305, -0.5299571826670456, -2.036736009553399, 0.47197981341492123, -0.38757954660884086, 0.5770008446029693, 0.3414954605577225, -0.6206151460419665, 1.452980625279035, -1.031268520515591, 1.2098032491092725, -2.9499579534046774, -2.57152704569091, -0.9873156489346089, -3.0273815981957894, 2.926168072026742], [1.284542103238072, -3.022817685630535, -3.4457454721702163, 0.16129201984097752, 0.3018826843198286, -4.379103957290908, -0.3304650386880424, 3.25776130260401, 0.22745986380187755, -2.0823070432032336, -3.179482794228689, 0.30091703394038805, -2.96258853474244, 2.278379566535397, -0.8880666765865267, -0.4784766707422493, 1.3802130771671623, 1.201994936200871, -2.591973972688554, 0.08016205171683813, 1.0466796376715144, -0.11606720465723837, -0.9645517604631949, -0.148727380190601, -2.5478882175127375, 0.3242309550259648, -2.711646799675349, 1.4959988052125188, 1.5149013645222031, -3.9114116579666, 0.11541702687325428, -2.7105986461712317], [-1.149650664493176, -1.7515553484234623, -0.369351687120521, 1.4001592180734739, -0.49903270179855574, -0.3989714637437406, 0.22132888925546296, 1.477208881637521, 0.33193444230705493, -2.129932591008131, -2.8520257213956763, 1.0697645610513788, -2.9945709801280307, 4.4775743181710155, -2.8434116609742075, 0.4502812570108231, -3.371531928751165, -1.610849435117892, -2.8423177237973145, 1.835014070324973, 0.7008098445595293, 4.228697096551517, -2.5363666923845556, -0.5171913012264323, -2.1585081495458507, -1.200429328627771, -1.74158343656349, -0.2834797435273216, 1.0254087992956789, -2.127395256634069, -0.12005043437121639, -2.957751899931761], [-1.0077749209224383, 1.1948823133664068, 1.3375550767924926, -0.3592699736602012, -1.7050270996037729, -3.0155634280298838, 2.941058561862492, -1.2238917435675418, -2.666922599708177, -0.14322516408985075, 0.30430031756407944, 1.4391744393119656, -0.8203433794220207, -2.360068706448987, -1.0227773437757561, 0.6224150936404079, 1.244570860695875, -2.2895660293601514, -0.5969328988272619, -1.366789727779859, 0.3172017759280523, -1.6963216765905984, 1.0385000497799886, -0.6612254584226003, -3.305719508680378, -0.40866445622747755, 0.18007646557163454, 1.8835701321973, -1.2955210727480568, 1.3419326086661314, 0.6995506461618628, -1.5150333285783741], [-1.737793183750414, -0.2021298658608682, -1.4784639483430853, 0.8235907562576892, -0.3774780021479094, 0.48395567041857585, -1.3279066106140545, -0.01123208123616892, -0.8620721740022004, -0.03257474372503605, -0.012802906141921502, -0.7530331131139801, 1.1057999944103916, 0.3955078646540553, -0.28803643393998696, -1.5879987270119544, -0.6051963309254212, -0.10683592932777504, -1.8580134776235382, -2.4720116893045425, -1.3207099901408266, 1.5751854344117502, 0.12152570461998874, -0.12425993294840301, 1.0204802797045345, -0.7173889262685035, 0.3093807408849918, -1.3550550885403911, -1.2994869072972506, -0.4786029576839199, -1.0123020544170778, 0.1340221537810614], [-0.995948788137522, -0.6727862844577128, -1.1660583841159304, 1.5290407272837223, -4.2204757460195435, 1.3663639158553096, -0.42778179505929853, -1.7120629948883892, 1.3483429715415296, 0.9364247057283086, -0.5546571458931937, -1.4711105467984982, -1.4674863209696631, 0.2691918998108696, -2.8319611675723917, 2.9720386390868705, -3.3791042971604632, -0.9760308315666262, -1.006989093093867, 3.330945409435654, -1.1927751212557345, -1.1885714330396075, 1.105351737584188, 2.713718309881285, -0.08490518872501546, -2.9464966743005694, -3.1956540968454483, -0.322614499639619, -1.5883749154864018, -0.07596364754988352, 2.7442041646150668, -1.2759926316729728], [-2.215562722137686, -1.7118583099190876, 0.5921602241655816, 1.6139424213913656, 2.3888107538090235, -0.11994621174197025, -1.0966619898851184, -1.275003771191111, -0.5309611742211477, -2.573582381017933, -0.022484581012197233, -1.9425545583677961, 1.0937869347724463, -2.5052236333122138, 1.0272236570171125, -2.548809402782172, -1.5639315571882997, -0.026081725760255907, -0.6528074257286196, 0.5811054764934025, -2.7594537363381115, -1.6050668938848185, -0.4022529621716228, -3.078360309201818, 2.1741627272701574, -1.3759114251881706, -2.411837007983268, -0.8176882301160223, -1.959942628205056, 0.2834711226287341, -1.644482742022602, -1.0978939617640886], [1.4318980233033594, -1.7521641777358683, 0.2228130211523961, -2.0740424039386185, -2.129905532111484, 0.30285932773003427, -0.44618376290459594, -0.9768983209666946, -3.223033330941975, 1.7457053864009018, -0.12657476803298218, -0.7071172236741402, -2.380790565212545, 1.8899325253878565, -0.5912249066844003, -0.38741000707145884, -3.2052169497176957, 3.8053996797441316, -0.25073223263452604, -1.6080460046759508, 0.8546073358166004, -1.0994230410127177, 0.09578452800907164, -0.0400147541815096, -1.6426919943008835, -0.807118213175934, -0.29640271551703223, -1.3072053491935387, 1.6692524006265368, -1.4573013131443908, -0.7366398769944275, -1.2715296070244368], [-1.5028123343911226, -0.8028887333463626, 0.6053495483447999, 0.6068428968280614, -1.9539753649305485, 0.8533897982868776, -0.1486454254231861, 1.1111041265629518, 1.202984219605061, -2.0833087831768826, 0.3591979576101291, -0.9963964341233857, -0.39359674828569674, -3.369457913534352, 1.0344647528898958, -2.0059876960438476, 0.11777368913997614, -4.164410594646928, 0.1709625069175879, -1.5148202896986445, -1.4954043167951763, 1.2767491609398993, 0.5853721041836326, -3.507953448465674, -1.6051181574084392, 1.4356782090732763, 0.005128418940686163, -1.4554648078189953, -1.285712871183751, 0.42649774625736436, 1.0437779547024515, -0.9033248868693605], [-0.06257667154668355, -1.668940547025308, -2.415705837207667, -2.348203232674662, 0.8185992095873886, 0.926078796937674, -1.1908451340001383, -0.45718239983227893, 0.15056674340807102, 1.9725551078450203, -0.9688175221428305, -0.3172842901666845, -1.3741224885138077, -1.0872116368838234, -0.19019260798303067, -0.8483855297814867, -0.21324793720634708, 0.2058131527817744, -3.240153232840487, -1.5332993774747667, -0.4857525563953631, -0.014450603242019588, -1.6488565439224003, -1.576293857235598, 0.11948569675224706, -0.05190523040310455, -0.6863371641901599, -0.3267951060653408, -1.2180056519880438, 0.27950796527517935, 1.1031487996987954, 0.9803485072139702], [-0.8181345710172724, -3.851631468982685, -2.373472865739444, 3.592267853373093, 1.0860590599956172, -1.1873854413745724, -0.1416244379311878, -0.8950955120915468, -2.891249224532192, 1.7151474534345308, -5.609908777714114, 0.3777203370904715, -0.6110490828631245, 0.3317088831774774, -3.982698277035882, 0.02883486923328245, -0.38913300210599705, -3.5404715134042126, -0.6745392348562197, -0.07525917633770196, -1.3835785078172553, 2.514811940703856, 0.45497657153479837, -3.673224079811796, 1.576294805757101, -1.1716405938715584, -2.0813350737130594, 0.35293288043163207, -0.8454189191011183, 0.41216022103757405, -1.7477841015429685, 1.8948693475140863], [-0.1627348226727053, -2.0386942145893907, 1.9501172409731353, 2.709380135772351, -1.849072439169502, 2.837401521841441, -0.8431807621848811, -2.332328645168772, -2.7967374005245915, -2.033113286447601, 0.06366569173644876, 0.5139416156283664, -3.5377342810375216, -0.1114100003856435, -0.14256066694069985, 1.495829724890575, -1.6678553671671421, 0.8526992761080981, -1.4554740900074, 0.3192590409409221, -1.9279098952790152, 1.6458478594888244, 0.4828357486552014, 1.7875322829431757, 0.4792898805685175, -0.7765210100989036, -2.407054625895415, -0.3184058031723995, -1.0331439102752815, -0.8227193038377469, 2.153897953536134, -0.5769203207313245], [0.9274593351532205, 0.9147399919174309, -0.18056746490875356, -1.9023488312955588, -0.2987867492344514, -0.2614557550008532, -0.19747390152543026, -1.4772814864971509, 2.0671617774897455, -0.005516522102881854, -2.1581352127829505, -1.5881783889369283, -2.075553229296392, 0.6398518030011492, -0.8245384753636839, 0.9789511412963944, -2.2939510790173325, -0.7771489035949332, -0.39342266999303027, 1.2702633896856408, -2.929798403965998, -0.5019621454702039, 1.5474618132614666, -2.817765041798886, -2.0991071150458245, -0.17402756572526584, -1.560014523722996, 0.4724434215013637, -4.313005023478264, -1.074362849008638, 1.1970864933848233, -3.1945239263873955], [-1.42392281581183, 0.6353859528488974, -0.09968996487676164, -0.6914213605887138, -1.809598339848282, -1.6804380216472772, 1.2853424424193398, 2.937586689385475, -0.5752419574858519, 0.08619085565632056, -2.8658967572734633, 2.3152821018579375, -0.30271191582377677, 0.7093181812921517, 0.21067863540310405, -1.6611936977155464, -1.4296275310901851, -0.2835006085874757, -1.838900211624892, -0.9917386829225119, -0.013025868154532749, 2.7090954339326205, -0.6492952712790978, -2.925937032743564, -1.2262228735884828, -2.1706882308283606, -2.1585125188124143, 2.3218310123081918, -0.4887401511585384, -1.3925543127752136, 0.17432025875988993, 0.6871705949225844], [0.5884980975991234, -0.7831187673957141, 0.9605453371171431, -0.7282990473163943, -3.430628172039277, 0.5568421274039437, -1.149752506147784, -1.4006594423005987, -1.596382987194485, 1.6698274631309575, -2.0297325923400362, 0.5867496486264, -0.5346743776232449, 0.593344900266105, -0.040554072271465, -0.9495847284697496, 0.5750043524023384, -3.0720010814390375, 0.8484000928378518, -2.1501603348329925, -0.6224031345311023, -1.7604136829383399, -1.0825035048357443, 1.3309432618915826, -0.9253389284222844, -1.7215545947117956, -2.656750376213307, 0.7713149393781791, -2.173307155730771, -0.2421401959516374, 1.4372314350299527, 0.24479219617003992], [-0.2973310104253173, 0.467257175564734, -1.7440220637149724, -1.0317802697156675, -1.7843699911673452, -1.192156999195219, 0.43681222418489457, -0.9502394495690478, -1.1180820588381286, -0.6922880822358322, 1.7328536085866009, 0.76514826760858, -0.8048291667398124, 0.3135608090227332, 1.9247408421318013, -0.8185519220194566, -0.8017583210450696, -0.16483467545477637, 0.863153917762007, -0.04752270247566865, -2.430430703245068, -1.611904270027654, 1.4799824730350508, -0.07430892517072978, -1.3102200925837935, -0.9765860387608374, -1.6856641574820117, -1.1777227128877288, -0.0666158507015539, 0.08980853934666029, 0.3885290454463033, -0.2803101849392347], [-3.1647041653801886, 1.113225933401344, -0.8291686056166826, -2.3907839649366007, -3.3871439254385916, -2.2273848160273038, -0.7409474430059636, 3.2589889683353523, 1.2656974488418362, -0.12538616628889748, -1.7343617205854565, -1.790334038866898, -1.407911876939187, -4.634995979197243, 2.1615976387704103, 0.684280163543914, -0.020878340705348962, -0.11618848421668516, -2.6762197624585244, 1.2561116055669437, 0.5572073544851285, 0.02997890972048468, -3.1080809226715465, -1.7386388237167536, -4.076438700148292, -1.7499471785942036, 0.581841564934139, 2.791121157516154, -0.2986685396825919, 3.2807031160585574, -2.9729136736800883, 0.6394550277063605], [-1.7458530716486678, -1.2213554881656863, 0.9257390326113186, 0.17327439036893166, -1.4300425364957527, -2.077775822742512, 0.9975891833245752, -1.2108728307713286, -1.9037008499887047, -1.1389486832315447, -0.9266557315527779, 0.407065476735831, 2.0942444743659685, -3.1848641451755637, -0.563453062776255, -1.47794070152411, 0.32396385836707514, -1.514957111249234, -0.6422969995010691, -1.2593537924307074, -0.03970096938809174, -0.5225848355723564, 1.0667913699173222, 0.17867473350021473, -1.1162861000013886, 0.5672038961443711, 0.5250533749489648, 1.3929794211137718, -2.5601695131718087, -3.4587054696611172, -0.9353647774612038, 2.302938083269054], [-2.0942383020811204, -0.8553380662481638, 0.2503882802734013, 1.3210476730470948, -1.4801582277473957, 0.18741093009114082, 0.9170117478784044, -0.49353171247100647, -0.39702352010773106, 0.1851780679486612, -2.012912052986928, -2.305474005241777, -0.40151016833375364, 0.11017499263906327, -1.1676766021889324, -1.4737028711429103, 0.27824029496602104, -1.695598617531885, -2.0868842603820843, -2.4758444600460043, 0.15497858638489515, 0.23171818073782088, -0.10921063664039592, -0.08647333685369019, -0.5568928976944874, -1.1813796311362599, 0.413848430264998, -1.2366505716159877, -0.017522802575773325, -0.7801565429295496, -1.0456308183371996, -0.30436583866178196], [-1.4275803106771285, -1.8071024396704085, 0.5887114999707038, -1.3749922565793005, -2.6106319774659794, 1.45118318376966, -1.7009587573648608, -1.5171290364181564, -2.5849629472964923, -0.4116805679418897, 0.36341637182457415, -2.3008742546980687, -1.3236532617433823, 1.8057267776548962, -0.2329566683524773, 0.6386589626887628, 0.839825728039436, -1.3097141317343137, 0.2627925580546475, -0.9680731813297931, -0.42720508563641585, -0.711895885315412, -1.737094929363552, 0.8325209045873233, -2.5642702027831765, 0.18006678898330972, -2.305726938435951, 1.530346498145273, 0.6860164953320571, 0.6213286510786824, -0.5478418111546323, 0.11339869627424563], [-0.12490739638630446, -0.40352193558210575, 1.2179609170520904, 0.6310700150041112, -0.23005547591505443, 0.25811799604639574, -1.0942484478966563, -0.5972523638643568, -1.1978918777194807, -0.48527750238999173, -1.1427987823507995, 0.009882282938138266, -0.5252407566237969, -1.5763243786647787, 0.3838695964863695, 1.240468202592056, 1.8323988759501335, -0.3148723687670425, -0.44983538976823223, 0.548445051396003, 0.8753168241135905, 0.2641023786311485, 0.0017577446157825201, -1.5079232716390054, -0.5806888931277345, -0.2689002317098797, -0.5425156667912819, 0.6578652005981044, -1.9272189354702207, 0.3442713714615945, -2.02833155413796, -0.20231725451143237], [0.15298185139872664, 0.3181024047041733, 0.9783418344963104, 0.13602966005962297, -1.6363641264563953, 1.5409274693003852, 0.49783939696659846, -2.1770729375554603, -1.1302631908754444, -1.4114510584733926, -1.0210348780372098, 1.7857366325513584, -1.0766298795333755, -0.12788555659573553, -0.4617903817704221, -2.0555785267014985, -1.3749573377584865, -0.32086830103745234, -2.4462424211718967, -0.7430952770905029, 0.608809639273719, -1.9467992783407744, -1.2973648524422634, -0.015302873881311983, 0.9499871384850223, -0.8683718740949411, 1.4250865615284847, 1.1212940454551183, -1.2402188589411423, 0.5951772709162821, -0.2764354741892478, 0.6945075928089899], [-0.09611511361760822, -0.6469023825487327, 1.2805358877559985, 0.7216836218461102, 0.27689974613087487, -1.4032961557104089, -0.7283776573901577, -1.4967587928192687, -2.951398587006236, -1.6663251185059957, -0.138829618458752, -1.0444463912723547, -1.0516656848751793, -2.4556939773575737, -0.9817446713861545, 0.23226300938004132, -0.2537927891048314, 1.6007386803376096, -0.7082491634070857, 0.9538915929878977, -0.8391421996696791, -0.6963205044712641, -1.2157894333353818, -0.7171859308089187, 0.7443634658297048, -1.5909318736116185, -0.40984309434237953, -0.041457794530456, -0.30759313441031655, -0.5541433918748587, -0.30904388643976677, -0.1127215097786897], [-0.9603457443471695, -0.6652141697465288, 0.048620852393788924, -2.029110881576649, -2.329917887384777, -0.6691247605627155, -0.7404135254036379, -1.2462244320272338, 0.2324399852293555, -2.752528905509457, -1.123961594356614, -0.8290410752636077, 0.5292269958699775, 0.06681320124381762, 0.6016824546237792, -0.3071931766617593, -1.1499649743455178, -0.24720061978483274, -0.517222940422923, 1.0613487545506257, -0.6266865818704712, -0.12617978131886412, -0.7607201005450235, -1.470931031781332, -1.270076913910641, 0.08094749909500477, -0.038828956456063844, -1.1759036933335647, -1.854783017461387, -0.6165511999342916, -0.799292738555649, -0.30813387395141395], [-2.402940804976258, -0.6465804723750124, 0.5664305658454916, -0.8927605778001558, 0.1584577964667437, 0.12776895711815756, -0.8945202121431647, -0.7218712396073498, -1.7023404698505904, -1.1640165288351736, -0.9613650913598727, 0.23077880403642848, -0.4398337861938254, 1.5420641281174705, -2.81074408609467, -2.102258495312238, 0.4139164583573503, -0.4798526177802313, -0.7862433092596345, -0.23748945267359725, -0.8164681387614184, 0.9340638969246339, 2.061095204382537, -0.9230429059801849, -0.23713575064784023, 1.3295779097187732, -0.6048707824324578, -1.3704487277067787, -2.2899267700993002, -2.215956920126196, -1.2767726295342237, 1.3209962776422262], [-1.2033168738335476, 0.21896368074082714, 0.06459230696281353, 0.5246063114573364, -0.673503663860169, -0.8036542750972328, -0.5244881878920418, -0.9534216997630494, -0.6801955460563046, 1.914282570443049, -0.6094806794120416, -1.5064044453550465, -2.0824890770347384, 1.0526015344208743, -0.36950134091026005, -0.4419276186857595, -1.6806708492460278, -0.9757777168766377, 0.5560403706888671, -1.4658907322395116, 0.45504764645282186, -0.37749272441992526, -0.5850004575822197, -0.5471367989133133, -0.6695122483561214, 0.7218488121207465, -2.101737496993722, -1.2291412999639628, -1.3599984573046267, 1.9081980600091561, -0.8195421288110311, -1.1848206616562593], [-0.8128796373283611, -0.7509209485455719, -1.4013304691213317, -1.4541264629843067, 0.690132268530306, -1.2030216886595102, -0.5733183881382798, -1.5834626321004832, -1.0806953494010743, -0.1997688654582727, -0.2621727253964765, 0.3038210876123795, -1.943484629105963, 0.771140327479721, 0.10932670362658424, 0.3817923837523936, -1.2854029586124722, 0.41817295078961236, -0.4309508721968797, -2.1884260363032886, -0.05715321241721719, -0.16735024206812785, 0.5028877446372949, 0.17127642898592182, -2.1184404920991864, -0.8811020168669758, 0.8867526256344457, -1.6463278681722726, -0.17644927444049055, -2.462888367486049, 1.1199517955233407, 0.6365429144717394], [-0.9714350637953337, -1.426515600068341, 0.7631545837018014, -1.8239046244960166, -1.7292586623386292, 0.8050361064668762, -2.326028804241322, 1.6792154113060507, -1.1668291999159788, -1.10506066780861, -0.671419252571713, -0.7425321455949347, -2.3781453742235175, -0.6202156850192, 0.3136300163593676, 1.4085452917687602, 2.5408274189920568, -1.1620717894480836, -0.2825264670655288, -1.606396834452524, -1.3031645526271287, -0.39854322944603887, 0.9721380287565684, -1.8659364510063992, -1.5322373223315768, 0.9734289523796092, -2.2481795235183704, 2.1662990532515076, -1.2773352858570524, 0.1723095372630391, 1.4726192949179775, -2.3249435816857877], [-1.232476108517943, -1.4588795815994557, -2.024582642352934, 2.6580969406401223, 1.9205553419430312, -0.5374192448071733, -1.9456781921128867, -2.540094251893964, -0.701346557961418, 0.06626432241974559, -1.2058219736019242, -3.4093113303789044, -1.045951895149398, -1.7528649941925607, 1.6817893536875748, -2.642327967988214, 0.5611906707648094, -1.6428365826236189, -2.3949207852922383, 0.7856845242621878, -2.417345701555057, -3.2188231412863475, 2.1981723881207285, 0.7665834778440613, -1.193615394859942, -0.9233925524557249, -1.2120277611085846, 1.2414751379820845, 1.8141756035957377, -2.8320037173275847, 0.916765605628136, 0.3740850470433996], [-0.2482697972111671, -2.1721578696390837, 0.45455506408324853, -0.479348662666099, -0.009023513059813498, -0.24262990231790488, -2.069545905856164, 1.3532081741182485, -1.9678383772498085, -1.3814173957759068, 0.78198124974012, -0.4110391282041808, -1.9749025040298778, 1.728826535443756, -1.4061073921336587, -2.348760307847089, -1.8682535293775462, -0.6827958582560592, -1.4502319350259067, 0.32952587078466905, 1.3359858752474438, -0.9100338864411419, -1.3649843519812976, -0.05536515049695789, -1.5409061744871895, -0.8175320929456268, -0.25293088533787855, 0.55210482237054, -0.9968882177487116, 0.9991667552427211, -2.054363423347525, 0.25844046554796907], [-0.06968178471526784, -0.608299445100835, -0.5357270646333591, 0.07836630051709255, 1.640323266719856, 0.5312694194251624, 0.506104218332191, 2.492474618645435, -1.2942173497996234, 0.2687371989888066, -0.6948603483107255, -2.0424005949136648, -1.6745206511917359, -0.8403783456995783, -0.6904443247012614, 1.0332581192701584, -0.8819364895388212, -0.28378006970153674, 0.019141422187473313, 0.547535200264329, -1.1743567161779827, 0.10230501883508697, -1.5062395058708173, -0.2842944554538656, -0.2107648965080112, 0.01601159618883018, 0.16010429432562037, -0.9306690734458147, -1.4091101911457562, -1.843169451493701, 0.040058804285429926, -2.21907886928261], [3.107135969080719, 0.3900469939737111, -1.7923905579601371, -1.583114532576669, -2.4290420904816976, 1.2807489444821556, 0.5055517592268663, 0.43504652679007455, -0.7977675005317612, 3.1084733728205607, -1.9773812159199151, -3.0858588774889157, -1.0574059518839194, 0.2485001790724687, -2.07489666222914, -1.1208391746689332, -2.065400617448925, -0.941735734505042, -1.4533540719029048, -0.9575054660702661, -1.931076754453657, -0.8793244621692786, -0.6279037778077333, 1.334207900966676, -0.35930196472792414, -2.8892687373795853, -0.44208833236196393, 0.4899833416069717, -2.41011415948874, 0.617548790639667, 1.1906305373903292, -1.264334396084352], [-0.9943737538550198, 0.6057215230084937, 0.10378859450663289, -0.8345442580334468, 0.34403044060861143, -0.5309217783140671, -0.43188141174584516, -0.13865354927693832, -2.5601807490276385, -0.38649955426444865, -0.2718009950677622, 0.4443158313216431, -3.2078515599442254, -0.5037224218781242, -0.6687296148404566, -0.06230637480809001, 1.640542515094732, 0.47045633438038836, 2.2936036793342303, -1.973458701553988, 0.03770883640305169, -0.4615827654417288, 2.889537364445354, -2.4938007606206334, -1.353425328300191, 1.2999491772971161, -2.577493321758344, -1.416386750229685, -1.250708962786816, 0.7396354232252546, -2.3833404342256737, 0.2891674065818195], [-3.152255549345837, -2.060408310367721, -0.7363983749334893, 3.579315356264374, 1.7694873393485455, -0.3418787890285643, 2.154136726612692, -3.9733517976792383, 0.9490814373381962, -0.905741368769978, 0.4114280004966471, -4.112005747256629, -2.2540865205255645, 4.334703640284822, -0.5664365710603813, -1.3360015423713054, -3.3504552689309843, 0.4825729792875402, -0.7705283790484447, -1.4519531536756973, 1.395623007146994, -1.120145823113926, -2.55686593006629, -0.19543063086797258, 0.9571171921663861, -0.1335328419935469, -3.74185916058241, -0.15296551830720564, 0.6618537353708335, -0.671251740325845, -1.0382407346832803, 4.46267373261611], [-0.6674877308925014, -0.04714090129863006, -1.356653615433249, -1.1888603770574613, -0.5512020103066417, 0.10070800583389668, -0.9593800285515544, -1.0940470549589392, -1.274905916228459, 0.3947712596614255, 0.16991769537170925, 0.7128129201246085, 0.33541395097105736, -1.3951174003742284, -0.6979669974018953, 0.4766102826236239, 0.5453679612984123, -0.8225695017329715, -0.3875289320193675, -0.756503350587697, -1.5361006628488107, 0.2635709635883258, 0.2801112260831816, -0.7533067743624803, -0.8605480521581064, -0.2506126336610313, 0.25673274610277436, 0.41289705527931625, -0.36580774593787996, -1.5222240113289804, -1.696042196312949, 0.738440126883942], [1.237165352991973, -0.7293671311450198, -2.0443559353856884, -0.8164444167129506, 0.79164570105665, 2.042526463359573, -1.9801179941576599, -0.7850020464354083, -3.105116227588879, 0.4174392527482854, -0.4910447480162197, -0.04720616117705666, 1.922385228668055, -1.9773919008948544, -1.446757168808081, -0.7011808785293419, -1.7819037070117438, 0.5921819869572231, 2.5847842401441015, -2.9021001688240844, -1.6169680525890922, 0.5885847612115942, 0.2740249095454411, -1.2065734620214403, -2.0631082738609186, 2.647271212133266, -1.5157776158314844, -0.023477673015746804, 0.31623736763035604, -1.6656913579899415, -1.800267920672524, 1.0775403609059844], [-1.2955687866144932, -1.5842874446399458, 1.2285874149239018, -0.5396440990347094, -1.2923499917210501, -2.252661568298709, 2.817046467711043, 2.07042581172994, -1.3492009015829503, 0.7527884337740103, -0.8474104208024017, -1.4552410692883595, 0.25115817474092106, -1.7591756607357836, -2.8161294752874033, -1.01557899871819, -2.1096882179386167, -2.6721210764371963, 2.2917043646147097, 2.244024338305407, -2.6600905747378945, 4.5719038179726414, -2.3229326426036643, 0.4390701839311501, 1.4801476444530042, 0.7675959590744977, 0.5097844261444044, -2.7552084277321915, -4.7148252210532835, 2.2938793292790547, 0.015009233050703043, 2.2666122687087413], [-1.5180860823903937, 0.06831980562678508, 0.7230671743021788, 1.354613433961925, -1.890493653872631, -1.1090178675147666, 0.27370071982317756, -0.3138903689108114, 0.18871940327705486, 1.2820211573443523, -0.4891631235602078, -2.0087270761403015, -1.0240351103388567, 0.05955232782295261, -0.32942959980305925, -0.21554508477939868, -0.8507142539376946, -0.7022964534581133, -0.9287918586989912, 0.43430914115970554, -2.9869919240041147, 1.6590531613955104, -0.2739910543045823, 0.3275911091564407, -1.36382988496267, 0.04127890956366465, -0.2780796445181883, 0.9994145999356312, -0.42051385386593293, -1.3421124742807513, 2.070342785481298, -0.5211081061265505], [2.6079474217967413, -0.5879066193191834, -0.36933422806463984, -0.47371791385864803, -0.5854461056334714, -1.172668914037879, -0.008898117510138293, -0.5990336330050037, -2.49857035136955, -2.0302602400400254, -0.01983543194462556, -0.6460728613798392, 0.2492184052915471, -2.504729663406718, -0.2648239675685037, -1.48735746276231, -3.6722171553183283, -0.10076656288844049, 1.1554904091182152, -1.6276307024003336, -1.8338865981112502, 1.8642444945250487, -0.37762177640115163, -1.2652286892819506, -3.5816739012120253, 0.03188844072270093, 2.094488298961054, 0.9963329595556489, -1.6414591331846842, 1.8072835381464092, -2.1666754604438183, 0.9630195938776299], [-2.264184256131896, 0.09431951829058974, 1.7112884075296788, 1.315728225055549, -1.9536912914988478, 4.741103542477147, 0.34665945125234576, -3.618956145239704, -1.7886024078113567, -1.6665608205616853, -2.0682170447264103, 1.0863571273434862, -2.0515578100573935, 1.1422621255028693, 1.7345035720973114, -2.2852337827727207, -0.642954750684231, 2.325780349072311, -2.3155643902407084, 2.7036026358999297, 2.510783951263942, -0.9347153171741889, 0.7652497186375399, -0.09494429977529252, -3.3037059768546593, 1.093484636486887, -1.2666433357126916, -0.6489647207709195, 1.1058888420943433, -0.2644263402237674, -2.640625653713242, 1.5500646281179127], [-2.162848858145788, -1.2959919069812913, -2.3858410020770524, -0.042319650635915924, 0.6071951984743638, -0.556533024795014, -0.9933501235127482, -0.26759403097523976, -2.7872421255988375, 0.4790348777224241, -2.638561285246296, -1.7675937401253106, -2.8015363022811934, 1.0168571255767611, -1.1951634034872425, -0.5907755188487485, -0.3944398100866921, -0.5279636569862053, 0.18636023341251579, 2.4350571033281274, -0.5925628622479552, -0.9130597020917917, 2.0674131658591692, 0.10839128554283167, 1.1761178243939552, 1.4623448714775755, 1.260206709241831, -0.2573798620432391, -1.2208184225203507, -1.4301007237535628, -0.1287491776306609, -1.135563327525266], [-3.276551721754228, 0.464164025271103, 0.4689084042082005, 0.9154317380361848, -2.1619526483444798, -1.9634164725903873, -1.4161140623190194, 0.8964219513261017, 0.9647641312970062, -0.4203515308844861, -1.9323320354126534, 0.7160872414819461, -1.421713276433809, 0.006974210873374039, -0.7517759481050168, 0.575262872629242, 1.1614849664700357, -0.7868851126620344, 0.7108113328431688, -1.764653371576666, -2.386577573055779, 0.8645847475480307, -0.44286861597170485, 0.20842386035903512, 0.004525515500396452, -1.1613170309951841, -1.759139615450786, 1.022596586264376, -1.5529137434253657, 0.2717671081314488, -1.4695619757550675, -0.7492859671756462], [0.5456430505966977, 1.7167672762492525, -1.8385097105714416, 1.1579771357125714, -0.1420356016752414, 3.9480410773842993, 0.47226187505018036, -1.958858053077917, 1.4537836358002163, -1.7587076870010883, -0.8489796101239963, -0.24025051110675236, -0.6816361002377967, -0.16623621775563552, 1.1448488203535983, -0.8516097060064619, -1.5090906748577677, 0.5727202930507742, -0.30719573707152015, 2.059549423988877, 0.3539223511699646, -1.077574693041313, -1.669126377569446, 0.08795381432047229, -1.8858115154956645, 2.7901358083554757, -0.6638124766384653, 0.48279740052043685, -1.7413297825649594, 0.7699325870638924, 0.44380197101994934, -4.261338884763157], [-0.3852840563330595, 1.0907628956161741, -1.6882132941304397, -1.2343832570372366, 0.5428286984095347, 1.9417935618743436, -0.1784054372252325, 0.6052280211736727, -0.8127651327693186, -1.0244176909960696, -1.2604905156255028, -1.6802545518793655, -1.8674996000721606, 0.14911263624430102, 0.39199779257917783, 0.303882465529741, -0.9991504653902363, -0.8313217931113663, -0.881953050052587, -0.48252762013816686, -0.4671703810787744, -0.7899011280636786, -0.892135233822019, -1.7918686328165603, -0.04832345835262423, -0.2628978913801642, -1.5277110686598259, 0.05142110089194132, -0.47548128431361414, -1.1530668044977557, -0.6161640849913915, -0.21776848788148934], [0.06030839097799109, 0.7597750456179354, 0.24203413844200097, 0.5110155014317321, -0.062382019625704666, 0.0727061396090133, 0.5829808280471306, 0.24778773663500378, -0.8584843275410111, -1.5156525688043818, -0.6970043113476638, -0.4207437273958019, -1.3163419871331854, 0.38988106296103575, -1.045326599963056, -0.6980499037667368, -2.2182445493253464, 0.6587178941315516, -1.4918480748639542, -0.03923350800777828, -1.326808076160103, -1.9268431443675234, 0.29576129923758776, -1.1212270270390317, -0.139531984553179, -0.10430996512857571, -1.0195793645102076, -0.2556341567370627, 0.15695243461623665, -1.2146629420999884, -1.6007172815707007, 0.17732259756393626], [-1.0529569133651784, 2.1019672741413507, -0.9479699879005341, -0.7394397895132118, -0.34644238947658945, 1.662304827393752, -2.113429456132492, -0.5416313612892368, -4.213144475857256, -0.5760352260887688, 1.010543885964555, -2.6748834956892598, 0.32539195640050333, -1.0943943965793563, 0.05669431698087802, -0.25486155324686066, -0.8861511388133555, -1.9693621952268139, 0.5376879270367296, 2.0176678227596785, -0.9673435548116203, 0.30723327899160974, -1.6074167845441694, -1.5272300732567854, -2.8831611291550803, 1.1060832785969248, -0.520907092203256, -0.835675592330535, -3.7963549985781526, -0.19660579467378153, 2.8839926118879737, -1.9508905198219122], [0.8426659004171936, -1.7152637425824542, -1.8111830441758836, 0.18924624415291522, -0.6549343479595092, 0.4750091092310838, -0.043903347844310776, 0.38481627775768973, -1.4157901967796749, -1.6378532926638911, 1.2104998931188191, 1.7209283968538287, 0.35935778930603596, -2.6886701531296504, 0.7591730482294002, -0.3782796221632845, -1.799827135379725, -1.7908423943738958, -0.4008802003028456, 2.5148233431516704, -3.1174946038769575, -0.434180172984201, 1.3616688831049795, 0.34785250418511554, -0.4917729247298792, -0.26186896428925416, 0.6707185937274949, -3.060504130154851, -3.0689283935627505, -0.6638912886209549, -1.1782669099388434, 1.3453993376337523], [-0.5579969542365606, 2.9942448818812206, -2.4098297180217307, -2.2841883280518287, -0.7539635819298943, 3.020613463208131, 0.6170182319564974, -1.8878876949986323, -2.5157641384710456, -0.9823521326146846, -2.834831501748325, 0.674530482196257, -0.737212366256537, 0.30737781254292845, -2.449009652263745, -1.5190534577813102, -1.5958480531180117, 0.4809125504211338, 1.356242823682183, -3.536604092245686, -2.424168645605223, -2.1732256108046646, 1.4411939151307465, -0.17370937377947074, -1.5769476634785304, -2.054473048412405, -0.7514254419576157, -0.21016664687892692, -0.3128847126587649, -1.2717815119144826, -2.281743362664253, 0.7275706891647437], [-0.8270558687776925, -0.3674671250031765, 1.2018861678367727, -1.2662381425449714, -0.7389688697135149, -0.6997794107222004, -0.8957651372351395, 1.3090284935613354, 0.07529257974233863, -1.3299154958042092, -1.0509972675327885, 0.07318483571413219, -0.05997133751840725, -1.0946853363088747, -0.8678450846459768, -0.731843990384629, -1.4167642786843755, 1.4739492590425747, -1.0337708303052284, 0.2245230510861023, -0.20819474089253578, 0.4877495152476524, -0.8753971045780261, 0.4128465802209849, -1.6743424503869253, 0.7611413301813308, -0.8887118874332044, -0.23071323982455047, -0.7858553837146711, 1.5822185958500605, 0.33396217124723676, -0.9316225961431572], [-1.3988763315055166, -0.9262016673166245, 0.30033807173431676, -1.7333122492243125, 1.7253996106928569, -3.3961700332948896, 3.0821604323991774, -1.711414480458728, -1.2447993597242972, -0.6721038230375721, 0.8052570165713412, -2.355066098638624, -3.5912765532179045, -0.1152702023248977, -0.7751181132531777, 0.5074653099588733, -2.8499749401695746, -2.255047651799432, -4.159121125443763, 4.097237438642762, 0.7908286191946359, -0.9280125622762229, -1.0408912336663274, -1.8304996108772142, -2.8327774577227007, -2.2583535765942355, 2.8280864393187337, -0.15123765774362286, 1.969434295392498, 0.42803359034024385, -2.8229603741809535, -1.5111909578895955], [-1.4412038484491956, -1.0478114894870911, -0.5756817754713737, 1.1711384683995683, -0.9744080379404187, -1.7832347571277476, -0.6130442066340613, 1.0945244526057338, 0.5671552298871092, 0.5844604588159341, -2.198373606855678, -0.7079107100824976, -1.5444621741780769, 0.1080809478341433, -0.348612854826193, -0.3935348378383379, -0.4127096570540087, -0.7066525145752183, 0.2823574462031479, 0.8250586184874897, -0.8053815431038369, 0.48747094105763444, 0.5890488870818695, 0.6020586432414063, -0.7122560956019204, -0.7395517895504776, -0.674023863213228, -0.09717654322849072, -2.195634049775862, -0.0261827134551943, -0.6139906496601532, 0.9101843133675985], [0.6811354541086353, -0.9438072493716383, -1.725844222182411, -1.1047085142225954, 2.506730981460655, -0.7456835013866527, -2.5148762186897944, -2.033743658632928, 1.2285860884770368, -1.566282838151906, 1.5573891889614175, -0.5855990827607247, 0.8861201355598844, -2.9383029048988716, -2.400249483050218, -1.2644672037528653, -1.2390971947014642, 0.675051109948141, -4.354020181427101, 3.0111771292822693, -1.6309751190855426, 0.6506574898082316, -0.22700251915882458, -2.5526063230878675, -2.226559219319783, -0.21937312894570127, -2.3999737584710945, 2.8520337718440416, -5.089815908382862, 3.3688718447646333, -1.6448769930127947, 1.4454896633766274], [0.6067436223478753, -0.6739158579128928, -0.6256896573700609, -0.34635370630654033, 0.45285850051532467, -0.7839922045268893, -0.6140540366154139, -1.2501583805793384, 2.2223653777656804, -0.3387781742262271, -1.3982450369286248, -0.8530787781585626, -2.008614915572304, 0.8720529898608261, 0.41479291236766325, -0.31587301012531754, -1.0504190137337734, 1.4511084820378144, -1.4922982242872416, -1.2541568489758195, -1.0995036728223495, -1.8623921929602125, -1.758087809470592, 1.699765416380927, -1.2548886859281536, -1.7538971186098782, -0.16563440126795384, 0.20846563655558747, 0.6318120305878234, 0.48887006870444705, 0.27421736254233525, -1.6322138779362483], [-1.3347647268987413, 2.893616964846886, -0.9326770103213537, 0.7412024477823906, -3.847494529553643, 0.5317513642576184, -0.06802843990539975, 0.9912054693183343, -2.011553723128653, 3.820646744365198, -0.2569587461468072, -2.06717864896438, 2.2056793723817383, -1.4529959960062102, -0.5855653294644321, -1.818446497279408, -2.066319964889592, -0.557901795525901, 1.9275971299626102, 0.16156198192915608, 0.9135602346448023, 1.1275040938904306, -0.6691195692848392, -1.1425138722830062, -3.013871666580643, 1.2007692732523971, -0.9809534785574975, 0.6046925783327837, -0.0877551959969412, -1.3561099200234914, -2.0180871400840745, 2.8162885685208763], [-0.9699010026742193, 1.621905740342691, 1.0829606136163623, -1.2654861506260875, -2.55549015506544, 1.913842689505846, 2.4203609663757324, -0.6000715392975379, 0.44221096098354434, -1.2562986681614547, -2.1608296268068914, 0.7212100699645746, -1.964206010605677, -3.050292939748661, 1.3538239689140308, 0.39180282923976334, -3.4202940179267873, 1.9474257878688686, 1.3542276610170871, -3.492693798246421, 0.517968079690279, -0.30110277450552303, 1.7852894586089716, -2.8131600532045677, -2.161818996575735, -1.1014449619321005, -1.7749790886673869, 0.21140963869710297, 1.532220656975645, -2.7620052941054665, 1.247134211402774, -2.5185912070342193], [0.6942471275197513, -0.206814637416181, 1.1471970430882357, 0.44921472196509193, -3.421884692805386, 1.1184083982128805, -0.6923766403371935, -0.9924737653026485, -0.8747519090449023, -0.30535797751057675, 0.1618041730536741, -1.7908219990036678, -2.112533922603759, -1.7707576939340604, 0.7443409049764673, 0.36500374158521565, -0.2073264320054058, -0.5302173065667894, -2.3589599995130968, -2.0886503812749426, 0.5818521900229648, -1.5533773593611162, -0.25019921679201435, -2.3408555653754384, 1.154056595163259, -0.8621972825176413, -0.8791424247017885, -0.8648233596290753, 0.06742290905580652, 0.7433797834041067, 2.1480946707505675, -2.053157946957613], [-0.029991487860381895, -1.9441809195771178, -0.4151459040979633, 0.9813388099592301, -1.1200350212196342, 2.5353917497686225, -0.6096057458303452, 0.10218014829578513, -1.3494821317589198, -0.8905840527362711, -3.6910027266094887, 0.5290585237672932, -1.3225668812001248, -0.6583273823584189, 4.0174706112473695, -0.7453832513897923, -1.3241925315049967, 1.8553574388992586, -2.2503608810819213, 0.4194956002093032, -1.2211640645950426, -1.876042768959399, 4.3772254289191626, 0.09911664746481738, -0.5602679682898956, 1.2405236448296915, -2.7023280977105757, 1.96097079743912, -2.1494197127987045, 2.805416885637476, -0.33263489819048947, -1.6596540550537708], [-0.6918358130792996, -1.5316660372774167, 0.15128860120085927, -0.976288161244267, -0.21301960956097743, -0.9509087199065089, -0.3916746129968799, -1.0820538774815915, -0.9021313352632537, -0.7234134790794078, 0.49995933638410023, 0.9304461595692023, -0.3081422179258195, 0.39732250997373264, -0.6327366419228618, -0.3135061590110344, 0.5696897650879881, -0.7706039775713132, -1.0592380431039814, 0.35499393266355894, -0.5650741737525146, -1.007338875102115, -1.138240180644108, -1.5348146254694879, -0.8412489911784334, 0.2334733510987749, 1.347717440302088, -0.42574436891514195, 0.014689715831770771, 0.4831920697458662, 0.21441757501331749, -0.5344897990031736], [-0.17717028123079953, -1.6299876243659748, 0.47039903341889555, -1.3747877172068965, 0.2966000093647105, -0.28078650333168276, -1.7233456993007088, -1.7643667845059374, 1.3619721516431622, 0.7634609437091043, -0.3028476349104881, -1.3308162958170833, -1.0130316282397203, -0.22585414322857658, -0.4257502871698368, -1.8995228388670795, 0.08086696725886117, 0.593739040465094, -0.2473711859463587, -0.8506036522493479, -0.9153855652793496, 1.8976917872243229, -0.5407500102209244, -1.3243046677454093, 0.9963713991928556, -0.30640161247233805, -0.42164273359604776, -1.3251437601318476, -2.2748706592264867, 0.7795725415144088, -1.556064647446038, -0.3034729032143813], [-4.470143601891881, 1.262702634795173, -2.171400203055348, -2.041904219525244, 0.5220768789211749, -0.41524497888749573, 0.8408489899390503, -3.0245066864783507, 1.2181303284721863, -0.6214244022081621, -3.0351287849997917, 1.1917378212006255, -1.7480739600455841, 3.2858899540834843, 1.2795734178857185, -2.2476554119957353, 0.9801620135002893, 1.6741182565404957, -3.7778166269889395, -1.2829399293992014, -0.9068815514591129, -0.49599817226018006, -0.21154849835586273, -3.244916909734471, 3.093075464378381, -2.002125702880892, 0.17957315630314738, -3.0801449090925432, -1.4557820800652153, 2.5548199101644005, 0.5565688552527372, -3.6307900964770012], [-2.3853301608232393, 2.0805651904855957, -1.1565582553197866, 0.34786152675757376, 0.1181191168653761, 1.4034526575209558, -1.8335306233965658, -0.6913326319642419, 1.5543944329087862, 0.0950834378959201, -2.5160340928798126, -0.7314254455050012, -0.3301668704312689, -2.588312238424726, -2.3602407929740856, 2.472173429521864, -0.5987561398256311, 1.1506166044056663, -1.194073633252467, -2.47982493283142, -2.0420610533514347, -0.7014358724882932, 1.133154000058023, -0.9343604016815218, 0.14294346565608554, 1.862373586314844, 1.2992685133902124, -1.191614433003483, -0.41089930253282775, -0.17972108528409456, 0.006796970287259948, -3.839918774991155], [-1.158333260324338, -2.0042247778812174, 1.4021830078446893, -2.3156171511341404, -0.3940106790827324, 2.3322545957826724, -0.9277670811195177, -2.1659070559983626, -0.3406695375635286, -3.695501093666736, -1.5464398772697852, 0.20980783921145915, 1.6842207803855247, -1.2019646842804497, -0.8072416067714225, 0.12616121463591934, -1.8258295481729114, -1.1728202929061275, 1.1096749214129018, -0.3348198981836441, -0.7518366794938272, -1.8280803438509503, 0.46411371751985697, -1.5251469961092152, -0.7992094844027445, 0.053526324459591886, -1.114929538428272, -0.5281945136559683, -1.558217863697459, 1.584209145037058, -0.8408533693349763, 0.42630685177959754], [-1.6359795896295724, -0.4529797213795445, -1.7064613974814198, -0.25249605832039446, -1.404641181030141, 1.3666723796092182, 0.6942174709605015, -0.15441212674416296, -2.998579297431232, -0.43892070405713, 0.543348950913116, -0.6952091709827817, 1.08082461573501, 1.8977827395976987, -0.427005104352861, -1.8131467640275996, -1.1401446023081065, 1.1165581126040192, 0.6300906158487879, -1.5621540830657645, 1.6957178639152082, -0.2909752636971763, 0.8734401856524443, -2.3421372548576875, -1.831439878863677, -2.820366447283478, 1.8591366408514272, 2.124168294809505, -3.702774982390244, -0.7153250549201982, 2.2701362837948857, -0.17625675219439574], [-0.21620271611419653, -0.25112368673427954, 1.3068429491191171, -0.17443624292415733, -0.9656794630559512, -1.7029472436482904, -0.26600530550949886, -0.35690694697544506, -3.0806524533137893, -0.7434413829688197, 1.337058602160541, -0.8806955284462962, -0.1522982412624112, -1.8232709373164095, 0.36565245112066513, -0.40216147517345924, -1.6686079312364828, -0.16573873903503844, -2.4132708183675766, 1.2423490632661653, -0.32034110441815805, 0.07349825846239812, -0.8996919359261802, 1.0689581378848245, -1.693920229348166, 2.2086037181343774, 1.1459160945206357, -1.4003407879700387, -0.7471316893736247, 0.8985529794521775, -1.5836960823802861, 1.4393086804265705], [-2.6420349186239744, -0.6027700123155325, -0.9538388952328595, 1.7248532427326344, -0.7486879383380477, 0.2733500267726788, 1.3761734149818132, -1.7532438870473819, -1.7904752693988581, -0.21062598868188886, 0.31282210612933553, 0.7952447847474068, -2.1879465844451085, -1.5166645083624368, 1.4515573215975528, -0.06128313343180555, -2.209600487614594, -1.218145311118546, -0.04893068853462746, -1.0175755390308874, -1.337003202673639, -1.3528597504541222, 1.021410662850231, -1.3008671433928247, 0.5592239197622022, -1.9558816449213443, -0.3235114809659409, -2.1048672984064973, 0.36293435197491714, 0.7440066904249966, 0.524678718919957, -0.26975403537874026], [-2.294828887641794, 0.21474680722876058, 0.6484294559907552, -1.9666621387514451, -0.03414262265129191, -0.4264947869562527, -0.26435129908693267, -1.8587838650762967, 1.7762955678294938, 0.36274441080673203, -0.21170192419257947, -0.6257876273079384, 0.3102777431793327, -0.1748535864691493, 0.7371046060829263, -0.3869017276548382, -0.8761102829355764, 1.2688360814730697, -2.1530785475467162, -0.3454031524377669, 0.5543101474440517, -1.4501616580976346, 1.3137755608497026, -1.2273692214872314, 1.2781237833255743, -1.8351819906792675, -3.354954820522851, -2.2736431108877637, -2.779375235563634, 1.102300553564299, 0.646798882355365, -1.3445007908946343], [0.26941720992656837, -1.2583013512819505, 2.4574092353027286, -2.406644213555461, -2.7070243677495145, -1.1220828140757384, -0.3859174665687207, 1.9991565800560027, -0.6091039897551459, 0.20494174852920063, -1.3539730855472254, -0.6687166256137725, 1.0848285783582885, 0.8991469749836096, -0.516728609032904, -2.833034413163035, -1.3051812217496355, -1.7697370597767859, -0.15961790893643707, 1.57289807743316, -1.9302558907010223, -2.0688698279455973, -0.9663414676774523, 0.39107047876381656, -1.1984725811512815, 3.8614286587378936, -1.5033599232799713, 0.17577414211666229, -2.5510127972973042, 1.4526951165807576, -1.989860393909974, -0.9402462132904164], [-1.0443663705440271, -4.21785172734511, -0.404576458954723, -1.4079323272089794, -1.865244859225908, -1.3474388831289597, 2.009886002678262, 1.0547561954579994, -0.22823778661575175, 0.5723629900445291, -0.6150768571401797, -1.165088402232433, -3.6614006517573525, 0.47083818338061223, -2.6143442838973843, 3.555335124088566, -2.9165828009693198, 0.6640600912141645, 2.4652531325760494, -3.34419103968671, -2.5415551246981716, -1.931525521308081, 0.8489991081829702, -1.839240786162517, 3.5173815395737376, -3.080468093114065, 0.22640607670481186, -0.24699086914733828, 4.279839773989452, 0.22171661268897816, -1.4155085896695088, -2.9590343001968815], [0.364094308021264, -2.059725611457942, 1.4900754991564336, -1.1327994357022007, -1.1957670919202257, 0.18684571598509714, -0.7370408475015015, 0.4746213214944146, -0.7840296096733483, -1.7351396532256496, 0.022690498571025168, 0.24028276711394997, 0.002676853535616162, 0.5830813010437093, -0.6740124847280419, -1.7225550863244574, -1.2759058866310897, -1.1251757655215422, -0.04343393017153618, 0.36521015673087825, -0.9714398924792863, 0.38183773253899966, 0.5068229058238949, -1.8181373888338033, -1.939826468135952, 0.6068874959347232, -0.16647018542040162, 0.30018430086512116, 0.2977655156376988, -1.4862910488988488, -1.6996315418851775, -1.1564702758796699], [-0.4979212295835522, 0.9633927759259697, -0.4286779644524551, 4.667687189832873, 0.8932094052191542, -0.2818129501493806, -0.683583460984618, -1.1166554168330105, -2.7456054584804153, -1.5580640896555493, 2.1556088244887914, -1.9857806265876858, -3.2517819724907984, -0.31429933188297526, 0.5571475235374188, 0.5421711746223739, -1.0914120691064766, 0.356494588127315, 1.821170626299469, -1.7146242935706641, -2.4019358072984547, 2.234622859948835, -0.38062424652969584, -3.424515534378392, -0.3321876139716596, -0.5082290692138639, 0.11181933939839064, -2.1349055258237946, 1.8581882490648898, -1.6487255263088634, 0.13065663605466898, -0.2634593468860067], [1.7746752004903708, -1.8003566845743981, -1.699157961037642, -0.34449208534974024, -0.08612823703086077, -4.274192558087911, 2.091615067733323, -2.9683167396443633, -0.6071644915031335, 0.5467694432912508, -0.6474695647982578, -2.4368511855576678, -0.8687173502960478, -3.0676896411452192, -0.5272296342994119, 0.34213725884502916, -1.7691799332496918, -1.5003678437031485, 0.32737044783974334, 1.140352211688878, -0.4365426052630333, 2.329129721884403, -0.5642708960498508, -2.5942454438641502, -2.196824654711152, -1.5792723417588381, -0.41057528765521534, 0.44377867083691847, -2.6880562337828993, -2.2473628493512403, -0.06446709200386926, 3.186921839249783], [0.5078077660794187, 1.1396898585613426, -1.7551348527976518, 0.4386956547847666, -1.3144284111615938, -2.2603814716193122, 0.6820843892649, 0.18650312317652273, -1.521970772823925, 1.1772641746775925, -1.8569445965383151, -0.38537448279915437, 0.32540160479956554, -0.5388338811550628, -0.2036037970754736, -2.7792605134985955, -1.8101723151262263, -1.7648232276071978, -2.2227374477631923, 2.5300388852243483, 1.2818597196125003, -0.4964592925321223, -0.22706293906248154, -2.1356112351077705, -2.4565904158952447, -0.9878276221839541, -1.0830948406588552, 0.07899673201587035, -0.18047605607465622, 0.28890891926289575, 0.08580858170299945, 0.28715799674130776], [-0.09250621186096457, 0.655755393445648, -1.8637600625684034, -1.6128150145396776, -4.742032332342199, 0.4090973744932859, 0.08797165270213297, 1.4149282175333087, -0.48762871898567484, -1.6292959792341837, -1.0751879481993976, 2.7581838776302905, -1.4722880458217467, 1.7726358786155239, -0.2014482880202682, -2.537411860754415, -0.911310055641773, -1.7353779949805352, 0.29997691987404523, -0.09675499242775833, -0.5771683279965201, 0.8012251176376546, -1.2701932042507407, 1.7047682726216355, -1.7762735746525462, -1.2138440406341433, -0.035921539697876204, 2.6551011554283197, -2.196641952295756, -3.200519611500637, 2.5481531781507214, -2.1330458264480656], [0.5384396805341991, -1.8564531920074951, 1.4044679695683726, 0.12491354767583927, -0.7552129628764387, -0.716861406954125, 0.49104366742206523, -1.3546804353317514, -0.746704818326716, -2.7328091467944056, 0.24536573596100925, 0.6377829925736561, -1.1109464670806721, -1.0555829851160432, 2.136283481412471, -1.495812504021665, -1.680052213977318, 0.14275825709580245, 3.0394096878733223, 0.3403131653753946, -1.129924800126107, 1.2127373837051025, -1.1073469365266817, 1.2383136766935834, -3.0867355866507964, 3.010837403509908, -0.7502663988809382, -2.0176245963711317, -1.962626814413811, 1.0141961241048023, -0.25917131144397787, 1.008000377097563], [0.15046247896858345, -2.8332694703239576, 0.43758762865351203, -0.44780629913599446, 0.8166216674064527, -0.42163652189342754, -1.1126466677384506, -2.0126104769235265, 1.1767784753681116, 0.29704449041665987, -2.70673501924904, 0.15243141627798037, -2.552487933862792, 0.4989922964105196, -0.2034949127318137, 1.477451137381709, 0.943012952145165, -0.33055674238491506, 0.4491072651033262, -1.4921671776578451, -1.1944258017914298, 0.29437586541461436, -2.1048313995536323, 0.9649613006297642, 0.3546733907121896, 0.2505937331253713, -1.3748372425673232, 1.2009589984317268, -1.4354175591384624, -0.5826127590780082, 1.2439486177420442, -1.982468101748722], [-2.9728406701545347, -0.5927778677567442, 1.4497938103588346, -1.5032290257238718, -1.1289571224738937, -0.8611722618189677, 0.5470986921685147, 1.958016322116432, -3.1485790166823815, 0.9438926821624667, 0.10512555282934202, -0.5161876622662859, -1.8462894576860223, -0.8665294052464251, 0.9050247637251284, -0.7017383576087862, 0.14497124594230623, 0.9157024004323554, 0.6964408710597233, -0.6054172426340538, 0.6663496188861634, -0.9541946996250555, -0.8893552630897127, -0.6219747864507148, 1.8438006133617362, -0.4761519257348502, -1.1896693620002003, -1.7015656976794464, -0.48313298756812545, 0.5865567367907825, -0.17975590697932015, 0.5407555978193694], [-0.22641824891606355, 2.245755800207711, -4.068815874123979, -1.1975015934321411, 0.10629222416403286, -2.8975467766302265, 2.1840570223165883, -1.0807658515495422, 0.3080551242870312, 4.4131879783241414, -1.9104978707808402, -2.4048566877026376, 0.569272848045792, -1.1390452209813327, -0.7695180776316835, -2.2411088077522066, -0.39159738472793293, -0.5411659740486127, -0.025207275320857103, 0.41677969317888586, -0.06088862482829038, 1.1092142776716585, -0.18709538486565538, -0.6711626606146308, -1.3172588452852938, 1.549502080752749, -2.9844248040395254, 3.012547666472074, -2.9369656245130433, -1.6568741175282895, -1.723822028422351, 1.0762185033200438], [-1.2513983600553613, 0.5135591232193883, 0.7971470239045758, -1.530094562249417, 1.040202524703798, -1.0092284808513947, -0.660544060783835, -2.6431458729646446, -1.08147501998765, -0.8414584336421487, 0.4156601991651169, 0.6442235377436732, 1.433658958720724, 0.18921514586433374, -1.4655299328870042, -2.810916001077923, 0.673122100183086, -1.9451592582554111, 0.8061217922871382, 2.09773117464793, -0.16185597998795306, 0.07630785497033218, -0.01170973731852362, -1.3545636544907678, -3.8454182693894827, 1.6745788260660013, -2.3583120394016226, -1.0589043665496907, -0.49861270429109444, 1.0680715039631736, -2.228809706580765, 0.16421660401944255], [-1.9622277753145998, 0.6503772819410457, 2.585958117789304, -2.788121347531307, -1.8956539564660042, -0.929204595762929, -2.7398119413687683, 0.7226939950234775, -0.8949175284024214, -0.6241053246941451, 0.5717579766812186, 0.8248892766258031, 1.021414080349536, -4.45531027495068, -1.479186609512158, 1.595282387377173, 3.2326241888805813, -2.0948324613221194, -2.5151142542156797, -2.9808487748652417, 0.03134662499349733, -2.1979411071127353, 1.7207056053410705, -2.5915610648177614, -3.2807842641460594, 2.2981515535629438, 0.9201626904336051, -3.523247738476497, -0.8220423844712225, 4.54227516771866, -1.0573758991121949, -0.7636976362822359], [1.7326214959362625, -1.9569247253434263, -2.321744830325015, -1.3122933967207804, -0.6708346013694586, -0.3022154588408391, -3.6924017595241834, -0.18171345674846545, -0.38864244185902, 0.6734474701015168, 0.7399288038817928, -0.2826727553358231, -1.4891669244137973, 1.1916348601014544, 0.25670421446544606, 0.4924831241576539, -1.507394457534139, 2.4512092054980235, -0.9386871898673484, 0.6152293492863271, -0.5250096033733658, -0.42592685072685155, -0.10320051606179796, -2.774971644345829, 0.19222252105976853, -0.14463432529497863, -0.23624432041882182, -2.7410475652496418, -0.03908009156560931, -1.7913142245046136, -0.9014091384446125, -2.58227870548644], [-0.7528892331585192, -0.6763746800566309, 1.5097800715020486, -1.1981644135127063, -0.7178824864841168, -1.5017217885184475, -1.6270878320748452, 1.092152511858657, -2.1151238722874712, -2.4340574631678424, -0.7213205646005717, -0.35037650127054876, -1.008816444521031, -0.07052275895384941, 1.2318158573113995, -0.9740087714292744, 0.29658906589895817, 0.6293157239955799, -1.2256909267897507, -2.2079502158493716, 0.6382030586841014, 0.11760237656054655, -1.3822844774496326, -1.7352911302630234, -0.2592180371487866, -0.05090512205463764, -1.3391026728401465, -2.4801493463036475, 