{"biases": [[[-2.386433958321952], [-4.188648462388955], [-0.921080097344734], [-3.348567408156861], [-1.6880629822377216], [-1.4392852848183681], [-2.527366572268434], [-2.3715562798235816], [-2.9744373739611025], [-1.0049844551947391], [-1.3828860973280979], [-3.7858248368347076], [-1.6353733965606456], [-2.046702521176918], [-2.3517017657018324], [-3.0417436848317747], [-3.6590715559578606], [-2.9683738529222827], [-1.124360454174979], [-2.5878898921199402], [-2.1390189654449405], [-3.254289402931167], [-3.095372265133185], [-3.08403508824099], [-2.6909098319007385], [0.010609215982907448], [-2.230153233798869], [-2.0430860407067817], [-2.1473820156036165], [-3.52797619167213], [-3.617121299600495], [-3.7326541686748866], [-1.8093999378202035], [-3.438410029513286], [-1.5519911865748195], [-2.1559068265965835], [0.35276299338034617], [-2.8654947067915635], [-2.9299394335031157], [-1.8269352506986767], [-4.447949342836378], [-3.2482719987000053], [-1.9258847198505935], [-1.2521058120847133], [-3.122149606611322], [-1.0751695809021973], [-3.409001606197265], [-2.6254831292884644], [-3.4162060788350397], [-0.7359383216876326], [-2.714573861920231], [-4.814549560635781], [-1.0520166610287558], [-4.361141959031032], [-1.8613967896847465], [-1.0799144899374935], [-2.114524416385754], [-1.3298354229642242], [-3.0171306445051895], [-2.495210896043532], [-1.5776810162595245], [-2.890941956550147], [-1.5346880202921047], [-1.6448688644326577], [-1.30379605367916], [-2.8136433912630596], [-2.023460110641711], [-3.490028606991414], [-2.84758245463219], [-1.1824708744623358], [-3.4755797842771847], [-2.452685039419638], [-2.0961109864870875], [-3.418573306369017], [-2.397785515272243], [-2.332683010740724], [-3.5119366355714976], [-2.694921529666853], [-3.947092887410132], [-2.7446564062881205], [-2.8439499846970597], [-3.173142835692899], [-2.8742840226689337], [-2.7401666548717927], [-1.1264447987169948], [-1.7066026757128816], [-3.052084391340822], [-4.130949937726785], [-1.4075760698872424], [-2.752592859324241], [-3.5725253048905845], [-1.0536379951885255], [-3.2615619515274097], [-3.33438645863056], [-2.0905943755070178], [-2.586190080138258], [-1.3487493175023832], [-4.17710780222628], [-1.4866770614866027], [-1.5297710628922976], [-2.580430781381537], [-1.786226307659088], [-1.5524239250156895], [-2.9875019259496054], [-1.962692701718066], [-1.2748356384805317], [-1.7088233894566247], [-4.016354602564061], [-3.2895741701206096], [-0.8973828553456473], [-1.9745542563903111], [-1.9928379744224753], [-0.5410330621818382], [-3.9680454614439826], [-2.843714257702487], [-3.017649952381765], [-1.9628695126412108], [-1.2797403099406421], [-2.8668997074228373], [-0.9842178148747747], [-2.730497383198765], [-4.4876439453671555], [-2.1900344002066285], [-1.886984068662782], [-2.843938974538472], [-1.3352999988188607], [-2.7383814560302344], [-3.0774637673958676], [-2.0400925893839106], [-1.57370902767151], [-1.0201550908439088], [-1.3807627157521272], [-2.006670148641024], [-1.9434112180197027], [-2.44152236324589], [-1.6273074300525903], [-1.4879824914220798], [-1.4465948794123675], [-1.7240384615849547], [-1.843704694835668], [-1.1232881458523238], [-2.113322913277597], [-3.2516318276309124], [-3.3093730910852135], [-2.581731527768094], [-2.6133703620238573], [-2.3519638353888346], [-2.1378145417948202], [-1.2076892102930614], [-3.0478335598867012], [-2.741082288566686], [-2.3799087426287167], [-2.542356071320328], [-2.0573604894940667], [-1.9655593029563705], [-1.557530289352168], [0.12298157426883251], [-1.186867597104672], [-2.3377018436108323], [-2.257913612889033], [-2.331130033779048], [-1.1310983218711697], [-1.854133852463652], [-3.6666984482938134], [-2.1605607880099296], [-2.533330990357852], [-2.452839117351132], [-1.615913973802238], [-2.421680863378837], [-1.7206602791466488], [-1.7866508122655687], [-2.4606390193927146], [-3.024766737718941], [-2.8728420660555836], [-2.2250963394475822], [-2.0033071199887726], [-2.4353220139627623], [-3.718260213593881], [-1.6503179020137226], [0.11503685768373265], [-2.3153441735098053], [-3.136501492082927], [-3.7006796571003653], [-3.689149166138316], [-3.1398149343977635], [-1.0286908846036393], [-3.6721600034374373], [-1.622901943705738], [-3.8521415934943057], [-3.3663971420003342], [-2.8396713355177137], [-1.684667060012475], [-3.355560835232063], [-3.2718841729537713], [-2.086102976076711], [-1.6031822135541876], [-2.770979075192619], [-2.2625889151919774], [-0.8822888716306853], [-2.941422025154562], [-4.2578645673280615], [-1.4447247920866504], [-2.59762697815352], [-1.870215101825645], [-3.0724773531922143], [-2.0362902290208518], [-3.027611042107442], [-2.3436452441908613], [-1.7922088908586207], [-2.6307440171199743], [-2.3666814909166685], [-1.8831774790306761], [-2.011886944909457], [-2.8435617957916484], [-2.373000993159785], [-1.517725466725512], [-2.6701297854598876], [-2.4366193990042047], [-4.803878653566014], [-0.8482858633797099], [-3.190750119607026], [-1.1430640763648559], [-3.458608220503198], [-2.2364176282437844], [-2.298339094783639], [-2.734883290989005], [-1.9251990873148768], [-1.267135843321052], [-2.7822927510500683], [-1.8604244473631257], [-2.961632613088992], [-1.2864495998706613], [-3.714224703803684], [-2.7168622794245563], [-2.4390344618589217], [-2.3742105749337057], [-1.5894635907508947], [-1.6044490618212088], [-2.4041548832292365], [-0.9818211800203461], [-3.70242319486057], [-0.7222857670433249], [-2.6029277053503423], [-1.802068115301063], [-2.7355390383217952], [-2.3328453256339037], [-2.0869140037735456], [-2.1020749559853447], [-1.6727353404339111], [-1.7273578269124275], [-0.8405345424553794], [-1.6825551537443557], [-3.511719524596417], [-3.542673864103508], [-0.8947883504833501], [-1.1406457325897907], [-3.3652349936057107], [-2.9183435027506093], [-2.7267198672219983], [-3.259034339445279], [-3.2849748114138158], [-3.7924830701167247], [-3.0896006255440267], [-2.6237484626050627], [-1.4313415464297283], [-2.5985292481626137], [-2.8268721544655397], [-4.097240176864611], [-2.627990075623925], [-1.2171606926350698], [-3.0661495368454172], [-1.8972068667407713], [-2.902590240079732], [-0.7302764544539218], [-4.094781434117115], [-2.394487412517688], [-2.276062854708451], [-1.9182075650296762], [-4.672822039004041], [-1.676783282408097], [-3.043312980157196], [-3.9871532689656086], [-0.46195485296092764], [-2.0644998331241027], [-3.779162672618467], [-2.79938014600407], [-1.2627972420775047], [-2.5903365475320395], [-0.3218556013944929], [-3.0359549784687228], [-4.754275752677163], [-1.1537390163194605], [-2.79435585927456], [-1.1746361946772794], [-3.9894634362051855], [-4.138376299959904], [-2.4814104655793328], [-2.0796332833284668], [-2.5610916601532843], [-2.4456362830925826], [-1.5727545049070797], [-1.0109591125291821], [-2.760009227945052], [-1.0692489256609325], [-1.182964369131635], [-2.10113450010687], [-1.5503994885186463], [-2.2164402075372376], [-4.243747246443355], [-2.277216211921031], [-2.3476374312504364], [-0.7635400859312144], [-2.348562840040388], [-2.5547134446275104], [-1.7183094615632157], [-0.8932191156862043], [-1.9238665438743476], [-2.8082163413927064], [-2.519052051088889], [-3.3801005776969095], [-1.0220866728231492], [-2.330580835707667], [-0.8602521758218236], [-2.5342877200705063], [-1.448880457543333], [-3.595579677561731], [-0.7160522045793614], [-1.912787113557336], [0.13186273024422276], [-4.010475161582516], [-2.299749638359909], [-3.8174949037199384], [-2.247532180762677], [-3.1845920862589465], [-3.2269706522030708], [-2.9841840025422086], [-3.0415058203261176], [-1.8211196982831992], [-2.222659626277626], [-1.6193813480352277], [-2.915786284668857], [-1.9363670262476471], [-1.4403971173252201], [-3.023773999850933], [-1.97227408290011], [-3.797881847733051], [-2.0181147444215135], [-2.7320807967750738], [-1.05083950639716], [-1.6398498662341612], [-2.450646925315698], [-2.0399754774903998], [-3.4652035595611856], [-3.455504345979889], [-1.4157136868442874], [-2.766713232867773], [-3.786879336600749], [-3.2192257688473562], [-2.8796005338431425], [-3.3106608302863756], [-3.718839596461138], [-1.4855200441986212], [-3.6309471070981703], [-2.200464390857986], [-1.9592721511905822], [-0.20043963313343874], [-2.3934348074273086], [-1.6468515035202342], [-0.951213920462574], [-3.4314683002513044], [-3.0197050248087995], [-3.5501712364301774], [-4.234450781681133], [-2.5571617661153656], [-2.904950399753876], [-1.5930919865598878], [-3.0451833283348195], [-1.328580944244423], [-3.3730893945046834], [-1.5260059435566804], [-0.943069630053757], [-3.634283725600738], [-2.928393135038986], [-2.798583162998979], [-2.309970454131226], [-2.6992757176787094], [-1.9928837503603456], [-1.481149889798482], [-1.1160592468935202], [-1.3486566778956066], [-1.2199582378531961], [-2.850866416525871], [-2.278509890178155], [-1.1878887322278238], [-1.4058912098855048], [-2.2620491307767225], [-1.9296229623509287], [-2.5275301147900673], [-2.140885163384225], [-4.244163992228859], [-3.277943033337965], [-3.4301948338444435], [-3.0834333159194016], [-2.0694742769618752], [-0.7383511913632999], [-2.8016028402199], [-3.4445984405792207], [-3.0433758734577587], [-1.6031134961628173], [-2.801566657930045], [-3.38730962865146], [-5.114564004946575], [-3.136497128670734], [-2.317776970055728], [-2.249790329197041], [-1.6804748470761846], [-1.0798193344044826], [-1.095671253544404], [-1.6865749155536665], [-0.6689474791508287], [-2.556265519710547], [-1.736932244709899], [-1.8662711815399462], [-4.175526131279688], [-2.6595621195129358], [-2.6968138173429543], [-2.6647425174209958], [-0.8233557651497483], [-3.5682947858279364], [-2.607903637200155], [-1.4411719094344184], [-2.5806695084522717], [-3.227589538437306], [-1.4040132369872225], [-1.1386482343475117], [-2.778281766875177], [-2.261577212841702], [-1.7770402064010289], [-2.3377251737235722], [-5.126824381622715], [-2.3718843139127634], [-2.2313649182778175], [-2.814483057245082], [-2.5216931691743034], [-1.0850403486325686], [-2.2792164364058785], [-2.2685692161161235], [-3.7183857568790533], [-3.887576908526377], [-2.4629288259747106], [-2.7135753170870887], [-2.412527724657151], [-1.391454525616402], [-4.037623561043469], [-2.177804288959417], [-4.04800835998338], [-2.3154963291349833], [-2.8770839770147902], [-3.8642966042357383], [-2.255887917781717], [-2.4617866875427468], [-3.435435499690882], [-3.442990964865352], [-2.1645526451446013], [-1.4769075069734545], [-4.084747024826921], [-3.91926412456255], [-1.2172449498792608], [0.8184936065001849], [-2.0359099099123177], [-2.211275633342706], [-2.0867391275231344], [-1.4859774944637016], [-3.382433163625938], [-2.6434229440482753], [-1.664562199024157], [-2.571293531114322], [-4.327090304641623], [-2.8686414368235273], [-4.752944259196124], [-1.0953412998215915], [-1.0224923282272838], [-3.5422803756255234], [-1.8993429773367336], [-3.4609145164512403], [-3.422921778281378], [-0.833661709347297], [-0.9203446786236574], [-1.8340338200493211], [-1.655992072376485], [-2.9808213466862026], [-3.227198506211679], [-0.21359812232242736], [-1.5027250959295764], [-3.470721018674314], [-1.5624630473153147], [-3.6928114899959303], [-0.672319706676842], [-1.6825504204921062], [-2.5748934424807506]], [[-2.692504573105541], [-1.7367786221207393], [-1.9415000398047686], [0.23206453642598884]]], "weights": [[[-0.370256526077121, 1.8342062637404974, -0.07134622286725757, -0.9194599514013574, -1.5860053607136966, 0.045444931188350565, -3.3807079527530273, -0.36602676898781156, -0.44212016610920324, -2.2651208709341972, 2.407522095551384, -3.14040336903362, 0.988915185927112, 0.7549329692015292, 2.5332756673086134, -1.7932901396958756, -1.1230740172051075, -0.9245457810904212, 1.9333656316185268, 0.7311803060666235, -0.7819792780259581, 0.9157061348273519, -1.9501924470420835, -1.9185310318520332, 0.42981107990733725, -0.6151229353009947, -3.2190164080983763, -0.9534417698379071, -4.178047449428873, 0.20079681294818433, 1.4301829325397928, -1.68478070664198], [1.975798727659943, -1.3673272537725427, 2.27298475421074, -2.0334440922481805, -1.8587369817798232, 0.10112046768561139, 2.64241877111421, -2.6379960493776142, -3.1372641548585776, 1.4922411210920359, -0.8170618582891038, -3.1447548376136236, 1.37326897603862, -4.021747559917614, 0.5651558921783006, 0.8650469476060295, 1.1558148928740342, -1.7297801282533094, -0.5676523086997073, 1.1952990966621886, -0.12421976188938574, -3.423361074662131, 2.2479699064543945, -3.5027490792717324, -0.5483673061782912, 0.009721619630290338, -1.4460437664310828, 1.267469675708404, -2.0713776088556815, -1.3227370201519406, -1.263008321507954, 1.5330999995118277], [1.5062643450838145, 0.06627768535071296, -0.027179029738014202, 1.1344717188846805, -3.6674709158874976, 2.2776914117098372, -2.9059194989340376, 3.27931563408601, 1.1382414257996791, -4.2018972115385544, 0.5201901888811966, -1.5562161964130636, -2.7675003058744743, 1.3171166129865508, -3.0833871342671655, 2.438351197219282, -1.1990906850312215, -1.6082907601253262, 1.187584282993502, -1.1200419989300021, -2.103300897793692, -0.6697153779514771, 2.820705629154318, -3.1743523258436115, -4.785980509190072, -1.214237616048516, 2.5393526497026966, 0.26017053655987893, 0.8757382127351596, 3.7985930449219047, -2.3021868286345346, -2.2691672599717605], [0.14690503369405805, 2.512710997355971, 1.591327876062365, -0.5286193188532466, -0.45561214435732456, -0.20165210406314682, -2.9345313702659133, -0.17855593070395145, -0.5634974701260543, -0.512216356306635, 1.2060924739915995, -0.1053904577102237, -0.06173470860409386, 0.11817155386924055, -1.0894665381493909, -2.9098503016503665, -0.3605413456379238, 0.45756119436228226, -2.469928024451842, -1.188636671963295, -0.8299853678839172, -0.515947293977756, 2.2024587744730852, -1.650687439079426, -1.774433523519996, 0.4988407315488375, 1.913859248847538, 0.3423984590774332, -0.31406972411705536, -3.626994482011717, -0.9839097671304188, -3.426818068985655], [0.5430104108235985, 0.17284124313196236, -2.4927042969117412, -2.144606866291417, -2.753705316852714, -1.7979339592821908, 1.9535488922790618, -1.1467141396441478, -2.5342261224620213, 0.818947145047468, 0.24329281678186612, 0.2799701144822987, -1.5788369508858489, -1.4698680586444417, 1.1276414294703132, -1.4974355532449213, 1.0501475916818972, -0.9890853652260325, -1.8510486164465774, -0.7879787791746012, -1.957576996786804, -0.6110095056981131, 1.205621692788754, 1.4725715866234215, -2.8671710586716768, -1.011959327864701, -0.3595980253533674, 0.5486474380780708, -1.4156048305244981, -0.6355389044480888, 0.5766713506509751, -3.3492762501068505], [-2.8331817645100377, 1.0947890500234527, -0.6832382502088566, -0.7924884581119909, 0.20033485470354392, 0.641229992613899, -4.720719326554971, 3.3953912407446976, 0.26779159816393955, -4.312086358635966, 1.2069241681467768, -1.384535070075208, 3.3446619237163624, -3.967127983545494, -0.9198512321727756, -2.609799647463676, -2.2510246079184544, 1.883534295359412, -3.889379184391892, 3.838565744849311, 4.447856383497992, -0.749973728611255, -1.9715237856380414, -2.665831823375597, -2.657038987762875, -1.6373156472575507, 2.189264338557879, -3.4928904527396942, -2.5474050693717962, -2.03546809832033, -0.8305327270399135, 0.3507191441383112], [-1.6290711017660626, -2.6199608658255387, 3.3518924477564767, 1.0465320480231144, -0.47503823258221667, -0.8395179780007432, -0.8477671582458636, 1.598439759976853, -3.42120770991321, -0.8764726727088635, -0.35167643652975983, 1.375122343585081, 0.027507303351138955, -3.367588132651371, 0.9476888853598081, -2.2122440270930355, -0.6845729145368089, 0.01854372823005535, -3.4232970689592923, 0.0005784990001030402, -1.5547023401087483, -1.2549106039569362, 1.142755514946719, 0.5147955790801263, -3.3186112185450147, 2.7494441174691673, 0.3834703024429232, -1.6950990196519533, -2.6718238237876863, 1.6733233886556356, -2.712260390490086, 3.8031848129574586], [2.2060478178803704, -2.456975341479295, -1.0412121620910302, -1.95094361055565, -0.8550358966814643, -2.8662848449573763, 2.1598293090658074, -0.6046602692603775, -1.849708402334144, 3.19482492702513, -0.01071153528014125, -4.22940430309199, -2.166355366940363, -0.24261268141487083, -0.87819983853901, -1.2527496188767269, -1.0002030028977187, 1.2288803440074054, -3.9893118826500458, 2.7518874489411504, 4.098094300595988, -2.3152935011983793, -0.796894861090825, -5.05968801643169, -1.6535055135776437, 2.3825318442304675, -5.416570084953439, -0.011585807456185534, -5.027922362975169, 1.3137789322188553, 1.4135399567367473, 1.06884551343296], [-1.0355582627404145, -1.8503477976154696, -1.0761232781056915, 3.76700730492245, 2.50898603651065, -1.839086678550987, -1.9259127790800263, -1.1819775901746055, -2.3415360419362368, 0.14116590798509726, 0.1318089687755976, -2.0109797627041566, -1.6457341726172816, 1.6574004737170729, -1.449512207457141, -1.9849704880219359, -3.6211890697599176, 0.5033410051424496, -1.5703004722577796, 1.7296409854872465, -0.005695887246033347, -1.3815471886807844, -0.34607806403499125, -1.432272509158257, -2.2755645423910584, 2.2982222030496833, -2.9603743922211114, 2.1401822933202395, 0.3088882198301138, -0.965478138451316, -0.6374169741452921, -0.04711302675961077], [-1.5888711103014537, 0.432514615567722, -0.4064158107936444, -0.5782027267713753, -1.2603654263027642, -0.8483937491806138, 2.497257147541069, -0.6363661111291089, -0.5476941115169407, 0.8066424884597666, -1.15198259347421, -2.2611905197878235, 0.8913423955711073, 0.40550011053796814, 1.8130703343285366, 1.203176924871005, 0.0008181804239885295, -1.3693765135030949, -2.106293926506618, -0.9183041457662294, -2.4000012633655516, -1.9897935748045004, -1.0840932140371833, 0.4801264837275255, -1.6661862304564263, -1.0344718800801862, -0.9581499694494234, -0.22727073787024354, 0.8444916830397833, -1.6335824271463077, 0.22252263590207363, -0.9061008200214126], [-1.6298005534954694, 0.74116315514268, -0.0026401592284865556, -1.1266371402784572, -0.7031630653792252, 0.6632933000496539, 0.8404201093791019, -2.205300107486913, -1.6512202118064498, -0.19048621475482463, -1.4107843963452094, 1.2981432727562887, -1.4706115546210121, -0.6955783955100411, 1.348361269304704, -0.9745880427500665, -1.4969258818695284, 0.9197283267038976, -1.2876864975343274, -0.1204111687243296, -1.8098415395927352, 0.9658297998912623, -0.2285297511081838, -0.5217050111218519, 1.1991708503399736, -0.45079901817275386, -2.6088051964310064, -0.5221233650224579, -0.9514126214174654, 0.6523607727748542, -2.640637086074253, 0.5597059589238049], [-1.8819354927729703, -3.6770527150527763, -1.8483641771222918, 4.1790498852902145, -3.8983440894527464, 0.6445061287434011, -1.7532938261694988, 0.9731850933564334, 0.6894363314845047, 0.33646845282578647, -3.291633793988066, -0.04506980046196329, -1.6501724826691575, 1.379023397176097, -1.5619256576960547, -0.12711165670667043, -1.655179787725725, -1.511399200651423, -1.1896720843475401, 1.6402029466696206, -1.4742374586911253, -1.2767585860807011, -2.5692610946416425, 4.17101513271689, -2.3957678667146207, -0.5205145400814928, -3.7129196151942145, 3.369230884598013, -0.08712872005260708, 1.7924737971240954, 0.3070977340683729, -2.478119096901045], [-0.8427802346655974, -1.1022431430466373, 0.3300674822427009, -2.758439200838847, -1.3212190850213328, 0.4740922727838469, -0.5094899637780684, 0.016189596014224046, -2.178130460467469, 0.5335530771844096, -0.49197740225462816, -0.08263969451737228, -1.7328920956593539, 1.4298733764189475, 0.5844071363388079, -0.273639185382998, -1.3513828089507467, -0.6917655410969255, -0.716204133635474, -0.6931008072266182, -1.3017601570158752, -1.402612551495437, -0.6356467985237875, 0.7008722378785333, 0.7136729881787205, -0.28967685453800623, -0.23176385460926463, -0.5495956047215095, -0.22163116843079778, -0.20936657801540684, 0.8198877217492304, -1.587222928294444], [-0.33374409452843085, 0.006419500685188059, -1.7288663484578628, -2.630017556107424, -3.1301615646823464, -3.084351829182878, 3.5205070520997106, -1.399951964685492, -2.0277235023507267, -0.9870020769625554, 0.16202622142292925, 0.9025633340632061, -4.188326767107496, 0.5022232047355751, -1.1228488559616017, 2.90192761604712, 0.8683270748186346, -0.38821882698725246, 1.9780265944638886, -2.6048513055651155, 1.2888834268290716, 0.5048085201706678, -3.3980776674486686, -0.599025804223373, -0.6331732801406181, 2.251381583598911, -2.6494678744655595, -2.1836573711704506, -3.085562876053943, -2.3055425651665984, -0.7524827666534241, 3.2658566138704352], [-2.9850572285465455, 0.8498807062335149, 1.4810044743080213, -1.964131521056054, 0.1499233389875268, -1.4644018069443459, -0.5983002623691261, -2.324820558793125, 0.4209634317793078, -1.0128974355654219, 1.4396137549499741, 0.26988192868007704, 0.7950175027564311, -0.20317171203767173, -1.0965637685820468, 1.7585179684450822, -0.6814057145112385, -1.913854988283889, -0.6396301011769743, 1.4238341975606332, -1.7976278759199296, -0.17799235004644895, 0.7804859254266947, -1.7007878140666879, 0.2898804226360587, -0.7552935672083152, -1.073283919110862, -1.9015829827516977, -2.978250376908235, 0.9876994183797096, 2.524831552178468, -2.717622633156437], [-2.04910705253595, 0.26352496282537474, 0.4917869131443026, -1.0663844830562212, -0.8907346700718233, 0.8080884172827059, -0.41376153217728984, 0.9793494662830171, -1.4408899927614949, -0.5351535166754652, -0.5641233953105155, -1.9633792439130004, 0.8354843930713307, 0.6176619195645541, -1.2791240398879267, -1.5516165863377889, -2.94574906616913, -1.4956490441331516, -1.595733452748043, 0.4658799472283112, 1.3550283534040704, -0.9247986348230316, -0.03308524277892566, -0.4499539627388176, 1.161815306814535, 0.3137475909759444, -0.37286332055512506, -1.394937588347394, 0.12464259134844541, -0.8553902690381027, -0.4401823607360176, -1.9463417136872836], [-2.2476994293848596, 0.42036985059612, -2.4920316684118, -0.7983554071668895, -0.45148791723681286, -2.6217556361670757, -0.12094221468939687, -0.666958315007712, 0.9692021068344562, 0.7868980416678352, 1.4809228268405146, -0.2956271707068173, -2.0035918754570496, 2.0029611511021432, -3.453355252976528, 0.5775078464633412, -4.091918337417092, 1.1173087346321233, 0.641476936818131, 0.10330125280136812, 1.9017067313432892, -1.0463484119108628, 1.6984070277347076, 0.9875811791454633, -0.7579287752696974, 2.5505099086674186, -0.08495225152955682, -3.0480659025396606, -0.640869598494679, -0.6473591299570784, 1.097601945218256, -2.4968429508247745], [-0.14056847548488674, 0.16500616367141235, 0.4040787434717836, 0.4201337335989432, -2.966975437554082, 4.0661000089431205, -1.4964083710118676, -4.46576578437758, -1.8980724454292386, 5.035991985999267, -2.736667563571029, 0.3093811049358768, -0.8149862322057568, -0.9662124542009918, 0.7933500263196098, -2.0527442668417377, -0.6595998674424659, -0.3220426215290326, 0.6066498093088775, -1.4529337575115888, 0.9260234649475343, -1.183590971194344, 0.5822175373272486, -1.6657004143124363, -3.537421355687287, 3.45248099707641, -1.566174746329989, -2.2106652765364245, -1.7334656946550455, -2.6007222136858728, 1.0184798197353548, 1.2660968620822093], [-0.18276218681224543, -1.7217591982945375, -1.7809067527014506, -1.1290446253569515, -2.2711312549144687, -1.0209796871469505, -1.72481531078041, 0.9419357026989971, -1.0929003669972939, 0.8653844399634086, 1.7142036891969346, -1.9533683106352526, -1.3206784182069424, -0.48543136017559285, 1.2016809435108273, -2.2860657666197803, -0.2848572238726895, -1.2791408939506408, -1.201025029227053, 1.6329470406549598, 0.011041661070936622, -0.749426873396672, -0.25057354484788186, -0.7350247913689125, 0.05009142638314571, -0.7229638886750761, -1.6460074820033193, 0.4710918630532445, -1.201003712388599, -0.22936679377791308, -1.6982540829004678, -1.6249551801365185], [0.3846309898984004, -1.3847289024736305, -0.6979931271298745, -2.2186963981696124, -0.4439151181304609, -3.080330316350868, -1.684634113479918, 2.0216826110527952, -3.4008683010527676, 0.010385959580468783, 1.9784644277530528, -0.07476161009459231, -1.8691331233086634, -2.577518663646498, 5.233055421371153, -0.4868400395784458, 0.6741018270856854, -0.12340286621363156, 0.18761589250548086, 0.14183315179769265, -2.468477923911318, -3.4158966004645257, -0.46207140202364666, 0.4708945726322673, 0.6306185857449077, -0.3527668601877846, -0.16294689085731878, -3.808157815520837, -1.1289140453879665, 1.3831842260007907, -3.4389481853018973, 1.5408826472590524], [-2.410925867035396, 4.163453439413898, 1.2636783204417463, -3.271527351683051, 2.9438036421735116, -0.31632431523910415, -0.7380328620981655, -0.8784573336072936, -2.5077958708218926, 0.1445821203240475, 3.0045342218567743, -3.1856062589711382, -0.8872481793031338, 2.4384607878063496, -1.6502733402273293, -1.6922345890286974, -0.6151187859241032, -1.847660819391114, 1.1520817014037465, -1.1697207730737726, -2.306791315800843, -2.7028903959761994, 1.990463150406521, -0.1809295767692871, -4.70387117306338, 1.1134569760042679, 2.5522743614106638, 0.3435663680965274, -2.297007345815668, -1.5649926980855744, -0.6759878331676078, -0.26439812138571483], [-3.1726361132081045, 1.1406784254800435, -3.2218383604781153, 0.1381980366685407, -2.881896614421182, -3.266709204274427, -1.4430546737282954, 3.790687517324582, -0.4008086526259633, -3.1695746503105693, -0.44423546424934857, -0.990466797903284, -1.9336994637905658, -1.7553539239862044, 2.0081911566753714, -1.0716829689893015, 0.5114041417441816, 1.3624603160071154, -1.0212539632536763, -1.576703247364223, 0.1850344182520212, 0.358823964582313, -1.9203751835156826, -2.262110016662244, 2.427878159106323, -2.699877307034039, -1.5621052338560255, -1.8993691998258158, -1.5519003357705214, 0.24390101295791483, -1.6103672737284147, 0.5549695850712983], [0.19762186163110645, 1.974109101658782, -0.948207873584377, -0.4866499806282291, -2.4464110984008474, 2.0878816750671976, -1.114783743146006, -1.27748894817261, -3.8869671562262993, 2.8130132219150967, -0.6835795569169808, -1.6180387257720874, -0.6571417759346696, -1.1355509557251378, -3.117836457681069, 0.5837690770817694, -2.7433900362721793, -1.1571276069923475, -0.23601429409974672, 1.2294657907262025, 0.9989625465358268, -0.4032204048840396, -0.004957834879558865, 1.3746429708607897, -2.445761849438955, -1.1666238209130013, 1.750106873905351, -2.2484355440770436, -0.7658080712133557, 0.4948018750770402, 0.6256160558610347, 0.2504582193503194], [3.7815274843671927, -0.7299439864155929, -1.399872251456235, -3.082602825354254, 2.3909897392000095, -0.3550152849082564, 1.1071184586618348, -2.627647607933659, 1.4574079198286471, 1.4375413535620445, -1.406257016943085, -0.35679624864521375, -2.2727661163159647, 1.1462452911152712, 4.025187798533983, -2.771347030328359, 0.5884029736228996, 1.9190562301368796, -2.7033134381087733, -4.791556979442805, 1.4482997958678787, -1.06249999478965, -1.3174841133791424, -1.2104056334400064, -2.1307194015549915, -0.07035623732149472, -0.5844250898051566, -0.3530042287764329, -2.866580638432394, 1.4145538178638137, 3.4316679464658297, -3.1007750154896425], [1.7278182514297153, -1.101157965904617, -0.671960029015515, -1.7194930593179802, 1.0907285031585674, -1.120779248721281, -2.2593883409571456, -1.5886357743934036, -1.9932592591846368, 1.7928344421873237, -1.726011516947223, -1.7038265141649647, -1.1149058268462229, -0.48306489378074974, 0.6444580781859149, -1.3108481287247646, -0.1094999499341523, -1.2434294708938163, 1.1860785090513055, -2.457897563770833, -1.9336460999214775, -0.4888300734446036, -4.096284987628269, 1.7643071158461265, 0.04125609766689563, -1.6937592829771007, 2.10253840038435, -0.7091543796568365, 0.9485325416974694, -2.237560881345656, -1.5031053181556535, -0.03311953863267579], [1.0187587263189573, 1.5793968363266888, -1.5951249910988883, -3.236947711339183, -1.908929525753658, 2.8705503717288368, -3.238920761487533, 2.430787825861773, -1.396797878182252, 0.37193935626046054, 2.6124965752989695, -3.4820264518433897, -3.570862034504207, 7.25899754945572, -1.8749342075023838, -3.3586712493689608, -3.5537126066791433, 3.944597803880556, -1.9961801360591687, 0.9726971290935514, -2.0116942584692956, 2.8073537631297913, -2.131260205281522, 1.0719975826219659, -0.8494549836290977, -0.4536393799175689, -1.1061230669116455, -1.9735778235568964, -1.6259433415237659, 3.0580942468516943, 0.3947142801526496, -2.9570598881747636], [-3.355479867995855, 3.1979118102735393, -1.0081198342867912, -0.1829460636733663, -1.218793248480515, 2.3410077453354283, -0.2848185819180334, -1.805427057327501, -1.1695592489524083, 1.5609621356522736, 0.5942474113667635, -1.7629775334744893, -0.3732752038311123, -2.266118610472127, 0.24234441377077087, -3.812741151498052, -0.4953717189018273, -0.2568991709211134, -3.2881137227751207, 2.11342944674656, 0.7523187882984889, -3.291547551255891, -0.26902353756372943, 0.5797373509599, -2.7477984862882363, 1.2506125684377918, 1.045194463427005, -0.9498132638438661, 2.0592119315312556, -2.264221958730952, -1.100679066977342, -1.994723937206993], [-3.9346285045182325, 3.637327724709552, -0.6809104899557131, -1.164795737209512, 1.6030819403992997, -3.5024131525298143, 1.9696242035566989, -2.8441923756695866, -0.27072108191701744, -2.088147403245546, 0.7913446746996697, -2.456157502421316, -1.8312456784956719, 3.820198232431586, 0.8563152966627918, -5.576178842667598, -1.0880025826303967, -2.409131361566287, 1.1677951519746732, -0.8606889469324068, -0.11222056002579878, -0.8568233614016562, -0.13236187853275075, -0.29055062677172977, -5.35016258414497, 1.3078687341280584, 2.699897523070744, -1.98374668298172, -1.915916119020814, -0.5307677263564671, 2.7436361227126587, -1.6218670074137373], [-2.743117041914513, 0.2726607484612957, -0.0850642657668203, 2.338037015248926, -0.4579812761100648, -0.4089067734412718, 2.456571931551866, -1.177722251368961, -2.8507176969844403, 0.4216835900267204, -1.9696934566748017, -0.7620105383067907, -0.19289741327655072, 3.1786677519521067, -2.450329069611157, -0.7166893061519768, 0.11660064974592158, -0.822076910922896, -3.3380829136899712, 0.16632537562062888, -2.5740190256278375, 2.87811720693223, -1.0338497708911805, -1.4505308049580177, -2.8401283686627035, 1.5728045523884695, -2.6027165873203373, -1.0499113908204512, -1.9872762544319063, -0.4277145325705759, -1.3116750366946477, 1.7995181722307811], [-1.3133140993643255, -2.9236123241181007, -0.8935276461176543, -0.015651895372534638, 1.1020892485314555, -0.9584406442010651, 1.180316139556759, -2.4938650366507127, -2.645609173397938, -2.073547997518142, 1.3239690148236796, -1.8040156536398326, -1.8210354736511603, -1.1983675099710653, 0.045925753883900564, 1.5379625189923536, 0.12966008361082265, 1.7425518493902679, -0.5716206007152727, -2.289212455192247, -0.9906857601508923, 0.7251144584598309, -0.4287355120947193, -0.07219309378478111, -1.7948812266138654, -1.3602041288397075, 3.0161752562286464, -1.1346453916543637, 0.917062988957348, -2.410202546956126, -2.0278119538179222, 0.8474417476501357], [2.2187720129701463, -2.5682560718454095, -2.6143850947514937, -1.290605949253897, -1.566855081196224, 0.21733966599627322, 0.4045436379158898, 1.1931052730987586, -0.3718389614395564, -2.810062364365797, 1.6922183693591268, -2.772325723568101, -2.3712542745750707, -0.33218935143275496, 3.45820791333532, -1.1225067615496256, -2.9622550724494494, -1.5662112041319447, 2.702678229467546, -1.9949513921079232, -1.967441077315367, -0.6022079354868323, 1.4807093599347994, -2.7968880502344797, -2.9018359727455914, 1.5993136966997996, -1.7543548791243218, 0.9457864591129188, 3.6146254419676676, 0.23659389935117256, -1.6684483983885179, -1.7855614330021994], [-2.4104605101989747, -1.2751840373528767, 1.8494095206835521, 2.2256136274323537, -0.39139102647810925, -0.29196954953069737, 0.8208926523445377, -4.006478132883198, 0.31505444816904354, 0.3544974421308952, 1.286114958278952, -2.14429531631076, -1.3613039721289657, 3.5362713329990365, -1.1605388509364796, -0.5469852783006228, -2.0873204125650067, -1.6228200137590332, -2.984574652141815, -0.7046105995423034, -1.5051124206649171, 1.310494961203791, -4.345312315932911, -0.8859987614462103, -3.2243189213151218, 2.622929605460037, 1.1556075656370286, -1.5854780716572918, 2.797177284066386, -2.815793665649654, -0.7469220851847842, -3.1868933472151433], [-1.428982823295081, -0.5314734538523478, -1.0213605811568476, -0.250522844300884, -1.8520470474415318, 0.14139923351866698, 0.2655900992473352, -0.8048308412991987, -0.3035071617117802, -0.5655023282297227, -0.132249923222163, -1.0941688904869808, 0.3177251754024584, -0.567975062893367, -0.15555691710283123, -1.4760331140028666, -0.34325049922880174, -0.799610585770624, 1.0958005104500586, -1.5942024644679502, -0.2875325988639111, -2.037161304084268, 0.49612013849947956, -0.34556304134231136, -0.43530655599863155, -0.9808898731128476, 0.9049476219469555, -1.4503168813853058, -1.3697833282256555, -0.879797221827926, -1.4427945565946398, 1.3369360388945084], [0.6602464548641392, 0.6331237746221353, 1.96986082222565, -4.163076950700003, 1.2796375770540966, -0.5012333645074432, -1.6746275379771052, -1.0843279359205207, 3.947450114678035, -3.4505389814611998, -2.7085376750186443, -0.6616783522561214, -1.7334062548239273, -1.1686032783779532, -0.11278019794184516, -7.23347708795921, 5.25141467842933, -3.275901274073159, -0.9974696890328277, -4.777005185140547, -4.878683867497688, -0.34586354705833217, -0.008445065349436079, 2.6019166031276413, -2.294765833115495, -2.5113768726685564, -2.0852256634185626, 4.793434509231143, -1.5438985972980435, 0.9147416812475685, -4.223833869109747, -2.1806618314827664], [-4.7759479530228335, -2.1198733690756244, 2.905154056782662, -0.16607297388391645, -1.7616719634600264, -1.708007514930138, 0.6641050859187059, 0.833352746320284, -1.0577969861453511, 1.630372073359544, 1.5546218751651686, -3.5076863435536625, -1.7917590069614162, -3.0946170244214626, 1.857665697432788, 2.9008678549012528, -5.7443729401544275, -0.42480227189334346, 0.37983902246640316, -0.13745385134631596, -0.08660347049158078, -4.061581668512407, 2.517201465392652, 0.40885039137631474, -1.348145574825792, -0.002481084182625762, -0.0818970654891195, 3.3393846667159472, 0.47317873717742676, 1.3242038873714683, -1.7552004637299579, -4.119993518616697], [0.2753077224041298, 1.9161557629649615, -2.890973885697903, -1.3877114619270694, 1.3963115793189802, -2.6064958107673157, -1.6064139059775924, -1.2481200718359862, -1.563868338614643, 1.537443497596115, -3.369103155613941, 0.682526856423131, -0.7611017814886272, 0.15524635717777233, 3.46942737886184, -0.47005822204506975, -1.296948849590361, -1.6380738032818154, 0.9724334163315608, -0.3259813551752161, 0.5822586899474181, -2.7824145143022068, -0.6592762219062853, -1.3178933137475293, -0.12577388160446548, -1.0531285388519276, 2.8591536487923466, -1.7455157821950793, -2.814538535508476, -0.8369007427766039, 0.6845244814879274, -2.2465807221505973], [0.08098105657428159, -2.406075758758254, 1.5253505315223002, -1.891341328096561, -1.5654453363420902, -3.8915795157020834, -0.21309887298017985, 3.817150250855464, -2.1010441727629043, -0.7844694320194386, 0.1623611793215735, 2.8744410042819735, -0.8532685737986541, 0.3034539022550836, 1.2576388634924927, -2.5626328509905143, -0.4598408067351423, -3.4197983118390605, -3.4141614226643733, 1.9629588667658497, -1.1622265360309652, -1.373552091219866, -0.31551313232286854, -3.7790916533519017, -0.5954461753700838, -2.638656562112392, -5.126471254176536, 4.789594859494885, -1.4219659462532717, 0.20302407072550496, -3.385165764162116, 2.5835663058063307], [-2.7571233446962933, 0.43743342469458724, -0.876567366472207, 2.2901152164867757, -3.2515693585340797, -0.25091311401870703, 0.23882241225165923, 0.3672155655117505, 1.2385402120319198, -2.657172513298243, 1.1188879377344407, -0.14108604047139314, -1.71928090889595, -0.2934392340065241, -0.774331648478717, 1.917448977805132, -2.428686463297733, 0.11009157883073069, -2.4611185778399265, 0.16082354228052984, -2.0019678518229838, 1.53874088508265, -0.667352328718338, 0.05751582784706722, -3.0810158629983824, -1.4760369492580578, -0.20413793645504186, 0.538557119243967, 0.3595758165702281, -0.23606391535854152, -2.0233771411296066, -0.8515935762212992], [2.694362822667017, -1.7816971692849946, -2.411924183019086, -2.4958675787602926, -2.8511204451981924, -2.491622207740223, 6.598643104373365, 0.4808954190601514, 0.6520549710403182, 3.6881343384957987, -2.6244805304013967, -5.121410747393194, -4.064795082830742, -3.670416116939095, 0.30880956685058625, 1.148941525829439, 0.44468157334954656, -2.072972169770402, 1.7584473315111717, 0.019221450955946646, 1.0285542524089393, 0.8617445316193694, -3.118256048455436, -2.658918902765521, 0.1468232122236101, -2.2564280505599896, 0.6169280787054566, -0.32901644921712714, 0.15884813157889952, -4.895537308687597, -2.0302731977454886, 1.1873466316115016], [0.40089462190756375, -1.5888781497494036, -2.8901837249071014, 2.1867719060891138, -0.48264548930200357, -0.1424950484267294, 1.906304325823706, -2.357345753055559, -1.4944769168475396, -1.2288583034297962, 0.19364618563831118, -1.305006092548022, -0.011887299231081984, 0.28986106887398083, -1.0373195834021565, -0.6151130914586157, -1.8874474565827208, -1.828650544908359, 0.9102687588488253, -0.7447645382151838, 0.7573580065182448, -1.3703247917035075, -1.7903042118979968, 1.4526071697028746, -0.5051921906185727, -0.8006109970317933, -2.621169433124435, -3.0185909012906254, -2.398418380935495, -0.18343510584877543, -2.5673138205683923, 2.175831335970985], [-0.12260533613181726, 2.037545463949039, -4.772683954149949, -3.6467243998156267, -2.9382129329163775, 0.6088230194434964, -2.3271478935017123, 0.19189263706947446, -1.7827453337819912, -1.955602687137613, -2.050910341488674, 1.653672222718785, 2.846535580623999, -0.30477591895014056, -4.444370305693701, -1.6890530979251037, -0.5426196761549488, -2.5415208594453302, 3.8349838833508625, -1.2868795943589568, -1.2861300426244897, -2.6974092095859117, 0.06629556542814358, 0.07460764161033788, 2.9834663249082607, 0.46898258134233783, -2.4735783779785514, -3.120496545947959, -0.5241244588653202, -2.410209830054401, -1.1320162274334777, 0.7938112394582395], [-2.5919639502749154, -0.8744924680295189, -1.1306126812733255, 0.6757908599468753, -2.706541445658593, 2.9898313763924502, -1.2494388660073286, 1.3974870626605684, -1.6581818343459687, 1.1472013187223584, 0.194733368602075, -3.55875700712448, 2.568281966466213, -0.003317898518745769, -0.8089484558091454, -3.337875673744403, 0.8230482087422287, -1.5083385507959735, -0.8197556227038693, -2.150671949755592, -0.3645821464368867, -0.7541700983863934, -1.0992283291721252, -1.182459300322542, -0.5001148983575952, -1.319790591557997, -2.5003823402577, 1.3092649601965658, -1.9767577076070098, -1.613791310800829, 2.09363567654672, -1.9345052760457686], [-0.39416893437568323, -2.830370992580169, 0.678743127459994, -1.6085021295094342, -0.9398994033005826, 0.8461164101684018, -2.814226665369006, 0.6403729213503891, -0.5020910749240458, -0.48993207919168635, -1.457361813096619, -0.8034041216873306, 0.7215354473055524, -0.06239437652605241, 0.3820780670025786, -3.314622282013305, 1.2996106318981828, -1.3157299583066722, -1.9369546492015535, -0.5368959056250837, -2.113691474612524, 0.6448245971496955, -3.158274212473566, 1.6513181698295953, -2.185828025135077, -1.4366895106781463, 0.5351968753359596, -2.846553382736935, -0.648362178482998, -2.0935920348377564, 3.167453312237807, -2.322783623596727], [-3.12156966273869, -2.2423660585517555, -2.381390838991682, 4.085320575741314, -3.322018928151703, 0.6835167326032083, -2.41257919183796, 2.0080722103950803, -3.3343669818877015, -2.7052179288312415, 1.5306965983335263, 0.47333690693603503, -2.7851139559231286, -1.7952187665333195, -0.20811869593355686, 4.807529950510282, 0.9490866866679909, -0.10439370219491892, -1.688849221847144, -2.2135754799125746, 0.2983407563240737, -0.937624665304746, -2.951226560793311, 3.838361616766572, -2.1063645485945512, 1.3867850950691971, -1.1169777652007777, -0.2960066437454407, -0.7588070301371102, -3.419966285788933, 2.7825967806086167, -3.37273558047604], [-0.14715204077248406, -0.2499208231539546, 0.32811762158265984, -1.5037488677937967, -3.8821365491006077, 1.7886516111870074, 0.2448673415782822, -0.6804305680678301, -0.5235120386142833, -2.644015782886551, 0.3469605776572096, -1.0359320982935145, 1.3496170430627321, 0.2643657517552655, -3.266074321354233, 1.0764677386914197, 0.3685750123770361, 1.727579447005881, -2.3288148773556303, -0.10271739833213965, -3.625334728220505, 1.428760669606554, 0.2824598293327444, -2.073120006297395, 0.5943231954314739, -0.7272246756027851, -0.38087569792977116, -2.0405789367022336, -3.360994093264496, 1.1260920996736634, -2.489688187478325, 0.32479237768728797], [-0.7601058579828849, -0.626827200205298, 0.5043319374490421, -0.8753260772214966, -0.2848800877800102, 0.39685347224545897, -0.47914426126061793, -0.15741587923858363, -2.032597601848686, 0.6470125851588503, -0.7141856428139025, 0.1961390514491701, -2.21108797638155, 0.39150149630102526, -0.4198511510896417, -1.4961685438838943, -0.09244068376189742, -0.11607429258156936, -0.48909584947995405, -0.14904998779339232, -0.3327457033483574, -0.18373260831828953, -0.7202640351636762, 0.9617375886476839, -0.22324478644296777, -0.5150785988692723, -1.719259880218211, -0.038715558252711745, -1.4491426642127356, -0.7625422841205527, 0.03775763952894658, -1.3944666503286784], [-1.3919895304339638, -1.1340724884576392, -3.7976111837764903, 1.085119695321107, 1.7848215313860378, -0.8737188866028504, 1.4429618609744106, -2.22839743122073, -0.3258345823675947, -3.1237981477338246, 2.698580890854474, -1.8676959672309439, -0.7857224828845688, -0.8718369690900835, -1.0601236256642304, -1.6499100293775188, -4.812843912394796, 1.2770955149468202, 1.2990554345269025, -0.32725215335314084, 1.9537648817658677, -0.8451144861382965, -1.7376723568626848, -0.3934566944727569, -3.344077992502357, -1.6678461767908428, -0.019180932067635246, 0.12498957382001238, 0.2771882579854481, -0.05597433651721304, -3.8264204278573826, -0.5533920104812987], [-2.1984430344648205, -0.8566581530176051, 1.4184525558524113, 0.21478422601997277, -1.7484057739234515, -0.7452333715574596, -1.116806949519067, -2.359797849137619, 0.2200404149779006, -0.9716436542215112, -0.8972456383415361, 1.5986483017044706, -0.8641370535598784, 1.7946107403591183, -0.8012179345082302, -0.4530490507629608, -1.487256231699686, 1.333244256883551, 1.688361204841575, 0.20459267690317798, -0.43915435482161636, -0.9904227219511218, -2.3340446228132796, -1.3218003171664972, -0.5396315473019303, 1.1465663586902173, -1.627913310196111, -2.2107474818602726, 1.084638258732522, -1.5570456689066872, -2.300659987178139, -0.9743747299990382], [-0.10121261869292707, -1.5179996151902944, 0.38830246124457757, -1.3842941930569277, -0.3498292146218005, -1.0442485097996241, -0.337299971054268, -1.4108715922231256, -2.1996285740289903, 0.8984022277119633, 0.4050187630737564, -2.5890753739494046, -0.1609642819891133, -1.7014729075553718, -0.5298491997595721, 2.550672368490597, 1.2275926535945494, -0.08014659754469276, -1.2444111730223082, -0.21166430472171682, -0.4421393284353223, -0.1437788877074351, 0.6928930027959018, 1.4044316310704887, -0.22492084302880846, -0.8698252268210735, -2.4383147948388384, 1.6384580356115102, -0.6212468644896778, -2.4477040100552347, 0.5971744471780166, -1.7439641493093576], [-2.3138114977658994, 1.3528784035831192, -2.303436741130468, 0.20350994515111115, -2.4690756055567498, 0.7020028731745783, -2.0456295893059604, 3.521052315082828, -3.2777235077334144, -0.6758518333488498, 0.9052427968004427, 0.10346623836964418, -0.9038131290215362, 1.9200681770640526, 2.1734675639604872, -1.2647699829799124, -4.570617623783463, 1.9514836267250093, 1.329672245887954, -2.1416219289112486, -2.5796678958799264, -0.34705532326281135, -0.9043268955163128, 2.797818161693582, -3.7634906019017476, 1.3044654112718856, 3.075333496149676, -2.6529283303576143, 2.316379226733841, -0.9703724830377726, -2.1911169847275764, -2.250364111116567], [-4.535857731001165, -2.528960939265105, 2.5542623643424034, 2.621887430101131, 1.220490989759339, -1.150226073526497, -0.10904136982460744, 2.160565778214237, -1.9654546611263353, 1.3831276379236837, -0.7301677906044655, -0.7538879121213002, -1.7244399356989715, -1.90074327776194, 1.1139041219632624, 0.8753115885923911, 0.9176141790826193, -2.1759135493401063, -0.10714164115824441, -3.8186489192854194, -0.7737124764880494, 3.1792753418935393, -4.745241916319981, 0.36275547060422764, -0.46402907144654787, -1.9764347707377397, -0.11388678762200309, -0.12298638833607932, -5.443985757247259, 0.5053662923693844, 0.3203556042887127, 1.7187723818238285], [-2.606653176685825, -1.9099029830466474, 2.9401176081460245, -0.7334171366719078, 2.1703228508896335, -2.009046043361453, -2.9158880800488296, 0.13963468151995465, -3.091743216647872, 0.029895023106574978, -1.6114983601181947, 3.522168169171825, 1.1566554887259157, -1.903779545843717, -1.4896532570907501, -3.2698337485560387, -2.312175345782314, 1.6981881993767005, -0.3195661711855665, -2.034761954311467, -2.624110470757584, -2.2172709710096656, -1.9958537099249554, 1.2943552041035433, 0.004582855773157321, -1.773948741735768, 0.8092365037117016, -0.7225766822543047, 0.25309420959317414, -2.680311452685124, -0.16642598568663428, -1.1975143950670277], [1.0849403563377384, -1.725225806275658, 1.276802674911578, 0.5057149716575048, -3.1553643235803697, -2.2585819171594537, 2.75031859188501, 0.2014977538852286, 0.42165120883173557, 2.709499247268464, -3.594002773012134, -1.6316737679143736, -1.8433975121432442, -0.8523725190697503, 2.6942855212625156, -3.2175385876342917, -1.2130384999213206, -1.2617157373038053, -1.8654741310557725, 0.7593281790951885, -4.82859293155147, 0.5772955261722565, 0.8682222153797092, 1.3473868612626032, 2.962214487898748, -3.7722347116831245, -3.261595547338145, -0.9092504525293786, -2.4348573332897248, 4.326764450740287, -0.8184174222246317, -2.5771080740402295], [-3.7780584461183824, -1.145022948110216, 0.8099048721763521, 1.4017522259879873, -3.235822002721939, -0.7238943770571318, 2.5316803857283268, -2.202906813860398, -3.183897227707594, 0.022711232768897062, 1.3642863691560811, 0.5006421673052261, -3.6458574496566793, -0.0855636802147022, 1.0627615536281199, 2.055132883010985, -0.5536827675832161, -0.8192163514788854, -0.8171539457862287, 0.3416801597940785, -0.28253484110579763, -3.091660134188787, -0.19299080267719296, 0.5327081405093201, 0.7850477296523211, -2.1885358366901415, -2.6192289957185273, 0.9268977271219669, 0.344664801487106, -4.078424874293814, 2.844115919877375, 0.2902068844564233], [1.1441363235485387, -0.9753783847853582, -0.5382277407305863, -4.003203840039015, -2.259009567254672, -2.1874578533853324, 1.0959831516322478, -1.4052316797964042, -2.199409678160481, -1.1500241356311327, 1.9506232275165694, -0.5523703898554159, -2.458781877642816, 0.7754687739748063, 0.17025805454425239, -1.9704214801202153, -2.598133018668153, -2.8905251155684937, 2.0097195530188814, 3.64038243151988, -2.0704017861065642, -2.1822505533432515, -2.3825974477880174, 3.6586885941964815, -0.4822437392396678, -1.3102254018498753, -1.1099602463675011, 2.6284197698928793, 2.567862053867334, -2.7326934006902106, -1.8498215903787536, 0.400587289603037], [-0.3965975905096637, -1.396651122352242, -0.9050221929608113, 0.16708432746389704, -0.3230625695926668, -2.744658810820244, 0.16895078131572386, 0.8991469929811237, 0.35985868357919165, -0.3472003139877542, 0.9532158498043912, -0.9514555926793123, 0.5902632837363578, -1.8331294853292222, -0.3462751250520449, 0.2232995524418718, -1.9087060532745548, -0.37356792504462955, -0.013076601587269853, 2.1312010183867383, -0.1670453288444794, -0.7193283490159101, -1.8869273423744486, -0.599818522731817, -1.8604630961013926, -0.30834986878636433, -3.175244563905736, -0.693961328147858, -1.2825801483145365, -0.20437952463720982, 0.5084766249094258, -0.41577092388543035], [-2.5169487026289983, -0.40995945856422683, -1.861762948203154, 0.5870874557263324, -0.7155632793337713, -1.760521022726861, -0.8234536128969031, 0.18817598857264495, -1.533477369706561, 1.9527624311836749, -3.2152812150082317, -1.7430278341310383, 1.0351500699453775, 0.17799490776423044, -0.7595382182404249, -1.1027630504306212, -1.8037729420682886, 1.799612556944446, -1.0667477604532802, 0.20553128656931213, -1.0882392647011834, -0.907406591266741, -0.6782194918028225, 2.329161998005552, -0.15911502064422997, -0.9154321348779487, -2.4958617928022204, -0.5329543326908407, -2.911984920313645, -0.682304271551006, -0.18002606976326754, -0.9963424734770584], [-3.4275739337744455, 0.2925570489581094, 3.387258838515224, -3.4089348306880045, -3.2176578827177984, 1.4089884821158314, 1.7745882612830761, 2.184806414138242, 1.0246612435149578, -2.3801082329840533, 0.41044571021014364, -2.7101041528141967, -1.1052821491627722, -1.019789803672765, 0.4761068438220276, 1.9575327837733052, 1.2570831277450907, -1.9775428698146873, -1.737787009893126, -1.0875955381494218, -1.906541294316854, 1.017484369970952, -2.816225426871946, 0.5185358825024204, -1.1348131951178315, -1.2049929041946916, -2.2617939419370194, 2.530072597486218, -1.105805899440697, -0.0984738769437434, -1.9208311800207276, 0.1762203656525336], [-0.6625421734525577, -1.5679024287291503, -1.2196765446715192, 1.9567587768407528, -0.6382728620654997, -4.494291529893252, 1.3630257145197142, -2.453503180222934, 2.8849412986791876, -2.9403299279668214, -2.9653057709282975, -1.5221127791284115, -3.7268123922001233, 1.2726251096936283, -1.754532487776261, -0.4349213691020205, -0.765795408941927, 0.3046254143673474, -1.4452068999477752, 0.3562319162070147, -0.8711602608530793, 2.5499140400247344, -1.249621421066067, -0.8386271340913738, 2.0196201250988555, -1.3076685541201651, -0.6199195052961591, -2.5698694880415, -0.22838597862909046, -0.8045727010889677, -0.698660222898014, -2.5830150703552714], [0.05539889142516602, -0.9811175880357642, -0.6301528966313966, -1.3370816873292903, 0.5587287585611214, -1.108058760186262, -0.33543563625827816, -0.8394269627931499, -0.7675095582829151, -0.17089904853146126, -0.8921678475728383, -0.6378398463062597, -2.6751311520339955, 1.5238450124012732, -0.863814022342864, -1.8208728409672306, -2.6720531399633285, -0.8346509814147124, -1.9956380306927146, 1.381969726232036, -0.3374274658210258, -0.6059066523625304, 0.23473977899027157, 0.6984023136989768, 1.349357800178707, 0.3239715784329173, -2.2580838101035026, -2.2481102754330653, 0.6877746983588631, -1.1454627958483374, 0.47344420793500047, -0.13976563348993598], [2.553399833936375, -0.02299919635696305, -1.7471759126029676, -1.9893284646324982, 2.830519139623492, -1.4892151236061, -4.376903805547756, -0.09270748694439397, -0.3683795162360235, 0.6779653319424627, -0.3311839840864991, -2.479653248831232, -4.066866792099212, -1.8354667732496595, 0.8430295890518356, 3.2631236747794587, -2.7879571718064398, -0.7866874486676003, -1.0291646987518956, 0.1383769911770024, -0.07057071232480087, -1.1189374913202133, -0.4195666748009499, 0.03790564328887087, -0.6193187418658546, 0.006532417098372446, -2.933838011346263, 1.282469034505986, -3.3440642751076326, 0.1889656249617742, -1.263218554129751, 3.024033150238402], [-0.47936318176220216, 2.1628830150255656, -1.6731590377117405, -1.8605783196389447, 0.02869528332259412, 1.2861887722074878, -1.8695093413538784, -2.144685405743013, -1.6744399648915576, -0.30621567477370093, 0.5179063050581264, -2.484617331775051, 1.7340285626152745, -3.375948691122785, -1.1639988879429741, -0.5882071283715029, 0.35281598348249016, -1.842659465525643, -0.20079958650688684, -1.1803801108357086, -2.261773878175725, -0.6881931340059532, -0.02475013825331757, -0.6212672840065677, -0.878243585670134, 1.9069915510419109, 0.3718192758998775, -1.3392206512051126, -0.4803690941561785, -1.1560916143690563, -1.5051164763302873, 2.9670621599417304], [0.5413021637013407, -1.2985337513529127, -0.3775959274397627, -1.231787755084159, -5.0141073697966485, 0.9618190939902985, -2.1357285508937376, 0.006646306933049834, -3.465186358618052, 0.9647925278750857, 0.18131178798572306, -0.8137784207983471, -2.0307448377526045, 0.39270958721759125, 1.7878345194267558, -1.8385792707774058, -1.7804322670076502, -1.661046390973928, -3.354876516321491, 3.776482879311325, -2.010994944515675, 0.088033280317626, 4.206381215937088, -3.6306286636128875, -1.8662964780872617, 1.1868277535495484, -3.367253083993203, 3.1730907120478022, 1.8026612836445763, -2.911995750818101, 2.132723038322984, -1.4743860946288343], [-0.48942276496300857, -1.5728514151613064, -0.7186487593697624, -0.850371635038664, -0.42566655372150436, -0.8888248063349038, -0.6478338468038812, 0.4143012469930145, 0.012231057971804507, -0.3992870149270647, 1.615605760464156, 0.9642563663130888, -1.393045092394706, -0.6466038799481658, -1.6688060824453166, -0.5490864042788718, 0.30778302398627727, -0.6126078623376715, 0.5868741061250718, -0.1350264842232473, -1.868940928231879, -1.9159738120758527, 0.3955831345890404, -1.7387354811471698, -1.4834123496086487, 0.7466587342274545, -0.0277047569283174, -1.9277103623211835, -0.3876612404815497, -1.7778851947864251, -0.248946197325068, -0.1331380853134838], [0.26092685797433945, 0.5438896847357175, -0.44182255230295636, -0.9817115795896773, 0.08441185651013652, -0.8424839448878346, -0.7483919497218094, -2.110452459187063, 0.21742872643600042, 1.1695472242649694, -2.0536827984645356, -0.4203329363813881, -1.2782385699408751, 0.25302288321578603, 0.4295297729062738, -1.9595052740992616, 0.6311288563362315, -1.1244033803447593, -1.284849530197467, -1.4471049450814317, -0.685201075010573, -0.6712563532288203, -2.710429966164441, -0.020141791574452537, -0.8160456669954416, -2.135655769016664, -1.7758597773499467, -0.13514368308382516, -1.098303312946367, -0.019976589240142683, 0.29543227282203427, 1.2465370098835002], [-0.47007014159007987, 0.5915972567400659, -0.15182063411059066, -1.5392117345366627, -4.894053006200295, -0.8107101897852279, 0.7283349545072129, 0.225387124897647, 3.9882232998036717, -1.870650919695711, -6.132747594234183, -0.20463317687256846, -1.5533094399514535, -0.8880152706171169, -0.31033574679294273, 3.971941438906382, 3.566723316347908, -2.8399089645680897, 0.46826885097601445, -3.6097576397642355, -3.6253385435446854, -0.9776287849919842, 2.950967704646687, 0.5950972910152312, -0.0032560781680850293, 4.373914801309706, -2.106020602869922, -1.0325387567177022, 3.7265836027088284, 1.0093830456176562, -2.6965406178951623, -0.40788425827724545], [-2.4132128728413824, -2.8722227473150728, 0.5360684012635847, 0.10391481028319272, -0.8275178706010606, 0.928021884883883, 0.8799812659256507, -2.800908811267722, -1.695519471987268, -0.5677709914808354, 0.3884603640343629, -1.7776635054958811, -1.117381072702559, -2.2642654941363594, -3.057363992817886, 2.376834439825414, -1.1313246223580793, -3.8512020109106526, -3.063110965202634, 0.22775050319220233, -2.4202591921992282, 3.67293772591323, -3.6438171682690825, -0.3394727921054351, -4.468772491627823, 2.4277628512294225, -2.3138827021570942, 2.9661330779652255, -2.1350106212721007, -0.7900380947266838, 3.119587323000357, -0.46507498065424363], [-2.9552381525460283, -0.6418712476825521, 1.173940608779942, -2.9090811226470703, -0.9448932889161713, -1.1892430157943357, -2.7047508581797852, 1.6038704360831566, -1.8327034563882454, 1.4523462622054226, -1.151934577236595, 4.101610706376922, 1.593691559898905, 1.4485845299849494, -1.4057244850080797, -3.7450133118016766, -0.8341867569625393, 1.1653539720545627, -1.728921672448153, -0.0682330771709558, -2.2092030000102136, 1.2147847939926182, -0.6271417643805509, -3.8754783343164356, -3.712073797876143, 2.509406876805455, -0.8940871888211271, 1.7848560288116873, -2.000985944245353, -0.7270899646378596, 2.661870136284526, 1.3883673299887493], [-0.02785111925216617, -1.1324547874881052, 1.0987130929204367, 0.5742556068004417, -1.1818989190160893, 0.2402383379697619, 1.2722533516246994, -2.0603045814404144, -3.2358711971049607, 0.02411668639426094, 1.1445204406609013, -1.0980613041609126, -1.351029003487744, 0.5556240963052619, 0.4628393433975183, -2.4411819158868333, -1.918096176173765, -1.4038854378391121, 0.5711061654206966, -0.07286232335386993, 0.25935597830423646, 2.041938269784437, -0.5712853532009033, -2.3613685019871995, 0.6472108391822449, -0.5175780380251884, -0.9624309416132867, 1.5241095291778621, -1.6189911596041535, -0.8200900129133787, -0.9077406201253342, -1.0526738691845097], [-3.0955077748482935, -1.588683730610271, 4.1436843984990475, -0.6739325317790024, 0.2918703171713985, 0.23671991086640107, 0.3965336602676087, -0.21211838536130376, -1.6673334948542375, 1.5224758968681447, -0.35747700733301724, -3.5054500710490646, -1.170013594073156, -0.6862440327988815, 3.8235397191721394, -3.4996711885667007, -3.125743224363783, -1.4618560888374028, 2.61254859567074, -1.31837198666395, -1.2753902155299093, -0.4086976341404509, 0.54674398165284, -0.8935342177086494, 0.7115174133123969, -2.0163612685703547, -3.835762721147075, -0.32126056679346376, -3.632546861670322, -1.6079473608388217, 1.4108062725385293, 0.026971749346563316], [-2.121772422985324, -0.15898642803675728, -0.6188598253098224, -0.20404031961124008, -2.7473872342119807, 0.015233500540722124, 0.8280996505403815, -4.262187925547171, -0.8438656018481511, -1.1221064096613997, -0.044894286195252146, 0.2774123303893264, 1.7471281219629022, -0.9452854283299659, -0.18927886164617938, -0.9479888041404733, 0.4945797770786744, 2.785284556776726, -0.6576663122269605, -2.177674314742661, 0.9168525235029504, 0.8723013713995722, -2.1578750885435802, -1.435130972648941, -0.5585755062273737, -3.441271112803831, 0.823334560596588, -1.6447857060916418, -3.699650808156008, -0.37785130721468946, -0.8625805603384148, 1.6710001944532944], [-3.5083557403342587, 0.0016576939264924713, 2.0945518063575324, -0.5020860035733359, 1.4588330492238424, 0.23620499331764197, -0.42445181719561736, 0.0022382403722961595, -4.170487842824342, 0.1092845663367252, 2.782038947748609, -1.1489575317531309, -0.5111841493287963, 0.9808491165761426, -1.3058545826736836, -2.757831470672467, -2.8895200801780847, -1.0698982854690746, 0.43913761612765645, 0.2740147385732769, -1.7142253153798126, -0.5621714802518883, 0.016347916990650316, -0.5793648787899924, -3.4821702122859537, 0.3620069669631894, -1.178726710026663, 0.5219707159490307, 0.5306422282736306, -3.3733741627128846, 0.8541534244132606, -1.5459111846498543], [-1.7830722037136184, -1.4985725885901429, 1.9648014278453168, -1.2626104815958255, -1.5237587306002578, -1.0724860792416078, 1.8677527048646219, -0.5982637479994065, -0.3932365248629366, -3.803745675048394, 1.3515364178913007, -1.2793005691879407, -1.7019989185987292, -0.17721981181449803, 2.537385146684498, -0.10366126442357708, -4.350951075573828, 0.2019028337453015, 0.48604198113880515, 0.11648826795430474, -3.6940303674903783, -0.5629439673714185, -0.21116005384303202, 0.6282744104083975, -1.6824487603386615, -2.930771162767988, -1.553385881478959, 2.586807480633299, 1.445352014356441, 0.6855209795212027, 1.3744320444632763, -3.777249249439548], [-1.5686186934527568, -0.9318798188123383, -1.0972168402408757, 0.15456576256132132, 2.414192876038892, -1.0672838495571508, -1.7657406351871885, -0.7112054999730172, 0.06123022596861881, -0.1431195676937804, 0.8323553482274386, 0.22859296516897518, -1.129966252651586, 0.5882647494476854, -0.7200351724087367, -1.3212507609897204, -2.8342803264092766, 0.5566431422697962, -2.643516708002939, 0.6712366737282796, -2.6745046591713386, -1.6293833904788435, 1.7414084770189282, -0.44824794359607323, -2.4379413037000828, -0.9732191365942041, -0.07330253818541597, 1.645209882442305, -1.783608058010201, -2.469642811667352, 1.5812486291577068, -0.8636448421566392], [-2.656923620786314, 3.103389344984534, -0.7059520874964, -1.0332190397183583, -0.1643712828647125, -1.165890266898435, -3.5868564329812935, 0.8637024902831354, 1.5358041776769709, 2.3309429652192537, 0.15952406013311968, -4.465127291016333, 0.2087565903198766, 1.2577947846491528, -3.1418140662695784, -0.9780593661098412, 1.6616349575372693, -0.7669450752480943, 0.0214978452226736, -1.9772866749506022, -3.386564354519525, -0.5011946145987165, 0.775421448878532, 2.1162430149045877, -1.8517616836106376, -1.8158221404638584, -0.8484935503383673, 1.6061103520288762, -2.8861477790949808, 3.3057689337458056, -3.9181599894517087, 0.30542310299759073], [-3.0898461979635825, 6.567095658428344, -4.055328449879861, -3.0606529405164733, -2.9419786311678697, -0.5374284336936304, -1.2193764480323122, 2.2280882317242785, -0.9195059386232376, 1.9879344746970617, -1.5855855731370183, 1.3866158981107994, 0.008834323513103351, -2.508925584427938, -1.0071716467123348, 0.8945428302010956, -1.0952191275159395, -1.765229226074288, -2.4587941386146985, 0.2123882537851508, 0.3071528248932154, -2.104324155321692, 2.846781899343435, -1.5372697262957349, 5.085978515772057, -0.6738719203896034, -3.335454890696539, -1.4648010647096519, -3.952776920389489, -3.8566644360333115, 1.9068989076772473, 0.02994485274436886], [1.4925985459088473, -1.8757256730604148, -0.196094006607815, -0.21462565462500988, -0.2209906970955347, -4.426558900009194, -0.0911418583249223, -0.9068714519463641, -0.03312432136103654, -2.518658109134385, -0.09207180839749797, 0.4796469851759874, -3.7498847658711725, -2.2777834766182434, -0.9449207972417504, 2.0997241178228796, -1.807971160422395, -2.562047745133519, -0.4014738695381994, 2.9087691620161173, 2.8113575495029677, -1.8250178937946775, -1.729570798541428, -1.351635183490917, -0.23076518911812488, 1.8057284915090992, -0.4963037736632867, -0.7419759525855735, 0.3359202582196925, -2.5685184722502155, -2.3686660663449897, -1.8353079845235272], [-1.5821026811515044, 0.07145309834059822, -3.07424924276687, 2.899338030311356, -2.1759273898547162, -0.026219994346929967, 1.8504176116550075, -2.17165668429757, 0.498882717252951, -0.6661083201970321, -4.767416951541592, -1.3266591524380216, -0.8270879484917579, -2.040592318406261, 0.29803486437596166, -1.2554995487731226, -0.8578151330158492, -0.4990390850838446, 1.4330022350412694, -2.749339264187622, -0.6536257809648798, -1.5036228122977975, -1.0521294367968366, -0.04251093582986404, -1.8458278760702174, 2.3535407418040233, -1.8261556866850115, -1.925951566888444, -1.6756129037005236, 3.1837705407355283, -2.9584619044817346, -0.25092811992431735], [0.33167979401704945, -1.4014214928683315, -0.7829357647475327, -2.4818946720704096, -0.22972532520214994, -3.0307599649935058, 2.2070752517416072, -0.8045535291665644, 0.07261515679736875, 0.0021263933387407545, 0.11118028306764138, -2.9522357358355635, -0.15266781517073863, 1.7927276582909346, -2.097745131625373, -1.475668997235441, 0.4519522414789779, -1.801733687462944, 1.6060509517450792, -1.3330954069226464, 1.780872569564553, -1.0729973326041908, -0.3047745924730376, -2.878453141617523, -2.7496557235359322, 3.9879723975701395, -0.47519025548942245, -1.6828845324419603, -3.940100571271339, 0.6899855732098908, 0.8608521471364889, 0.4083674790881938], [1.335358155744433, -1.6199951515341382, -1.776019077317676, 1.6184386969419546, -1.5228107696682671, -1.785944248376292, -2.7237376818361576, 1.4907135789884354, -0.8904235865137213, -0.7596263996600315, -2.4013618774488945, -0.2630903329960382, -3.036911382497468, -0.015310818482643008, -3.654004906434441, 4.877651711084919, -0.7217769448876576, 0.5135378271541702, -4.1258133418209795, -0.24824326692961846, -1.7225911059217751, -1.3171901027619126, -1.4568001396377999, 2.832207490492803, 0.06511291450393611, 0.009832417647204885, 1.257015239418897, -4.690306380155718, -1.6854447520342624, -1.2102398846520623, -1.6577775018081964, 0.908042525005048], [-2.189780968051644, 0.6722668758025347, -0.7426882276568423, 0.30727288329158897, -1.9078910664681044, 1.0865755539377766, 4.525812985987107, -0.49143841605591726, -1.5262084121340296, 1.5453173156294588, 1.4455290142967006, -1.6628082979772476, -2.282482981454276, -2.8587043936288827, 0.22893296370648972, 1.3119283880829042, -2.402656562796421, 2.4605858312016275, -1.4416554505740737, 1.160713208128203, -4.6781918851229065, 3.0555859380037713, -2.632276673801746, -1.5609031354706082, -1.4810828951502597, -2.7128855654726824, -1.1972052470986572, 3.2532700008753235, -1.7975829628983864, 1.3811664117791962, -0.5706972969485088, 1.388184681382881], [0.3905987279116945, -2.573760908709412, -3.721909796606364, 2.9925282329199416, -1.94126448804577, -1.2621760320069793, -0.2828470443536953, 0.18730352821335552, 0.07390196807463013, -1.900126956846114, -2.0595687922960657, 4.382732057180587, -2.6416883165333434, -0.04634409707754104, 1.3263012718671159, -0.10129707328961277, -4.29547670112123, 2.95459028760566, -1.2160404760892722, -2.1223555830486927, -1.3173898464159521, 0.3414877420402923, 1.014961989820856, -0.5736807174713994, 1.7718811209590386, -2.2619647862439765, -3.6516784651717793, 0.9641244452409928, -0.7143161496262387, -2.4059483769537673, -0.9772138105660483, 0.2411452664051216], [-1.8913876064878485, 0.9044205236796081, 1.41648025331776, -0.43019016845618757, 2.3561151232312536, 2.2036835611005308, -2.982458540168749, -4.349773943380968, -2.539752578085125, -2.206012830165107, -2.836517289055105, 4.385798479722432, -2.758736649639406, 0.16277684195888448, -0.6965289660397677, 0.5022209648968619, -5.788959607646386, -0.88419483413225, -0.6669865922556123, 3.199193454939587, -2.102219983454601, -0.7448465249732539, -0.23331632153256696, 1.471467592149142, -0.044303067847203996, -0.35165533412933486, -2.926701931336113, 0.6315123606594039, -0.09411478135978615, -5.368171702443539, 3.674889623785413, -0.31891722634763503], [-0.6814382770793849, 0.31767266510862135, -1.4985129795899954, -0.6849057178897023, -1.094722988836958, -1.332196067106971, 0.050010402338634234, -2.8032988216197747, -2.5523546683184173, -5.600653948734328, 1.5134470045175683, 2.002910331668795, -2.0963215489502076, -1.6862082898159134, -0.9427071371648817, 0.9649009697406326, 0.6522679573683438, -0.9006860273566826, 1.1909198439958588, -3.938740665093158, -2.0812494688497556, -3.218022109684249, 0.3513303072491976, 2.827233844055237, -4.066691822118375, -1.2345306788860235, -1.4053490560561839, 3.380187542366422, -1.7860439260791516, -2.789307292298686, 4.403506490886668, -4.723263892916403], [-2.7378651070492404, -1.4007607721852124, 2.0517868247959927, -3.1148217419736794, -2.0526324665313145, -0.9880561403388955, 0.10845080677852631, -0.8682709742644076, -1.0734154520082217, -0.5844789243150775, 2.097039631971705, -3.2523878903566192, -2.735503297254102, 0.3585175981720133, -2.8144764028825566, 0.3470510337109746, -1.530147309667325, -1.889949269949924, -0.33408284704006647, -2.505514422253123, -1.128841845765703, -1.2723642342778367, 1.472316392840803, -1.311912070593207, 1.770346552720036, -1.147298845128671, 0.4880029417834216, -2.8805652897585774, -5.098468223944773, 0.11262658200907251, -1.1604956279479586, 3.043314182558536], [-1.7555599291512023, -2.619212254314813, -0.4350939280954486, 2.652405133543226, 1.22696322763942, -0.6872373105882599, -2.716707027134036, -2.661446550235103, -1.0860214172865565, -2.6805549615326787, 1.314917841744348, -2.5587776821125234, 0.09973349825827818, -0.4091408743938048, -3.1000522890738487, 1.6232063909398142, -0.26919026076997227, -0.9316038757138361, 0.6291954473596925, -1.168624035202999, -1.5526616458564477, 1.8257529831792438, -1.402502720839593, 0.8920049829516995, -1.1434165189839172, 0.6178280178998841, -3.9516837210808156, -2.541424656747421, -3.5927926034525335, 0.38487121207627506, 1.120162500026922, -2.1210159976909972], [-2.886253230374625, -0.656849682779615, -0.4887486520679154, -2.10590263717254, 1.049928197882968, -1.722712431197493, 1.268861375726424, -3.6445066567752997, -0.2637713526386983, -2.8326966816629637, -2.0723339412380564, 1.7942508903577001, -0.42494725169397163, -0.5789415570438311, -2.2303164881639868, -1.038088404227162, -3.912754996155214, 0.6239890540777624, 0.47914555535548947, 1.1720645899123427, -3.474621022489021, 0.7318363153459675, -1.0686556717950224, 1.8121069547760373, 0.8081885870447246, -0.17200354280542132, -1.576878929905502, 0.018138085028675626, -2.619101983775038, 0.6371485867605837, 1.3525537493759097, 0.4727682608610277], [-3.2556603204718746, -0.8582247898851787, 0.2606235883925286, 1.0695995801030735, 2.2072193750556894, -3.7105951795184167, -0.5183282929784522, -2.7948910108517717, 2.807734212428453, 0.3339009080654629, -4.196745513483455, -3.7031487249875634, 0.9213515156836075, -1.3637008807237252, -2.1200425701515915, -0.6561574716712508, -1.856498834203768, -3.481135337089842, 0.4747335286856091, 1.1416528867495452, 0.10082303088132838, 1.7636946390873451, -4.433235010873013, 0.08824330426842994, 0.8381194031518364, -2.150945790635227, -3.1144315783246084, 0.4962273477519223, -6.866435633916547, 3.182747424057492, -3.9248182853818117, 2.6329017406773048], [-3.8986116758590272, 1.2559529572185124, -2.0935668439794513, -1.2704851476589856, -3.5890636944551715, -2.7283512683529323, 4.721370773872502, 0.06936785112278561, -0.3046112299199101, -1.1635438582492421, 0.9512383806293191, -2.732375413608545, 0.6576356750728393, -3.9727049161410117, 0.9558771929257004, -0.8382719007814202, -3.6907427199919343, 1.6079247483809496, -3.3552138146086277, 1.6025011008360817, -2.846800275036802, 1.8534605056435993, -0.14164465344429583, 0.761853989991977, -1.8681153322813415, 0.4802433131277972, -0.17714183644585543, 1.4104533286319305, -1.0493571374887904, 2.0698894268309567, 0.7166971754291889, -1.7887554241695272], [-0.2927190391965885, 0.8869720691482729, -0.8183747729613965, 0.1862356069734105, 0.4754296103441509, 0.12495447772801478, -0.5921687805063046, -0.9708299558397125, 0.640847287438527, 0.41361125540859406, -0.6228455102816979, -0.2316822164111005, -1.0551531750619492, 1.3487930252096196, 0.3853334764512175, -0.13262606382868564, -2.0714194413415923, -1.2342037247381537, 0.1896182370513361, -0.47850967879690315, -1.9017543366306269, 1.0816861338265584, -0.8734960964469154, -0.06417404010931477, -0.16084015628810655, 0.22616529474058394, -0.4620991068266514, -0.20977378989762063, -1.8509854246052662, -0.7277367156691296, -1.091242581178889, 0.20995739053515305], [1.8396215829925313, -0.3522047884051884, -0.23737751437743265, -0.9096180503900607, -0.4019623188218958, -0.2695900840237291, -1.6360404798714638, -0.914927425013352, -1.7519886821162352, 0.3148674509649718, 1.2959889271073473, -1.0335206579396896, -2.0412144262761354, 0.154125414339808, -0.19104759574622548, -2.337290697718881, 1.1349793871997642, -1.0304367167407122, 0.2918299234707279, 0.8939051434564352, -0.7723850121532583, -0.11563849275479099, 1.6155904311750025, 0.22946842701786863, -1.4961426729332694, -1.501242876921505, -0.12209187309207419, 0.9369051284423255, -1.8247009195050572, 0.7965119535344304, -2.1209649974313023, 0.9353680075240961], [-1.852105184726452, -2.6134141760115814, 1.5898945580792478, 1.1625765716548464, -6.019696218057114, 0.7881146623600127, 0.7110960447793017, 2.871343444013021, 0.49795180752272766, -1.0532458983687198, -1.0135479995620391, -0.7323645141576455, -0.4697694440990321, -0.9016136497336289, -2.2398732616693917, 1.9189395611027744, -3.6428383751449, -3.032013875378133, 0.8670216304447402, 4.574388195272192, -6.225420623261633, 1.6633309778096905, -1.2456745004562786, 1.0107084124290302, -4.999828561290614, -0.16602757873456345, 3.3688992147115973, -0.9617018542502935, -1.6195461474041857, -3.044957419053146, 0.8702925798086658, -0.6332311515384552], [-0.7046330264332994, 0.6169532460592637, 0.7525876556462339, -2.682684389750817, 1.2486652963573317, 0.07965698765518348, -1.2883151473516048, -1.5017137799514235, -3.6559739380523166, 2.497563921040447, -0.5831462547416018, -1.420775971107197, -3.323428971911771, -0.45334943191510846, -1.2924359561658272, 1.6938409555754348, -0.9506855339602527, -1.7239671475528695, 1.7638253743892036, -1.56775577436575, -0.6828937240993935, 0.184584875678237, 0.5580824766057392, -0.2450756756285601, -0.2376038235421074, -3.353843307427155, -0.6328695227630414, -0.3660501147129041, -0.4249182490554548, -2.2739899331010616, -0.846439374267735, 1.5741423449596204], [-1.2835664795979553, -1.1613820298029427, 0.42312253598335897, -0.6128820935399939, -0.28472360415776604, -2.1021552951209337, 0.9922991487439935, -1.0371365776885153, -0.07918835808478394, -2.5154753526155353, -1.1555928565484666, -2.6130531005717104, -1.3133664127890459, -0.3719128791297542, -2.5987877512980124, -1.3197178597273111, 0.7618758592848732, -0.576400456060356, -1.681432565375436, -0.19062880817225236, -1.5100116212763628, -0.8963772411302461, 2.127676596603676, -1.9619158368952272, -3.1650361830940525, 2.2339333323245367, -1.479294597056417, -0.7082399712501063, 1.93666614910609, -1.4033117390551502, -2.5225969997703817, -1.920237134096735], [0.8951929452780376, -2.129330968274465, 0.4227347929760263, -0.34385775791120815, -1.7159341954399288, 1.3410459529836334, -0.534051074190343, -0.643833477245816, -2.029578804959152, 1.0037236228645217, -0.2896936169703905, 0.47840774021259913, -0.13462080888524935, 0.6887921922777175, -1.392192988144767, -1.783510526992302, 1.2571399956213278, 0.07933631705138929, 0.6631644298012429, -1.5343085271148382, -2.8214218819482166, 1.1114539437464657, -0.5260139866002105, 0.14997073045350914, -0.8766721657731545, -0.5519381825705227, -0.9746509628580555, -0.9886730673880584, -1.5369543786335258, 0.7698748306480127, -1.5207757972671343, -2.5019392940596203], [-1.6607840398714746, 0.10580912748291438, -1.0015318977778231, 1.8120904257224675, 0.6387521505490439, -0.5799773859977562, 0.19721511151996937, -1.3823357772065687, 0.3905222384994893, -1.9112442753185264, 2.95013631962279, -1.2962984814958938, 0.27276168573377424, 0.0067196821851769626, 1.4401191013538683, -2.3282295842977567, -0.6057743242222814, 2.2917299294255833, -3.412627670907761, 0.24018073130582873, -5.248623866687923, 2.441072511572751, -0.4510930026177471, -0.6068973770504175, -0.9720192509561127, 1.514448425084312, -2.6411573990720436, -0.3638364114021609, -2.4330428651495537, -2.6699574514352022, 3.6093498850040224, -0.5152425642272064], [-1.0373027234369698, 0.6985905321845519, -0.7883188674884175, -2.3928530297234305, -1.520498886353644, 0.22129817315868747, -2.2426209779910997, -3.474946997806108, -1.7646132204378158, -0.6689659751856387, 0.6806632865064149, -1.881843005907983, -1.1155100911992293, 0.6212664131050576, -1.2715634556619617, 0.7804941889426312, -0.543936057832732, -2.3081398055302014, 0.015740814850176723, 1.9367965909031244, 1.1020349385880697, -0.40646140612837284, -1.2578184746795966, 0.26776898540553007, -1.7724069206839614, 1.757716698586936, 1.0760866318698075, 0.402681923371264, -2.609559860669461, -0.563311546864916, 1.7161272693757095, -2.45051290590269], [0.3485815726632117, 0.4036278161243525, -1.8864820667789866, 0.8832532721236364, -4.479026281625467, -1.538629922267312, 1.7558431731437052, 0.506238621016423, 0.372641753337708, 1.6878055106691388, -1.359322890489591, -2.8150139375140886, 0.07190146779073397, 0.39936175416975944, 1.046309179803119, -0.8004817220182741, -3.614561954349651, -1.5114309817919784, 1.8959323156251808, 0.2649151559760757, -2.7051068859692595, 0.034973365821434815, -1.5211504587730649, 2.2751944966331976, 3.290129344706152, -0.15243338944809878, -1.6329260204456202, -0.42332666431936333, 1.3057442616266437, 0.6174869949977857, 0.2543246765809117, -3.0656699752023857], [-1.3858221475100072, -3.343093035190604, 2.943658883924971, 1.675637776909496, -0.7923893940781689, -0.6668878887721863, -2.384607769264474, 1.4127135145207035, -1.0295947624430666, 0.6015451739515031, -0.4227875674936983, -3.083445837492961, -4.392724485827509, 1.607367466332399, -1.3700864319752026, 3.73338503566525, -4.0333437118739, 2.590386017087943, -0.19340040759189064, -0.45514308678998494, 0.8230614683951186, 0.1297528253428778, -4.186826822884427, -1.9720889910750967, -2.0406503111324437, -3.664061058721069, 1.8238383094736466, 1.9192827508538304, -1.2012851516840717, -2.13074812335012, -3.2805645208121352, -1.8565911369780943], [-3.403896113272149, -3.6341183637367815, 0.7664031881982604, -0.18901174914052443, -2.510639296884051, 0.9745377834735551, -1.9766224668918644, 1.5417319169949095, 2.5183509075013752, 1.4423499175774372, -2.467130264727343, -1.3896269040198468, -4.376403007195917, -2.407737506921833, 4.046158611614281, 2.9480207455446164, 0.5230334313512843, 2.9774847556124824, -1.8256121953259115, -4.535736093830114, 1.6680958777253898, -1.1675781856494796, -0.1412348496007873, -1.3639332378787608, -1.4421547761337496, -4.097926019408928, -0.4904819569753264, 0.937156536190706, -5.778418720101226, -1.7850310642220863, 2.903059356964676, 3.568103215964532], [-0.26456971057537615, -0.26680062899889917, 0.29351558439821396, -0.560897413490107, -1.6592884790240567, -1.6428052850279644, 0.6862921789420363, 0.13885741866760234, 0.49202459169174767, -1.09600738056468, -0.3657555247061307, -1.9256431952294162, -0.5801017509523874, 0.5255186727484222, -0.7286056138688037, -0.8763476222960194, -0.797968142937091, -1.3468122605337955, -1.782813050990037, -0.04619705377167687, -0.1438681964731097, 1.3167370426910003, 0.27886424168724194, 0.04947633755051624, -0.5766882638613265, 0.4749230249187138, 0.32636635922946133, -0.3165148714160128, -0.03640521880377068, 0.3858568853489298, -0.9742869078687566, -1.5263398160748485], [0.6324106429634166, -0.5121032023911859, -1.4068626551525019, -2.158077990730842, -1.7418913546452077, 0.487919357748483, -2.4123037832845347, 0.24599732995584359, -1.6456426226595622, 0.1538260467423689, 0.16054982111387145, -0.6486523048908884, -0.7167752137481109, 0.06517646798374134, 0.21574887445992239, -0.38422478380071745, -1.3301651370035, -0.7851979455856046, 1.0902409462756655, -1.6318600927320308, -0.14434795316635218, 0.43273406186585234, 1.483845579846617, -0.5768499868595552, -2.394308787441841, -2.6376536845288734, -0.4324525444064275, 1.0852794137928474, -0.3028160804173196, -1.540432484739654, 1.1349623383360787, -1.1788049508104033], [-1.9274996128701376, 0.9550483299290066, 2.148825221757113, -0.2645992403897578, 1.439449300109723, -2.0322362846326354, -1.5498016731464868, -0.7905641902818537, -0.015476222247178352, -0.9940786613896785, -1.0040683557600711, -1.8330020619042269, -0.156036174871565, -0.3074905048538602, -1.7276652749861103, -0.7870302522670577, -1.3183158295294233, -2.5395774362633676, 0.4464359901534964, -1.133906202353172, -2.1652632093058375, 1.132627370168576, -0.9078199745985691, 2.951016176770026, 0.22259810429196253, -3.218103865404767, -0.9249651126102019, 1.2881641026756905, 0.22835240368083026, 1.0164737875832217, -2.2611381452082853, -0.8306604158231632], [0.4043410064119997, -2.729154220385016, -1.8392553943347028, 0.7081828861703, -2.8983290237660886, -0.5570251868518586, 2.8355955079779087, -1.3751424984155056, -4.494200812400464, 1.767304217189784, -1.415164184238288, -0.1124898459431421, 0.379596667034307, -0.8418978383612465, -2.620049354713562, 0.11758613108157559, 0.9428685600817895, -1.448205880896149, -2.5440008922505335, -1.5246736672916874, -1.712059949913607, -1.343296545053047, 2.0988635269311198, 0.7661956235938903, -4.012816575790277, -2.000726113124497, 2.834347569069583, 0.1724278791188255, -4.2919452322701215, -0.5816604378193773, -0.13030598180971056, 1.6524823824747017], [-0.5250556977194347, 1.0677500438675638, -1.3849033339769334, 0.7416833727987991, -0.9187837626662696, -1.6496919691872303, -0.9408777151970471, 1.4120816113142023, 1.2017545587003575, -1.8940143328293964, -1.2890118664173362, -3.070299567023978, -1.4825335918789238, 0.4063383634824088, -2.336378440479218, -0.10128928264137975, 0.35804987708892616, 0.41540283860517574, -1.0076078942102586, -1.8680952936917508, -0.11743256166780991, 0.54789330063005, -0.495054471156711, -3.099000167043966, -0.9724107528698518, 0.24811483779255766, 0.2651572580764681, -0.9387155343217942, -1.4559871224969143, -0.6610022616148447, -3.0885625671751074, 1.4990050496300593], [-0.1759202032898924, 2.1864307773909473, -2.7666981450595287, -1.046547255506245, 0.8194980631015365, 0.22208094252582708, -1.6067963442427695, -3.0505192645500587, 1.6907262915215489, -0.7054865245373739, -3.8403187053488397, -4.3667328555853135, 1.1155656634032123, 0.9393255631205022, -2.4387003985116262, -3.3291476587287114, 2.0673891344467723, -1.605147871246387, -2.2058120925405253, -1.4472454632522114, 0.3881471898482187, -3.4323178623383406, 0.1329601035490147, -2.2815047815513085, -4.311938413443884, -2.007919733041954, -0.18713376484147407, 2.1583537499020666, -1.012177938829088, -1.1648764966833796, -2.187008942158926, 0.5257869317996943], [0.7063893525570194, 1.7531200385176033, -2.5773902218474665, -1.1563306866533385, -2.9766519119543355, 1.0686159716958474, -2.5818205919720443, 0.728048830501389, 0.7014862316105291, 0.25161153120919877, 0.2536675423666958, -2.6182381403589257, -0.5496761550825372, 1.9970492256131924, -3.158323943563822, 0.8179381653916571, -0.7607407524508937, -0.9475981181966872, -3.092918963986778, 0.20862793016643985, -1.4418921249850905, -1.570498660068534, -0.1380406227735007, -2.0044261861965773, 0.4543491004768361, -2.411191068812464, 1.1194528923990155, -0.06370155599544362, 0.5058917420716026, -2.6912892942001347, 0.5115622179272877, 0.36270956463119114], [1.3621848149107185, -0.5226696669268243, -2.1263313201714187, -2.3299138632846375, -1.2803759446723442, -2.657243661655518, -2.5091895287554777, 1.0390082441634532, -0.16366907000515454, -0.7418471441700432, 0.635065614424527, 1.447471367943382, -1.130113811386051, 0.011038093467355193, -2.4297821492840117, 1.1665145727777066, 0.6201287659637215, -2.099074076926758, -1.857877710746961, -1.4924185546389321, -0.5646192509097643, -1.6389764136014402, -1.3987845354966153, 1.9098629502821545, -2.2198819415195836, 1.8930594299361554, -0.06356318429234141, 0.043185087210217576, 0.5177706284648574, -0.22791105708413237, 1.655789068413664, -1.003162264383693], [0.8451340853234544, -2.9586950613584957, -2.5552610278336854, 2.146326245694721, 0.6837494484620448, 0.2653352494425872, -3.643312992879342, -3.3336042409605757, 1.7658319221085366, -3.4296971285019837, -0.44566531145653826, -0.8656318116714996, -4.220654455845628, 3.837959384442139, -1.4181078640882878, 0.6939774433647626, 0.822797224378573, -2.593146032392237, -1.1641929889829168, -1.348508214258348, 0.05021897129522457, -1.7192064330895935, -3.9248853239015373, -0.4295166889742823, -1.5480081226790534, 0.5526756361008431, -0.8870998516248753, -2.03669834380191, -2.881048797203514, 2.4016382818482156, -0.5713537274576864, -0.650086570323671], [-3.1695956194467465, -0.15372743745206943, -3.337215043191244, -0.4689754893106724, -0.222058567878524, -0.7964055986938265, -0.5963268264198299, -0.5041001515243532, -1.357880346411902, 0.381048260021933, 1.7619399181627808, -3.119471452664309, -0.386221300639667, -1.6866058586276556, -0.08643900294600806, 1.187850717219259, 1.6863906315061779, -0.6658782868595495, -2.7648663997363725, 0.03134191053430299, -3.2978440121291954, 2.4577097290021643, -2.0475107550980063, -2.027940557369765, -0.5688966159238916, -2.7605559616695547, -1.2967852795243866, 1.9307077647978361, -0.5703143758393657, 1.1538863521607081, -0.4520949941654875, 0.05797374454099872], [-2.4215977736992067, 0.27233952434886205, 1.8470664068922924, -2.6818221238263225, -1.6768273625438495, -0.281495387782166, -0.6065691615632341, -0.22349654587230228, -2.5887390868236007, -0.10040799945817211, 2.825596911035726, -0.01806143970952578, -1.5858309456328559, -2.3523828985995827, -1.3667823732486302, 3.285816831998816, -2.1631418388734804, -1.1384176372801968, -1.398814296762806, -0.144293852361659, 2.3273020908506523, 0.7305413101077151, -2.9203973635298315, -2.6715438927686317, 1.3463506346400427, -1.532272966957586, 0.5374578685317307, -3.037586895133387, -4.242499633904407, -0.10589413554857442, -0.2742292876024233, 0.1274978274326957], [-0.12431826548362575, -1.1286857191691717, 0.624186880602645, -4.416314168167891, -2.235524563483637, -1.0073644839652907, 1.8133784279180825, -2.799623350802971, 1.6094887717913302, -2.756723324729563, -0.19444125427524261, -0.42874479809319144, 1.4043142590174142, 3.830645149323324, -1.106276435545996, -4.120803149252255, 3.069819190219264, -2.354560395392928, -4.336984036915708, -0.21796834418885094, 4.049186220821342, -3.3464528016774913, 0.5411065610482022, -4.957513230082934, -3.3501599675543945, 0.32733389173843347, -0.25795109971770896, 1.9562334699795867, 2.7259789994444326, 2.4962316831655533, -5.3648796013568, -2.558192282854496], [-1.5150487596926216, 1.2773529989979568, -0.43323491162121236, -0.858968341886574, -5.637055727243486, 2.4604581091948425, 2.1060733148435626, -0.2631821970849501, 2.485524940942074, -1.25533202039186, -4.58548792550601, -1.9182956818035084, -1.068902340524263, 0.20106659068892593, -1.3782953447022641, 2.4650567218726125, 3.1447000997446186, -0.7893015652014279, 1.1566136255752575, -3.150131281756844, -1.866484038059325, 2.536370014713069, -1.3160033402464073, 0.326610088542155, 0.49035862986399475, -0.7618355242446517, -1.146345555444014, -0.4029288233865561, -5.444671626208431, 2.410834016911586, 5.268355323690973, -4.881456997903843], [-0.06349847900591171, -4.465200886483022, -2.165379651447861, 5.434249523503552, -1.4193554365477643, 1.6277681544039955, -5.381695329525956, 2.6971735922914735, -4.468651974075978, 0.838517434890902, -0.16132892173417618, -1.6686865043906742, 3.9619615320366477, -0.22241911826785285, -3.856908685797628, -1.9671906849189715, -0.9992337520037868, -0.895439080781735, -0.703542893203704, -2.0850987475744027, -1.2882398419686476, -1.7280449262010553, 3.6508389134808015, -5.1873945960534, 1.4612847960413458, 0.6253465775045103, 2.1742234256171855, -2.6872546386554235, 2.0093504637692297, -3.8753372848045493, 1.356646066150756, -5.020277484541784], [-2.111969768029959, -0.575946794099499, 0.3472288565677009, 0.027587192962747167, 0.2797134640571309, -2.1430352290606796, 0.5740784182112748, -3.43763698801572, 0.5138061954709189, 0.06286536833037538, -1.13199585535783, 0.2032308713291659, -0.01996960767560501, -2.0259924565225287, 0.847531296439074, 0.7434480751792866, 0.5679017738117672, 1.165683751822337, -0.14505756510442092, -0.02914265128970721, 0.17030178158949522, -1.8303592513820657, 2.175313037987321, -0.20968269911447365, -1.521285457297543, 1.7275661177601633, -1.9395407063873038, -0.13755482077551587, -0.45337536638397946, -2.197112116523681, -0.7693493030685191, -3.3803780289368763], [1.6170816424795853, -0.2215462808495875, 0.2675067642638763, 0.8445490134390817, 0.6350472585411742, -3.078608520751055, -0.21813194628135366, -2.7874834922160647, 1.2789673485669222, 3.009014189582457, -1.1339471226956623, -4.248319160487707, -3.538443457181975, 0.7440852886656589, -2.5741839876508297, -1.709254933527612, 0.9086310726082438, -0.8524408222120504, -3.373571518096431, -3.1973140176763, -0.11096874063927487, -0.5125063106497053, -0.24359023690040096, -2.5353209821312177, 0.7573540238122036, -1.2449979204019164, -1.1493303820862517, -2.5711339663494397, -1.7746354925900354, -1.3732756060088702, 0.3137969634938265, 1.5391003422061589], [-2.7378993120748443, 0.778213259416988, 0.316113656225552, -2.414452688381261, -0.3223455641110812, -1.4037129108753388, 0.9810590017414285, -2.0760323540296306, -1.929601456780166, -1.0268740256613247, 0.5124394615672077, -1.5942155729634686, -0.4765357248553024, -0.9851265457394939, -3.218049082123877, 0.6207087547438529, 1.6361687674124312, -1.2828193181381944, -0.35880303119366874, 0.8549519584592796, -1.9977259697092902, 1.820299422873791, -1.827506925996347, -0.3253125318682561, -0.9177597089203391, -2.3649729564611515, -0.30633845106415497, -1.2191116550745518, -1.1617657956602643, -0.618321525791212, 1.6074979345132683, 0.32595849216559875], [1.707977760077008, -1.3339012004011266, -0.7110668646783977, -1.5968387561534834, -4.278644329120969, -2.1214209808931033, 0.5282842658968872, 0.22100212357037669, -3.1724932616153474, 2.4024196119922925, 0.013271724085881672, 2.7494598364263827, 0.43507473387793577, -0.9168631418085499, 0.06681116009548602, -5.1880380805376385, -4.591789743558232, 1.1152113027858008, -0.15413889232727962, 0.2017074906793981, -0.903710864946918, -0.5308377867698172, -1.150189601130167, -1.221168291307602, -1.9488645008684549, -0.3160536942840841, 0.24765502005225717, -2.2454734827371268, 0.2613132221570027, 1.7702289491262302, -1.1275980529561285, -3.7714507317235033], [-0.4903790204778865, -0.37625025790233935, -1.5994004787828333, -0.4567448994029311, 0.6873569071114796, -2.190753808764547, 0.5801472232457674, -0.07161494276614251, 0.16085043045240535, 0.36932390675953786, -0.6645438189376883, -3.629513347690907, -1.3785594637929377, -1.85617153566586, 2.4303876746218136, -2.7493119979674936, -2.1625304824026386, -2.025533443523047, 1.267590387586234, -1.4113822807302505, -2.116391030107707, 1.4404465721902577, 2.2396947991474425, -1.7772743051816793, -0.7352751914449421, -2.393266110996692, 4.006064212302469, -1.980252469910682, -1.2486283381240306, -1.9782001544562937, -2.1513832403994164, 1.7820555039441908], [-3.7501939948313074, -0.17690930388882614, 0.006885519660226901, -0.5402605625096374, -0.4369448144928388, 2.5806822230091653, -1.3959414689508352, 0.3169733534770677, -0.9168783316173722, -0.2405419964666622, -0.8994255145355373, 0.380197142617016, -0.2344211155000355, -2.0713735493877667, 0.4260981246322468, 0.28570948497222076, -2.9195204727443813, -0.25732009144012125, -1.3666509706858576, 0.8346222974527432, -1.9301272574129789, 0.6769901528803234, -3.3048163312574386, 1.6976667176332798, -4.069360850461592, 0.44752494530696446, -1.346194604549579, -1.6317633267372182, -2.298545085836479, -1.2347119963793622, 1.4869830612873063, -1.867236958274262], [1.0144936405253198, -1.5957737357448487, -2.7648313423881636, -1.3877368055289139, 0.44766568308820187, 5.644177792112283, -2.920112174148954, -1.7398531678104259, -1.5017627664132287, 5.401661072245324, -4.318498541257824, -1.34057735932968, -1.7408500920149776, -1.2142073755122675, 1.9188993572818167, -1.8599951015162228, -0.12076434660847946, 4.397338704010728, -0.5805362412796425, -5.222215630327168, 2.0563144744860864, -1.5867266939959217, -0.9047005782273548, -2.0342797057315183, -5.167892849801199, -1.108347037916413, -1.9049266395023168, 4.026083642528002, 1.3359452861289658, -1.429683843960024, -0.5519273749658203, -1.6946550322594705], [-2.4992187648567703, 3.4327141412683018, -2.098721529697071, 0.708656915505193, -2.2634219564756908, 0.8893421032177672, -0.12239339573042834, -2.6091057430876208, -3.5492152406020834, 0.407037935464327, 3.8084949725948727, -2.0820901601704627, -0.5333104473662564, 1.2007426713077252, -2.456187111711617, 1.7283901181354446, -3.8904598051628345, -0.9008741799130844, -0.24882930989190227, 0.1474555048794906, -3.036507777663489, -0.9538303455552726, 0.991411552775422, 3.4058506107376685, 1.2805075567549622, -0.3734232260919613, 0.012009245411830651, -4.676599309465136, 0.34539624997669294, -3.547511357026803, 1.5192871285436342, -1.1611142280580231], [-1.0263658114078908, -0.8648923242577323, -2.351274161863236, 0.5069701482348152, 0.8411856541165301, -2.1397770463181502, 1.949818700562363, -1.4533809186382187, -2.2165094273667387, 0.5825386452935296, -1.4604228289359, -0.10288738089991421, -0.01838323635463589, 0.1929254912538687, 0.061105172079287895, -2.508401511574173, -1.147345058534506, -0.684286963536108, -2.0716178762130917, 1.3259763954640595, -0.5426394580120768, 0.5060821509834804, 1.9171098131782573, -1.8113014990100245, -0.6314741744249759, -2.5966114790168326, 0.6297462955189771, -2.6257338450279675, 1.381788800200163, -0.008296667780726073, -1.2694037928897874, -0.8921549957547157], [0.41181774215422645, -1.7231384450967917, -2.9190898753284755, 1.5450779274037147, -3.0609263447849693, -0.18216421458099563, -0.6111171196237438, 0.025971434663328043, 1.2979500153900607, -0.5066827677590551, -0.14021693113515935, -1.9051969728583489, 0.8044246333336703, -0.25607499555018043, -2.3500183780163018, -0.3142708999202007, 0.3121536778631858, -1.8985583148804137, -0.43883182750801225, 0.23538329398170785, -0.23177341611255356, 1.6719015978221907, -3.468686239234912, -0.9870905010833066, -2.4997124728247284, 0.35844943718384215, 1.5478537781735986, -1.6228444405134386, -1.039268744484371, -3.057046657801087, 2.2293367000148407, -1.711585206238853], [0.1985721567697908, -2.8834324252968493, 0.043785410878348245, -0.7875661789642805, 3.011322549847129, -1.0695856434778366, -1.9339967922242132, -1.612142724037983, -2.8130119911587714, 0.18279722217876862, -1.1583606934494528, 0.9121648253944049, 1.0356544006853934, -1.11159646280577, -3.1286555229139283, 4.784806448549703, 1.029548905281076, -0.3850385127271784, 1.0889631124201906, -1.7787193266971069, -2.605388901725154, 3.9350364807993787, -0.9568468687312791, -2.1508430109382846, -0.6309456733387089, 0.12032178973290045, 0.9895285277885357, -3.5886206195254378, -1.826119310612724, -3.1845293716780714, 2.6217239524193543, -0.282597400086702], [-0.6439233370073825, -2.7866237428738603, -0.3656199525252527, -1.09022519958218, -3.254712246020421, -0.6259899011089647, -3.5578699746427027, 2.973727260287268, -1.2340392117781394, -1.933962863219709, -1.2400933389321096, -1.5218534011920843, -0.2821833475043029, -2.3789539240293496, -4.161111817844614, 0.17948136592163133, -2.4520448106195056, -1.2940616044264428, -0.5461288716663739, 0.8571370489518777, 0.9754410653683883, -1.796921498245346, -1.7128431542386053, -2.7118920208508333, -1.5471728416466501, 0.8235844401006013, -3.594464133701342, 0.9107932887557627, -1.2412342575290038, -3.174834264057586, -2.254354427692819, 2.7675080662589693], [-0.6685692279631841, -3.9052155904978116, -1.658809597635347, 4.489338791828213, 1.7975849354100828, -1.2626115890428582, 0.9221430467740906, -2.0827309688264344, -3.3429628195198857, 0.9879324410457282, 0.31674975134222727, -0.7743225957275429, -3.9666518458538444, 1.086844749434861, 0.1264941046206482, 0.6030102797316357, 1.264870930178964, -0.1071083605076162, -0.6942896397899099, -2.8058196747225477, -0.16400094307274982, -1.1152964735374962, -3.992743915184875, 3.1606801255984873, -2.8158951842790825, 0.6979159147559424, -0.7449203885647898, 1.2818864725896693, 1.0558872981299519, -0.6583153150120274, -3.7295117479710123, -2.0067833512937874], [-2.7694733636394444, 1.4599917450087811, -2.2672696459685304, 1.280322167905443, -0.507182887193576, -0.3428417239978777, 0.11201549342495785, 0.08237395772556677, 0.4436408571781459, 2.019100791564077, -2.194988829254529, -0.12987237280753897, -4.816926663925486, -1.1281212769474045, -0.003399813150768498, -0.5483932648138851, 1.7947963449131052, -1.0229759811088066, 1.0087759812359423, -0.16488517386676418, -2.1402711913436323, 0.5873352492722459, -0.43802028152682243, -0.8650069046368243, -0.9381029475729056, -1.4231764299147318, -1.4918007880399093, 0.506592821948636, -2.6675380290320985, 1.113679049169232, -2.7517278421890117, 0.3972974942091743], [-1.987206336943427, -1.3279677659291642, 2.785537541242225, -0.8319794246911293, -2.1196357116267226, 0.08754322462590038, -2.581264871503932, 1.490218042687407, 0.4928959027863222, -1.6828094496408634, 0.4430657432511841, -1.7307085649497602, -1.335935193655001, 0.6231542234113943, 0.40778016029077, -3.4995376952509587, -0.916810518905041, 0.6755099328408263, 0.7418048001542062, -0.6290302360818523, -1.5689878708613085, -0.5871836615166568, -1.326950091688225, 1.5303275826563367, 0.9355109184211252, -1.5096136618047589, -2.1605006087794405, -0.6147169426828301, -1.7037075628438338, 1.1102481934234611, -1.714311101710551, 1.5077594869326796], [1.0078632508845957, -2.3974183987285844, 1.1256662947310396, -1.7570495230945224, -2.6073817567519892, 1.2744690808978876, -3.471064615754785, 1.3619245044528347, -1.53814235902983, -2.1926062052020203, -2.634159187717217, 1.914170972001258, 2.3732570161419444, -0.8053077547490406, 0.14559081414471414, -2.990326671008504, 0.6824637290729979, -1.193978149778258, 0.7086185196166317, -4.080715655200109, -2.2493643972688147, -2.315761210358929, -2.787411961258873, 0.8117885170922472, 0.42458195174190555, -0.9616578802089712, 1.09216028495183, -1.6981858463932822, -3.54936500063339, 1.1167207967047992, -0.9734326731437447, -0.8330261551836332], [-0.20003939599359638, -3.7436794894312952, 0.587449363360423, -0.2920798254575561, 1.377848571335716, -1.824324077042418, 0.4560936258827665, -2.5417506565263612, -2.405897695769137, 0.5285007692756865, -0.3139297932193807, -3.004024956561449, 0.11888252856641371, -2.878516436849605, -2.4913846841468232, 1.8075974351514108, -0.845027270017335, 3.1452279097997993, -0.6618329719302958, -3.9518029703354003, 0.5952329622036734, 2.899779798924274, -2.286636930268628, -2.143273311136049, -2.1353718068022616, 1.8425117452158828, -0.5683954715372977, -0.08760940246690625, -1.909119005967552, -0.3040489757433597, -2.8272827285666216, 0.9834214505491131], [1.8451107172473864, -1.3397187279534122, 2.510151279372442, -2.1313681422816146, 1.0163251559599262, 0.34385339513552576, 0.43496101580554636, -2.808103158139055, -1.2745504006723591, -1.3447323734089032, -1.9742715194559488, 1.8178322579272232, -3.4962867090799903, -2.634691085770704, 2.098401766488949, -3.106273946477292, -0.20176590115115806, -3.6241250320988256, -0.9430335222527643, 3.508070802542817, -3.759735493873651, -0.09928290003603382, 5.244868657373352, -3.3354718469160467, -0.7902381889259464, 1.561045393164493, -1.1120595018931518, -2.9279961753845, 0.9393734841519145, -2.291847537913487, -3.026499891877978, 4.598213031892635], [0.9026178750429017, -1.9133841295539542, -2.633477806706101, -0.9187353343907539, -1.6797620019834352, -2.018440184018829, -1.9470940512226529, 0.8263043145385404, 0.19453221057928713, -0.06078598718466658, -1.7610399852874428, -1.5123322452517935, -0.4724670389551344, 0.05111633080210384, 0.07210014651628618, -0.6353693961064243, -2.9464482851370186, -1.7292386925726404, 1.530069136274416, -1.4313637900593783, -1.7303602182119187, 1.8567730821388666, -1.4911593261789169, 0.731074418650569, 1.0891851633162726, -0.6063405387635183, -0.875815461125563, 0.2502928071313723, 0.04864578066967211, -2.758293335168165, -1.6429839106664916, -0.34288587090991524], [-0.4981064858041309, -1.5720827771892691, 0.6799055230650758, -3.3411545418124082, -1.6668879790154854, -0.27374039072608375, 1.1170894822163955, 0.3471314617197723, -1.0542330476437631, -0.17601750000461155, -0.7136833359320407, -3.281806871221184, -3.1799858458347745, 0.1269816367824953, -0.10713934086121575, 3.231009067550109, -1.0386341904500613, 0.9906820476450445, -0.44699394400576764, -2.612603386041844, -1.56736087024952, -3.9910678028424287, -0.48711009706045516, -2.965531194445206, -3.716779650102553, -1.7587518658636725, -1.1151620523360692, 1.9193869449683667, 2.205460733089568, -2.846516217833134, -0.7711410923386531, -1.7866184142626877], [-2.7855960884198234, 3.4068364827067072, 0.11542106407049006, -1.2416075420308277, -1.712352484667632, 3.2962671197402758, -2.044372671878714, -4.416909235131682, -2.9346128823844007, 2.628689745264093, 0.1315587807967388, -2.68195270763395, 0.6501444721237646, -1.0867871698596716, -1.3505473606206797, -2.88318987253803, -4.15849435611514, 0.3419097297243282, 